87 100
, 0.11572943 0.06694575 -0.07319702 0.087668374 0.13385856 0.09668765 0.045103095 0.1236924 0.030810833 0.25012267 0.071155414 0.09087916 0.06364396 0.4801564 -0.026919596 0.03792633 0.09608629 0.041541383 0.5634047 -0.03476131 0.078557506 0.22795127 0.52506894 0.068944186 0.060309444 -0.02284014 0.8412145 0.066352494 0.10595814 0.17279457 -0.033057015 0.27577344 0.034589402 0.30744508 -0.0017061484 0.11165373 -0.037464067 0.17953387 0.24321426 0.16007149 0.16778935 0.050155662 0.24865648 -0.064875096 0.10504593 0.024550429 0.011916085 0.06894128 0.21111393 0.102629624 0.14216381 0.035311043 -0.0023167927 0.051589034 0.4335437 0.01069604 0.22926311 -0.0028164797 0.19978154 0.080260225 0.11019035 0.18812515 0.06113293 -0.03676421 0.15260391 0.1517548 0.38638753 -0.03019727 0.01927747 0.25068402 0.045532748 0.42720476 0.015308689 0.124731265 0.08058979 0.1729118 0.03830151 0.20434047 0.26517168 -0.063546136 0.27365002 0.045795746 -0.0027982043 0.10955993 0.11456813 0.18367241 0.19314606 0.06712847 0.19128607 0.31620738 -0.017250177 0.10928103 0.006419169 0.018648077 0.19636148 0.22390242 0.20734677 0.14573431 0.21756908 0.34013593
. -0.11297981 -0.078019455 0.18137467 -0.10357225 -0.06998754 0.05374982 0.026819928 -0.15310991 0.26565775 0.0056132427 0.03572562 -0.059522245 0.005193454 -0.21330003 0.24928129 0.1501439 -0.054463036 -0.017871758 -0.1699832 -0.029135307 -0.06403577 0.2317559 -0.22267726 -0.06593954 0.109564446 0.43238962 -0.35204482 0.25419936 -0.124164425 0.6801564 -0.04007077 -0.16111521 0.07649421 -0.12673564 -0.045053773 0.00396567 0.20922586 0.26224202 -0.16173764 -0.12715228 -0.090460636 0.15459977 0.2670066 0.20115712 0.1227066 0.06454008 0.0021519032 0.09868264 -0.15295674 0.29856333 -0.0984696 0.14348806 0.3723611 0.2833639 -0.27245513 -0.0815934 0.2390303 0.2601257 -0.06872379 -0.068845354 -0.071440324 0.0030284654 0.009570499 -0.014835035 0.00866425 -0.062496927 -0.055273727 -0.11713199 -0.11887263 0.09639327 -0.1188618 -0.20411243 0.046690255 0.004142048 0.098879 0.31362265 0.014799372 -0.03802055 0.04007552 -0.033039227 -0.25086796 -0.010419263 0.020753192 0.000704539 -0.0801036 -0.12834255 0.013284339 -0.06955335 -0.038103368 -0.14888957 0.0387969 -0.050831355 -0.08598709 -0.047863346 -0.08967275 0.17400092 -0.09263526 -0.08866737 -0.12864216 -0.13340032
and 0.017858926 0.20634158 0.1287542 0.016404433 0.011354611 0.045803193 0.2017326 0.4162611 0.046562992 0.017604332 0.14883897 0.7376988 0.026855161 -0.17560686 0.39480722 -0.053048752 0.13465366 0.036836103 -0.12355442 -0.0073954053 0.131983 0.23114638 0.033941202 -0.010510862 0.014552153 0.10977401 -0.18935563 0.024936812 0.20845282 0.59238434 0.046030287 -0.106493205 0.23110557 -0.009767198 0.061176345 0.098233856 0.15437755 0.34398672 0.08415592 -0.05756905 0.06739051 0.09778318 -0.060241252 0.052948643 -0.006140368 -0.05512959 -0.011571342 0.3353354 0.68112993 0.0051108943 -0.05437194 -0.002174084 0.3892357 -0.010206346 -0.2077235 0.03762715 0.032451365 -0.08054508 0.07911102 -0.05440963 -0.03218575 -0.089906454 0.034594715 0.0902623 -0.011238264 0.17731549 0.09322526 0.23680204 0.038867712 0.02645752 0.024451962 -0.16370974 -0.05118465 0.17739089 0.10721361 -0.040274892 0.4852064 0.095140204 0.11970294 -0.043826602 0.21643606 0.0198183 -0.016105924 -0.073854305 -0.09206992 -0.12929466 -0.035594583 0.21601336 0.4629365 -0.05654065 0.0963077 0.20230651 -0.0033434243 -0.002886369 -0.09488661 -0.17695132 -0.13325357 0.32069898 0.07863566 0.19050427
choose -0.078123905 -0.005498895 -0.10365367 -0.054133136 -0.085863195 -0.09623457 0.1295533 0.15757874 -0.046917036 0.112595715 -0.05254747 0.17739707 0.12541069 -0.07058138 -0.015623686 -0.010201216 -0.010152769 -0.04155331 0.090710945 -0.0037751733 -0.028093398 0.36886242 0.2033355 -0.026531456 -0.037898123 0.06823243 -0.019612078 0.021343945 -0.0691119 0.4126967 -0.009895258 -0.07726317 0.10432821 0.066965654 -0.03645295 -0.01982103 0.024910407 0.17469867 0.13981532 -0.11428969 -0.017240243 -0.06510081 0.03198809 -0.02195063 -0.016614998 0.008120221 -0.0325938 0.09279854 0.2053311 -0.058911476 -0.057905257 -0.061237805 0.22016552 -0.035007514 -0.14898214 -0.01925363 0.1495295 -0.06361343 0.17453581 -0.07870999 -0.038260788 0.01299837 0.082919724 -0.023582604 -0.04967801 0.15707248 -0.050882194 -0.04540154 0.06295678 0.12596291 -0.0106554115 -0.013560447 -0.045830823 0.26946738 0.0057196035 -0.043348163 0.046376463 0.009403471 0.067495726 0.0027675144 0.11526834 0.0054932674 0.010713693 -0.045016315 -0.046319664 -0.07038017 -0.03680373 -0.010183821 0.16107182 -0.0011313007 -0.008293821 0.09415517 -0.01675694 -0.004045588 -0.09125067 -0.07183846 -0.014886073 0.2119297 -0.015065012 0.03465521
essentially -0.04280459 -0.007834335 -0.03813442 -0.0675692 -0.07662612 -0.010907717 0.1122343 0.045530893 -0.024491243 0.013960207 -0.04981912 0.059865195 0.04299938 -0.041758414 0.034727205 0.06693116 -0.048518784 -0.032249074 0.029177304 -0.008783193 -0.08654291 0.16980605 0.07844069 -0.047672413 0.054137096 0.11563628 -0.0041698907 0.12244113 -0.10113628 0.33894375 -0.019288601 -0.049332917 -0.029069068 0.01195805 -0.026193753 -0.010441169 0.023023665 0.17162864 0.09295088 -0.0067777196 -0.0277047 -0.028668022 0.10388602 0.023773141 0.0446684 0.017477958 -0.033792473 0.18728073 0.06624334 -0.059340797 -0.08175073 -0.016213777 0.26056436 -0.033005156 -0.1225022 -0.051118497 0.09977258 0.13385446 0.1449285 0.0072394125 -0.026966158 0.022202618 0.029354414 -0.007980352 -0.01499347 0.13733032 -0.03657982 -0.12736464 0.018342167 0.1415365 0.057853144 -0.056884598 0.0104747405 0.084240384 0.030409921 0.059373543 0.05662963 0.009907835 -0.007802828 0.029576201 0.06407103 -0.057603583 -0.08690839 0.005843177 -0.05037135 -0.04955966 0.025954252 -0.06292408 0.1270761 -0.0074893967 -0.008822589 0.0990051 -0.05918981 -0.046788957 -0.0057614157 -0.08815452 0.0810467 0.0873 0.00344024 -0.00016788114
is -0.046831533 -0.058107946 -0.006824394 0.0074725044 0.016101435 -0.017198667 0.03895842 0.026778141 0.048629113 0.18451986 -0.07929009 -0.07397358 0.032751102 0.17513601 0.07814454 0.18005867 -0.08949988 0.12306428 0.34602052 0.009763097 -0.05157856 0.24534592 0.29432067 -0.010567543 0.0011010856 0.10421792 0.33566308 0.07148042 -0.05248235 0.21610713 -0.04722131 0.13895145 0.119316414 0.19080457 0.06252954 0.031539466 0.093338296 0.07510047 0.11263462 -0.12629722 0.073895924 0.12722652 0.142029 0.09511811 0.039412495 0.02309452 0.09420534 -0.030127121 -0.09213779 0.025734054 0.022392591 0.08410802 0.14708915 0.0064416807 0.07699668 0.0031642013 0.0544078 0.061567005 0.15858208 0.002181143 0.11479395 0.058420505 -0.0014846086 -0.05484025 0.121900275 0.05812977 0.12672542 -0.06942064 0.10726222 0.19750561 0.0060697 0.32790926 -0.017374752 0.067969374 -0.022730345 0.16044769 -0.0090537155 -0.042065855 0.054289196 0.025101379 0.1921977 0.052195933 0.10649829 -0.04372999 0.12120336 -0.009491322 0.031262558 -0.015657604 0.0029197528 0.24712494 -0.011912451 0.07741781 0.056303326 0.08114939 0.15456012 0.19623758 0.21495889 0.011128975 0.059955623 0.14260677
language -0.064748436 -0.03719123 -0.13940676 -0.04915643 -0.022952002 -0.08347829 0.13263479 0.16786517 -0.0145643465 0.1281499 -0.09363848 0.28156897 0.14692676 -0.043017127 -0.0061054495 0.033692207 -0.032845013 -0.08896289 0.16001731 -0.036975827 -0.057838097 0.5123801 0.27508593 -0.01045504 -0.086069286 0.08473278 -0.091199085 0.007696394 -0.04748799 0.5989271 -0.039414402 -0.034846336 0.14670396 0.040628128 -0.0588885 -0.056345902 0.18230948 0.23944312 0.09811595 -0.06967874 -0.00815319 0.0128714265 0.09645024 -0.060767718 0.055739857 -0.0316813 -0.0035953976 0.050966468 0.26715225 -0.031361584 -0.06648578 -0.065278895 0.3604747 -0.0044375956 -0.08846055 -0.026672753 0.26115748 -0.08891638 0.15809934 -0.0572608 -0.017188359 -0.08105287 0.11005946 0.07897352 -0.033504635 0.17592904 -0.06451087 -0.07706211 0.06110639 0.099635325 -0.062920846 -0.06373764 -0.0023797995 0.30030534 -0.010425503 -0.056222517 0.17212455 0.066390686 0.015613141 0.033366762 0.13568544 -0.054379188 -0.08704701 -0.05920616 -0.028457921 -0.09277341 -0.053606525 -0.10267998 0.14769706 -0.04151154 -0.0069730687 0.18949035 -0.045143194 0.020490833 0.0009479504 -0.11333941 -0.03249689 0.23636712 -0.03222689 0.13926743
never -0.054147046 -0.019326936 -0.031944953 0.011193896 0.063834555 -0.07893926 0.17562644 0.11374206 0.08778246 0.05250199 -0.048596513 0.14500555 0.19443731 0.02285332 0.056995206 0.03210771 -0.060926396 0.07276794 0.15196364 0.00311398 -0.020445405 0.20588163 0.23037434 0.018472701 -0.02796565 0.006473609 0.13356972 0.19354418 -0.024554953 0.34821692 -0.028582709 0.008081108 0.11000892 -0.022281803 0.0007032564 -0.00973218 -0.0056632143 0.14267246 0.09601924 -0.16862027 0.08115357 -0.013390699 0.004007525 -0.0041443408 -0.076169245 -0.018613774 -0.0096176835 0.035854977 0.10401787 0.021042338 0.023355506 0.033177104 0.100791655 0.010806047 -0.03312338 0.009367809 -0.051160127 0.036090672 0.077954575 -0.04916345 -0.040313974 -0.047985762 0.06861699 -0.032134313 -0.057820126 0.20623267 -0.029594187 0.048198886 -0.04984546 0.07520407 -0.015088729 0.03571143 0.007871683 0.28313565 0.020538606 0.006627319 0.052373916 0.014415131 -0.051139966 -0.04570035 0.08952953 -0.044526014 -0.0409586 -0.023811921 0.04740211 -0.050936818 0.08515136 -0.070970304 0.01469643 0.114494726 0.07028668 0.14108934 -0.027401144 -0.023848925 0.1089239 0.007523387 0.119682595 0.18115108 0.006278481 0.07909127
non-random 0.05958144 -0.006454699 0.07310439 -0.04557834 -0.10125406 0.0058800704 0.06895662 0.007691551 0.009874469 0.21647908 0.045416698 0.08369243 -0.012528484 0.18000227 0.097525574 0.091022216 -0.052820627 -0.048478 0.11245676 0.014907753 0.013780891 0.07774198 0.25275218 0.06321818 -0.0050818156 0.19412027 0.107928276 0.01730569 -0.07005609 0.27787444 0.012747688 -0.09768453 0.11447646 0.13025439 0.025510654 -0.08143601 0.14013834 0.044244226 -0.024513802 0.15731403 -0.013503513 0.004578449 0.35552397 0.2210524 0.19499701 0.06951983 -0.02080896 0.07013391 -0.03152416 0.08692652 -0.030810328 -0.023138447 0.2966851 0.046590086 0.18093474 -0.01767072 0.16387434 0.11080755 0.3099763 0.098967135 -0.05217026 0.15366827 -0.017062299 0.008313369 0.24773489 -0.053789746 0.22598226 -0.02575149 0.011483005 -0.0049423254 0.177085 0.08745612 0.02121397 0.06985774 0.21399654 -0.0058249743 0.044738512 -0.012315791 -0.037229847 0.025510702 -0.03572687 0.08695733 0.21336076 0.1496707 -0.060214035 0.27234235 -0.022807252 0.15770887 0.17123786 -0.19065617 -0.07374001 0.12331975 -0.03055981 0.0174096 -0.040444046 0.22062144 0.0115310475 0.020252911 -0.05225719 -0.056896873
randomly -0.005460591 -0.055911046 0.0078114164 -0.045857247 -0.11335135 -0.01307832 0.24443433 0.18801655 -0.038202368 0.14575651 -0.026784534 0.26008475 0.09182501 -0.080287114 0.0728951 -0.024598887 -0.025899014 -0.07544974 0.094206914 0.014780287 -0.021147074 0.43775162 0.2311152 -0.06070631 0.0054670954 0.0067085708 -0.09205276 0.056092415 -0.025727844 0.45076665 -0.0029692443 -0.10572604 0.0820694 0.088747606 -0.0014108904 -0.03345196 0.07762711 0.19548683 0.1305041 0.004968101 0.029725213 -0.072994314 0.0061114174 -0.009209542 0.020301446 -0.033423156 -0.026773663 0.031912018 0.22616947 -0.06626965 -0.06734063 -0.01469117 0.18900062 -0.026064284 -0.20192987 -0.012989835 0.15155339 -0.030738845 0.14967233 -0.026033308 -0.06353617 -0.056384962 0.04585406 0.0038417606 -0.08276048 0.15155308 -0.061568473 -0.043930553 0.006505396 0.055878356 -0.04885351 -0.0060370103 0.0049982565 0.22638375 0.05663266 -0.0028244175 0.15399468 0.077748574 0.060561128 -0.0318705 0.08040352 -0.04367742 -0.030306045 -0.014288051 -0.10186817 -0.06288389 -0.04848675 -0.05503219 0.14645673 -0.0148208095 -0.035412315 0.13517918 -0.018399848 -0.067051776 -0.106832296 -0.16032843 -0.07832626 0.24865443 0.04442222 0.0790772
users -0.012986481 0.033953764 -0.040315703 -0.039843425 0.00658238 0.02636267 0.08202428 0.12026518 -0.027658857 0.06093451 -0.003938945 0.106025435 0.12948175 0.015866209 -0.0053414144 0.058319487 0.004302822 0.00018448167 0.09526616 0.015507992 -0.018648123 0.1729647 0.10678195 0.0024217975 0.0016210146 0.013287465 -0.021680236 0.05527642 0.03558671 0.22584082 -0.050939713 -0.0337459 0.07447041 0.011431258 0.008800544 0.03143183 -0.02401058 0.06660693 0.059487518 -0.06401026 0.016344205 -0.051057648 -0.016207341 -0.018998202 -0.006701329 -0.0013375464 -0.0059892316 0.07561101 0.07977181 -0.0014776955 -0.045947004 0.03797636 0.014634331 0.031361427 -0.026428828 -0.004861174 0.050312553 0.009502847 0.016236454 0.04379912 0.0032488396 0.038225632 -0.023919543 -0.054398682 -0.043575764 0.044079147 0.032893904 0.064485766 -0.02181212 -0.055609614 0.04559075 -0.03945842 -0.021902597 0.16718122 0.072964214 -0.0041927905 0.05143784 0.03058901 0.029591717 -0.0360348 0.10267421 -0.026755977 -0.013072682 -0.02779061 0.027090652 0.006891275 -0.03300937 -0.039744683 0.05742219 0.01827212 -0.016091269 0.13518922 -0.0058686137 -0.01804589 0.0002065138 -0.03500222 0.02168368 0.10443125 -0.037511766 0.074617706
words -0.056521546 -0.09766548 -0.020826817 -0.049388915 -0.045438435 -0.045321 0.12000152 0.15758643 -0.03251294 0.16043381 -0.049200382 0.1765067 0.097251095 0.011849019 0.043377146 -0.06526403 -0.07694337 0.0019955912 0.084584095 -0.032574564 -0.06556878 0.43848902 0.26764762 -0.031767037 -0.0069961334 0.10912724 -0.04361701 0.09723881 -0.14023171 0.38451537 -0.003562398 -0.02899635 0.13904364 0.089230515 -0.015529801 0.0012249877 0.015058334 0.14148964 0.13491389 0.012786056 0.05164594 0.0022237343 -0.0064790025 0.016097391 0.0029705705 0.012513534 0.009509408 0.044468243 0.14941609 -0.015271456 -0.065658584 -0.05674366 0.19306071 -0.023007307 -0.084054716 -0.0092847245 0.17626429 -0.01382798 0.116230994 -0.009559175 -0.019747155 -0.04237403 0.046851236 -0.030881504 -0.02959426 0.18027095 0.044569355 -0.115074135 0.047035735 0.112958014 -0.032320973 0.044308707 0.008662992 0.2622179 0.01752149 -0.052156888 0.08131978 -0.011084849 0.015838927 -0.028148675 0.11592603 -0.038859837 -0.04234184 0.010081938 -0.011924018 -0.025000634 -0.006191966 -0.05621523 0.1444935 -0.036349297 -0.053427797 0.15131685 -0.012968561 -0.012461723 -0.013554374 0.013508489 0.017664934 0.22540496 0.04569916 0.1307851
a -0.0123283295 -0.10372326 0.0034600473 -0.05028058 -0.039648063 0.19428766 -0.0044349204 -0.11174476 0.010826923 0.31856787 0.2854416 -0.08650894 0.027693465 0.20970619 0.026069367 -0.008708588 0.09160854 -0.07322136 0.019871512 0.010518345 0.16648665 0.19825983 0.11993955 -0.059626654 0.109294735 -0.048567127 0.0005228594 0.08541909 0.12161785 0.12246949 0.016061718 0.13632193 -0.0078002387 0.06025352 -0.03378964 0.19026801 -0.0036106554 -0.0056222253 -0.0866503 0.33617526 -0.06651209 -0.021594238 0.14913854 -0.02276477 0.26199797 0.28557578 -0.018517138 0.04280782 0.09154915 -0.06934913 -0.091019295 -0.03745434 -0.043818027 -0.03835192 -0.0032452564 -0.048827562 0.45304036 -0.0070139114 0.067338005 -0.048144262 -0.11443399 0.19035609 -0.03383837 -0.0047971695 0.3214309 -0.111235455 0.088872984 -0.017226895 -0.06525793 0.091378085 0.102995746 -0.027301459 -0.0017883905 0.026733775 0.095171 0.29934892 -0.03731127 0.24932921 0.24062963 -0.0014110688 -0.13134782 -0.00019606098 0.20260239 0.059341144 -0.0774352 0.46903628 0.1794669 0.31026733 0.10638251 -0.12779632 -0.043928333 0.024461145 0.00069931353 -0.0026111274 0.15244557 0.1454553 -0.09808583 -0.0666383 -6.955011e-05 0.07337944
hypothesis -0.055699848 0.11553429 -0.008663951 0.036801085 0.3956315 0.42685953 -0.053668875 0.035930373 0.10623564 0.039305374 0.37157482 0.047614638 -0.0383885 0.16562733 0.049069393 0.017646806 0.18058752 0.081414685 0.0045970646 0.018996332 0.28419876 0.1490122 -0.09556397 0.039052624 0.29146883 0.012031637 0.10416369 0.15163663 0.60813284 0.13571906 0.019736119 0.28814882 -0.0584107 -0.07353841 0.045641996 0.4786427 -0.020980038 0.06315415 0.12922956 0.11895495 0.04984114 0.12520368 -0.113851 -0.063109644 0.18374485 0.17428003 0.03833496 0.13256685 0.33686873 0.01948677 0.06305188 -0.013932198 -0.020580769 -0.013191758 -0.029361863 0.035734303 0.25028363 0.035528265 -0.06594926 0.047068015 0.102934614 -0.13571228 0.02277089 0.095485196 -0.09568174 0.036104064 -0.035008747 0.036090184 0.049358834 0.059135724 -0.11754725 0.0789589 -0.026616808 0.0747942 -0.043285973 0.5691084 0.03469215 0.5958712 0.37765723 -0.012051575 0.06529595 -0.042168915 -0.12029349 -0.088216536 0.039854314 0.10528408 0.45562983 0.1427429 0.18791175 0.23196831 0.0352772 -0.053002447 0.07591078 -0.017012537 0.44639906 -0.08477575 0.061264064 -0.017588595 0.13558635 0.5836619
null 0.028611576 -0.10159337 -0.03174852 0.0976869 0.30413398 0.13818096 -0.060945433 -0.090902835 0.11428239 -0.023017824 0.16902825 -0.1667337 -0.018890226 0.23380306 -0.094401255 0.025849504 -0.070548765 0.12005253 0.10695508 -0.049303714 0.053406157 0.114397615 0.00844653 -0.050945308 0.069012515 -0.0072473614 0.1158319 0.23026448 0.23378332 -0.06826357 0.10365383 0.38889432 -0.02155419 -0.049406234 0.052932374 0.2668836 0.009478647 -0.118393734 0.16333227 0.1305276 -0.0011693358 -0.075232856 -0.13294865 -0.05220087 0.07891922 0.13407224 0.027379228 -0.015884304 -0.044971835 -0.09585657 0.029566467 -0.04008034 -0.08269954 -0.025891392 -0.0027763378 -0.0054685986 0.21086301 0.011848478 -0.114420496 -0.02415854 0.006373972 -0.14950265 -0.02210231 0.08196051 -0.09029201 0.09525028 -0.16490476 -0.06852367 0.035368208 0.075640745 -0.07525357 0.16439366 -0.03764877 0.07817472 -0.010169046 0.43095723 -0.07441831 0.25900972 0.20513326 0.008419207 0.07702509 -0.04254197 -0.13077083 -0.02517189 0.08391817 0.032556467 0.36696386 0.040037043 -0.09675831 0.35190973 0.06806592 -0.08467202 0.14045276 0.07957449 0.39811385 -0.06489581 0.14307696 -0.065077014 0.062090553 0.25876582
posits 0.01383069 -0.07946111 0.12235024 -0.0116302315 0.016746247 0.16806719 0.01814875 -0.095669486 0.01673181 0.07410227 0.086256765 -0.04201939 -0.008567297 0.071019255 -0.011396933 -0.053740833 0.014069721 -0.023801526 -0.021027902 -0.033403225 0.12931676 0.10277151 -0.019951772 -0.057808023 0.006214093 0.08007453 -0.07460097 0.18707918 0.119721405 0.27996892 0.10617383 0.08533646 0.05626958 -0.0057635377 -0.0021710496 0.13849792 0.023700995 -0.017994797 -0.05166966 0.13448074 -0.08917342 -0.04062202 0.086710714 0.07680557 0.116589434 0.1278672 -0.013610355 0.11503817 0.038626667 -0.03600985 -0.080004774 0.083805 0.11159191 0.021951685 -0.08827939 -0.0048518544 0.30127248 0.015312978 -0.029371003 -0.008598187 -0.11352539 -0.027680242 0.023523292 -0.0038672255 0.036374904 -0.05911097 -0.006079801 -0.049669415 -0.0010251827 -0.011862801 0.0369093 -0.09196693 -0.0059865112 -0.0012344854 0.08217779 0.22570004 0.026247352 0.119038455 0.06548445 -0.0070013935 -0.058381423 -0.012970518 -0.009618083 -0.006235307 -0.02714222 0.19414951 0.15026352 0.09121972 0.08361448 -0.05451803 -0.0049623083 -0.04993585 0.026357712 -0.030555617 0.10380245 -0.054992788 -0.016677514 -0.05913728 0.020041905 0.0028576183
randomness 0.009073973 -0.045084186 0.06684861 -0.062229317 0.024805682 0.08577497 0.10144291 -0.053561877 0.015424029 -0.029526299 0.012816245 -0.051180907 -0.0022337963 -0.056047574 -0.029523695 0.025580304 0.021279538 -0.016786257 -0.039806813 -0.0026729347 0.016030598 0.031156538 0.0045913514 -0.047542132 -0.022362258 0.04576517 -0.10549771 0.122259185 -0.023111504 0.1779676 -0.0082713645 -0.0055975127 -0.05878485 -0.10491762 -0.04012815 -0.026360607 0.02464854 -0.004947493 -0.024789963 0.18679504 -0.07293269 -0.026961824 0.06558324 0.045732964 0.11883624 0.048967745 -0.04110133 0.11373975 -0.00625779 0.019284518 -0.04110367 -0.006511146 0.17373611 0.07354726 -0.12292342 0.018915774 0.06966966 0.052002788 -0.0018747193 0.024088249 -0.06574128 0.042259403 0.06211039 0.008743153 -0.049734198 -0.07451241 -0.0037952592 0.029086031 0.0017859873 -0.01509414 0.041536223 -0.11784184 0.017091222 -0.033107214 0.15950389 0.1722168 -0.022946179 0.09416737 0.06878218 -0.046346962 -0.05193042 -0.038091462 0.015492531 -0.04370854 -0.020676365 0.10373403 0.13126163 -0.021311203 0.14004625 -0.03273436 -0.013028311 -0.009131587 0.011225551 -0.002269946 0.02269955 -0.034479704 -0.029940527 -0.070439234 -0.108567744 0.10142583
statistical -0.036362316 0.020857962 -0.0413016 -0.029704807 -0.00081417523 0.16763648 -0.0024295852 -0.023017548 0.02963823 -0.01784694 0.10202392 -0.03449049 0.02735478 0.045275092 -0.028008245 -0.019237228 -0.028081385 0.008820615 -0.016846063 0.005949537 0.11269739 0.0573979 0.0007999061 -0.023341635 0.0894899 0.006724259 0.009906712 0.05794502 0.14285243 0.014005978 -0.008118085 0.13074483 -0.027500786 -0.0316404 0.011437839 0.10615142 0.02442323 -0.039427657 0.0071990713 0.1315386 -0.048943426 -0.04655381 -0.0067276685 -0.056455057 0.093438104 0.1163246 0.011119284 0.004501463 0.004609889 -0.047155637 -0.0033006433 -0.044433817 -0.012282012 -0.009490809 0.03991986 -0.03151995 0.11293401 -0.04094262 0.0048786765 -0.008615176 -0.05267841 -0.05118177 -0.03301214 0.05610462 -0.030369354 0.016228307 -0.026606977 -0.036779914 0.0053740004 0.008891068 -0.013304014 0.019539436 0.0014266595 0.04951319 -0.038319252 0.16624935 0.023492897 0.1792562 0.06739117 0.008343879 0.025487754 -0.03776437 -0.021303074 0.016255507 0.009672089 0.079002574 0.09907166 0.13528717 0.03346538 -0.045287725 0.02687679 0.04243558 0.060407218 0.0028759707 0.13192439 0.012898517 -0.026792768 0.01146116 0.047098685 0.038566105
testing 0.020789953 0.0867165 -0.08241133 -0.047985025 0.20347047 0.20800622 -0.029785354 0.09682687 0.009659599 0.033930298 0.28462353 0.19965117 0.0012192946 -0.02566502 0.121250264 -0.04818956 0.2171808 -0.031930495 -0.10584475 0.01950543 0.1991357 0.054030366 -0.07219607 0.06204561 0.18340956 -0.0011374017 -0.099792585 0.066613525 0.40967757 0.20038767 -0.02485121 -0.008974174 0.03549715 -0.032705016 -0.061767835 0.3094413 -0.014797268 0.1979447 -0.09542746 0.04983814 0.013504425 0.16998178 -0.055592414 -0.010864467 0.15314512 0.07208919 -0.0461745 0.2400143 0.48576772 0.14408788 0.012679491 -0.0068946783 0.035905313 0.048839435 0.03550918 0.100762635 0.22857122 -0.06995713 0.0077141104 0.047216695 0.004605308 -0.027648427 -0.015025864 0.08045765 -0.05393023 -0.03411033 0.108692154 0.049276493 -0.019543901 0.01270566 -0.08862347 -0.11492789 0.06542063 -0.0282165 -0.048939165 0.3296146 0.06927783 0.31761992 0.24691443 -0.012835393 -0.04240673 -0.0075460556 -0.014531612 -0.03425524 -0.04684824 0.10142107 0.18510365 0.21503149 0.32736665 -0.05439872 -0.04106999 0.026281483 -0.004705217 -0.0083265295 0.038083363 -0.07369856 -0.11336689 0.07095358 0.1066246 0.35114512
uses -0.022349777 -0.08355947 0.005808321 0.017511385 0.033117875 0.27386758 -0.018570237 -0.04923917 -0.021179613 0.01655829 0.26641586 -0.07948688 0.019970503 0.08700898 -0.019015701 -0.0675912 0.031738155 -0.035723507 -0.034253206 -0.058810852 0.2214751 0.2723219 -0.05484928 -0.047606673 0.18433523 -0.018558554 -0.12533508 0.07559571 0.22429746 0.15299653 0.013033256 0.18657672 0.02972319 -0.022070771 -0.0343633 0.32880357 -0.046943806 -0.08926025 -0.07728479 0.18817465 -0.06272209 -0.06339891 -0.0536393 -0.035549328 0.27331933 0.16694893 -0.04956628 0.02325995 0.12313804 -0.05753297 -0.104909346 0.013840456 -0.062484358 -0.023629315 -0.09605883 -0.044353187 0.34480256 -0.03504589 0.009314783 -0.08696974 -0.036827754 -0.013643993 0.034466352 0.07086553 -0.03328937 -0.030000167 -0.05487978 -0.018316098 -0.07329975 0.030532878 -0.08575403 -0.12500238 -0.041406732 0.050908845 0.010588047 0.32448772 -0.041399084 0.30367282 0.19892327 0.0035761355 -0.100250185 -0.01747192 -0.0063049793 -0.015784906 -0.059509754 0.25390482 0.29485193 0.16753092 0.06379924 -0.008805475 -0.061131842 -0.057151236 0.003932789 -0.023478989 0.28474724 -0.03983134 -0.07251505 -0.06394785 0.063430615 0.118556805
which 0.01455936 0.1386092 0.049171 -0.030070193 0.17081465 0.20955989 0.022670647 0.14980674 -0.051354256 0.023185525 0.26847258 0.16055062 0.039763846 -0.11409395 0.14081116 -0.055014137 0.20986445 -0.109089285 -0.17121899 -0.023981294 0.17183024 0.032289766 -0.12994628 0.04274642 0.12629415 0.039284144 -0.19987233 0.066658095 0.3492509 0.33090082 0.041674536 -0.038428966 0.03195297 -0.07524358 -0.095926404 0.22695899 0.033978328 0.2244767 -0.09794332 0.07045657 -0.0022590167 0.17914174 0.066147946 -0.017533619 0.026716748 0.05745733 -0.05129455 0.20888418 0.4443662 0.20029908 -0.064642005 -0.009522175 0.08414211 0.03851754 -0.0842588 0.09976994 0.18992391 -0.017189557 -0.12988427 -0.0102738645 0.0071560135 -0.038619492 0.026548294 -0.041569836 -0.07497956 -0.04676123 0.07952405 0.08285035 -0.0038577854 0.03480995 -0.07441797 -0.18844622 0.02457384 -0.009792631 0.06952906 0.25056285 0.071192294 0.20303874 0.21740028 0.00086734147 -0.10898273 -0.0066897906 -0.056298528 -0.029011013 -0.095298536 0.017274043 0.0737465 0.089938276 0.40460148 -0.09656019 -0.04286839 -0.05101171 0.040473644 -0.031190488 -0.011309281 -0.11217807 -0.16276656 0.016114537 0.01923368 0.2665061
at 0.103507 0.0515696 0.040446594 0.16511987 0.22682665 -0.02249542 0.01199587 -0.020672515 0.1249907 -0.03758466 -0.031674642 -0.05109198 -0.014742638 0.07814436 0.0008357583 -0.04171586 -0.036856264 0.18581724 0.15535726 -0.051036175 -0.004113096 -0.033907216 0.0016984828 0.080017574 0.02382062 0.0108274445 0.23983279 -0.029950542 0.016202059 -0.038274612 0.05586115 0.18863471 -0.037755355 0.046956252 0.10325139 0.058993477 0.017900944 -0.037592478 0.15619065 -0.011092171 0.021348678 -0.03673493 -0.048809282 0.0135142375 -0.029290145 -0.022564344 -0.027721262 -0.029054774 -0.062764406 -0.031324074 0.12940481 -0.00054393127 0.0041592577 0.028012624 0.15452582 0.105896324 -0.03876667 0.091274194 -0.06748391 0.023801737 0.10030835 -0.059397668 0.058711097 0.038374674 -0.05254285 0.14995457 -0.082273126 0.013343522 0.050021157 -0.020511277 -0.058050063 0.15934579 0.04160305 0.048910797 -0.015300892 0.06313587 -0.011881318 -0.032913737 0.0024921626 -0.0050264983 0.23423488 -0.045546364 0.0052809976 -0.042356614 0.14588152 -0.016832579 0.121490195 -0.04514755 -0.09994654 0.36997762 0.016821355 -0.0077547454 0.01911056 0.15869299 0.21148072 -0.060182795 0.22524524 -0.044528864 0.07971691 0.0780132
be 0.08156528 0.17675509 0.038106628 0.18079107 0.30433854 -0.023276035 0.03337776 -0.046156693 0.18153217 -0.035256892 -0.09737612 -0.033008635 0.010085535 0.18247919 -0.06185839 0.066843845 -0.047950376 0.22238868 0.15692425 0.044627666 -0.06522168 -0.03327136 0.05165701 0.10878439 0.018821228 -0.0031695778 0.34976867 0.1597151 0.09638993 0.03771954 0.01135174 0.3002363 -0.007720331 -0.040202975 0.1433999 -0.047069605 0.0071587954 -0.08555667 0.19534136 -0.06371309 0.02356131 -0.038552314 0.050279923 0.022157772 -0.022939334 -0.006882951 0.13424608 -0.015028539 -0.12899669 -0.04151047 0.17490114 0.111021645 0.0019134253 -0.0041644494 0.1264834 0.067490384 -0.040597692 0.23903698 0.04987647 0.13618666 0.12312101 -0.037125215 0.012431691 -0.026497645 -0.036285058 0.23770425 -0.02009922 -0.005064275 0.24306753 -0.0010693135 -0.0038346322 0.35206962 -0.03815778 -0.02838086 0.036301844 0.18782604 -0.019897169 -0.006292141 -0.0058125323 -0.021421425 0.21055266 -0.018727977 -0.0054433644 0.016967315 0.31157377 0.0012137103 0.052017804 -0.048085105 -0.04300305 0.35807687 0.14417629 -0.013782839 0.15676206 0.06784545 0.21433316 -0.02112257 0.3911384 -0.06305922 0.13442215 0.23870039
corpora 0.009979522 0.24351461 0.12026923 0.2286275 0.21251501 -0.044412494 0.099276796 0.049423423 0.19638881 -0.13892409 -0.022700034 0.1520237 0.019907976 0.009049573 0.19990222 0.022842016 -0.11571848 0.25643864 0.08421597 0.0038868976 0.029039621 -0.06926767 -0.010934379 -0.019131238 -0.017539514 0.054539934 0.1496305 0.09446437 0.111333095 -0.011092038 0.033063874 0.224323 0.14430425 -0.06540712 0.261003 0.038225688 0.11386494 -0.09470023 0.21450265 -0.12570532 -0.025551364 -0.012116885 -0.07006103 0.09434827 0.0062768576 0.068579674 0.024871325 -0.015861897 -0.053336818 -0.07890764 0.07419213 0.00090398866 0.096882865 -0.019474473 0.0802139 0.059625883 -0.15810564 0.05079398 -0.06736172 -0.028017571 0.093646236 -0.111270346 0.004953371 0.1392661 -0.08875432 0.17393877 -0.10506496 0.25408712 0.06463403 -0.038933825 0.11797244 0.123673126 -0.013659717 0.06438118 0.03491927 0.046451867 0.15854982 -0.03204332 -0.024948418 -0.0018382961 0.25903776 0.052546743 0.05754466 -0.036735393 0.14210589 -0.103811294 0.04809372 0.075587586 -0.12749353 0.28840268 0.1847074 0.12609474 0.032869417 0.19987851 0.1301603 0.013785094 0.1381682 -0.06865742 0.112896435 -0.024650738
hence 0.088334896 0.025243012 -0.03900107 0.060875334 0.07340608 -0.014653329 0.012187926 -0.022737164 0.025154214 0.01720218 -0.09991154 -0.0045756167 0.0054097585 0.10916867 -0.052276235 -0.0023734544 -0.07633802 0.15898259 0.1594226 0.012025973 -0.015512062 0.0009665278 -0.032427456 0.04950387 -0.04007431 -0.033437446 0.13778988 0.046655204 0.04513325 -0.1310856 -0.032988977 0.06665935 0.044493083 0.031006755 0.038259868 0.04162825 -0.045091353 -0.08326787 0.1570485 -0.10793861 0.031827383 0.029790355 -0.10384902 -0.008921582 -0.06702938 0.014037515 0.07799575 -0.08378441 -0.085321516 -0.01785998 0.06138056 0.0342647 -0.06627912 -0.027826024 0.03108544 0.082417265 -0.10135549 0.017483506 -0.086626045 0.06027895 0.032167323 -0.04235993 -0.02013195 -0.0434628 -0.057566237 0.049585827 -0.02479609 -0.014571779 0.01808376 -0.04159505 -0.0526224 0.16611445 0.0019273855 0.023170184 -0.068567686 0.028045379 -0.004432357 -0.04215367 0.0104458565 -0.017209364 0.11138565 0.0031437853 -0.034546483 -0.02763296 0.11887719 -0.08165264 0.06709454 -0.057098232 -0.17553465 0.20882763 0.05021104 -0.037503198 0.034727816 0.06603208 0.17079976 0.010106462 0.112606116 -0.02290954 0.053527776 0.11369681
in 0.2969673 0.27675873 -0.09527652 0.027295884 0.29314798 0.08124395 -0.037896086 0.18468831 0.024602242 -0.02720967 0.08539829 0.12106236 -0.049135406 0.05073542 0.04887726 0.018151369 0.23087941 0.02318003 0.16918655 0.016089281 0.040205024 -0.034276012 0.020856636 0.13305645 0.12841278 -0.11800762 0.22392417 -0.12448843 0.24502948 0.012684621 -0.059414532 0.08564413 -0.03219457 0.11558698 0.009323903 0.030758332 -0.047234885 0.21648696 0.063474305 -0.027928706 0.08868745 0.18398921 0.022720985 -0.07168004 -0.06487681 -0.06588305 -0.050702035 0.08948328 0.23166199 0.18220934 0.19545323 -0.08377804 -0.08028061 -0.032718405 0.38277295 0.11418394 -0.13608567 -0.10031509 0.025699798 0.0757686 0.27376974 0.0596777 0.014482428 -0.05015807 0.060531296 0.11774865 0.29373133 0.12873377 -0.12018409 0.06893499 0.009674065 0.129935 0.04328308 -0.08425988 -0.05961376 -0.04071272 0.057507157 0.0045380318 0.05686509 0.0015139774 0.11121076 0.013763027 -0.14391518 0.047191534 0.09771709 -0.023564398 -0.01622191 0.092200674 0.25689325 0.20990753 -0.014929231 -0.0440279 0.01715059 -0.052941572 -0.039640717 0.07263688 0.08462468 -0.025415096 0.14994806 0.21383016
linguistic 0.094334014 0.15028818 -0.025119167 0.19116314 0.23444144 -0.014179947 0.003927571 -0.010372527 0.086611874 -0.05712773 -0.030771155 -0.06866477 -0.046290822 0.066573255 -0.065420024 -0.04580599 -0.06360287 0.13859864 0.14822538 0.02759332 -0.06397931 -0.01702658 0.064913906 0.002932217 -0.037090216 -0.036489725 0.23053843 -0.02246089 0.0011315261 -0.01748953 0.0059066364 0.19726804 -0.002239897 0.013781562 0.111595 0.057933588 -0.015374399 -0.07146791 0.21685722 0.002083622 -0.007701201 -0.017957654 -0.021011285 -0.013394852 -0.005888412 -0.014220912 0.009946211 -0.011958049 -0.077429496 -0.021433266 0.13347833 0.05903814 -0.0420139 0.0070457286 0.08295965 0.049322795 -0.032860197 0.047423635 -0.062103868 -0.032093924 0.0791748 -0.043456737 0.024315635 -0.02534707 -0.09781707 0.11275305 -0.114510745 -0.014154982 0.0017251299 -0.015129039 -0.07175807 0.15415925 -0.0047912113 0.10683374 -0.046954785 0.00335374 -0.042878848 0.014720243 0.013916901 -0.026338018 0.14560902 -0.05432987 -0.052761048 -0.062472112 0.20836851 -0.062504224 0.13977306 -0.07655987 -0.028229617 0.36647198 0.13504419 -0.06043189 0.06754292 0.13596854 0.2043452 0.007143275 0.20143397 -0.011746249 0.06319292 0.1597092
look 0.10389095 0.047626983 0.022455866 0.17955686 0.17633253 -0.015387868 -0.037192903 -0.029833676 0.073590435 -0.07038989 -0.005434917 0.0040041385 -0.03905917 0.059023775 -0.031997457 0.023833843 -0.08403027 0.18993236 0.14211088 -0.043619834 -0.05013564 -0.027253674 0.020846251 0.06349557 -0.015241112 -0.041879524 0.17825486 0.053891025 0.057904948 -0.037290525 -0.03382309 0.20929487 -0.012749762 -0.026900772 0.03902637 -0.024788179 -0.0367202 -0.06386705 0.13280044 -0.042757634 -0.009772226 -0.0105499 -0.101245955 -0.04089517 -0.012656208 -0.0146260755 0.043909047 0.0017503288 -0.07779971 -0.09148254 0.06445829 0.05305074 0.0029293292 -0.032934267 0.12252436 0.106205404 -0.020008031 0.10238606 -0.049251657 -0.0073535223 0.045564793 -0.0767295 -0.008491313 -0.035128318 -0.11834128 0.18054834 -0.11817824 0.03750286 0.09600919 -0.008543362 -0.051653553 0.20065588 0.00954404 0.1055255 0.0006660918 0.07667173 0.0120838 -0.01201268 0.0034508375 0.02863979 0.19470344 -0.046477377 -0.02027637 -0.08292597 0.13011397 -0.08134372 0.108607285 -0.09252273 -0.05210606 0.29461753 0.030490447 -0.07536122 0.030976975 0.08271721 0.15336366 -0.024584966 0.16236809 -0.01928533 0.0589676 0.107964806
phenomena 0.11186968 0.02073422 -0.033191487 0.074830726 0.14281125 -0.038330827 -0.02162781 -0.031591512 0.07580282 0.1359307 -0.04794997 -0.099696696 -0.04916892 0.22463222 -0.06938897 -0.017622773 -0.09778195 0.15393712 0.33296126 -0.014517283 0.014407867 -0.014921928 0.28305128 0.04880528 -0.042119183 -0.060745504 0.4442939 0.007946895 0.019918468 -0.1278734 -0.043415003 0.1979797 0.030743336 0.11316779 0.08243743 -0.0010543943 -0.045248434 -0.0561986 0.14899272 -0.018987402 0.068335176 0.005677972 0.1261407 0.009316441 -0.0031664749 0.04409053 -0.04333511 -0.067075655 -0.086257435 -0.014657097 0.11796368 0.0031939563 -0.08526261 0.005584311 0.31810722 0.008535811 0.016904943 -0.0092127845 0.052352183 0.061003607 0.051911857 0.07753934 0.057547774 -0.033948835 0.11108774 0.102516435 0.17384146 -0.0004256133 -0.02983153 0.045055777 0.13434386 0.33483097 0.021256415 -0.029013757 -0.02459979 0.009130271 -0.060416806 -0.04510157 -0.054083627 0.016108135 0.15226008 0.019736873 0.096082516 0.07843486 0.20139879 0.12222007 0.05184323 -0.0019796237 -0.103945255 0.2698385 0.10100862 0.03776782 -0.027485427 -0.008572177 0.116133586 0.18141201 0.16614 -0.062318448 0.12734386 0.06901868
the 0.071853556 -0.00515651 -0.054096736 0.006576662 0.049557388 -0.084132396 -0.028533345 0.008172666 0.023300398 0.19167912 -0.115212 -0.06245168 -0.024552546 0.45563394 -0.06674634 0.06129995 -0.042095985 0.08720562 0.4355432 0.058407195 0.01208817 -0.08892961 0.46873778 0.010596012 -0.008848794 -0.02871288 0.58001494 -0.033578902 -0.03616839 -0.12756139 0.0057891835 0.12907377 -0.04306125 0.31547117 0.037354 -0.028291002 -0.020583423 -0.08730765 0.13148615 0.08778324 0.1499067 -0.0040409435 0.23957591 -0.007572878 0.084242664 -0.0047766767 -0.088357754 -0.07393896 -0.13200629 -0.04001666 0.14089528 -0.04496209 -0.058333844 -0.0070742094 0.4474622 -0.020231927 0.077095844 -0.015453426 0.15852712 0.13095796 0.11144278 0.32345453 -0.022915453 0.04315212 0.2858677 0.063975155 0.33015725 0.002642148 -0.080182396 0.07328675 0.20672713 0.42460802 -0.049830765 -0.0007190532 0.035662744 -0.057199873 -0.018826894 -0.046610802 -0.09102198 -0.028173378 0.11928975 0.06812872 0.24206741 0.018166889 0.16066445 0.2260048 -0.011090233 0.0025832937 -0.09218578 0.20391625 0.035906926 0.032270532 -0.037947223 -0.05821403 0.044159517 0.3009061 0.23181112 -0.070021935 0.11997309 -0.0007764591
true 0.0032430168 -0.002421609 0.04890195 0.06269025 0.064001255 0.05361904 0.07179391 -0.049083214 0.13284914 -0.073477566 -0.04952659 -0.029895471 0.06404907 0.005112453 0.076726995 0.0064130267 -0.069603205 0.06502332 -0.022229858 0.03724561 -0.04688813 0.01268431 -0.07006728 0.06185973 0.08245202 0.14497395 -0.02872012 0.21656612 0.030171694 0.2571969 -0.03140344 0.19944939 0.07924025 -0.021339508 0.012857962 -0.018453604 0.005200797 0.0634194 0.010295137 0.0679237 -0.07334177 -0.0054531586 0.08485274 0.09663097 -0.08006557 0.040313054 0.06853226 0.13989109 -0.05676887 0.058814105 0.014609313 0.051769536 0.21547402 0.0023734635 -0.046462975 -0.0011580988 -0.03564395 0.24366201 -0.022419397 0.060238414 0.061579544 -0.1156807 0.059705004 -0.0478964 -0.17286882 0.09204805 -0.09321426 0.010854658 0.062392715 0.062826365 0.065438576 0.062437914 -0.029693006 -0.019089123 0.016134027 0.14430816 -0.014382494 0.0018921825 0.042035453 -0.0059272447 0.03360981 0.03194212 -0.057987336 -0.059908733 0.099004075 -0.011458741 0.14554298 0.049365867 -0.04187488 0.12633815 -0.09713672 -0.03746407 0.122509375 -0.042915262 0.1219283 0.0035836312 0.28569666 -0.047872603 0.0558433 0.047522843
we 0.27331343 0.2080617 0.007216318 0.10581079 0.2590317 0.02255577 0.016238643 0.11506942 0.11615185 -0.005974372 0.063196324 0.18296985 -0.04097213 0.19782355 0.11315913 -0.024434574 0.1393646 0.20482889 0.26402697 0.010295386 0.1011047 -0.05733039 0.17883751 0.24173972 0.02657347 -0.072489955 0.38916618 -0.0070659895 0.3055018 -0.12771367 0.0943797 0.089432724 0.0032832606 0.060391314 0.15990503 0.030873254 -0.021728855 0.027255893 0.27769822 0.0013798281 0.047324147 0.05417175 -0.038480606 -0.049507316 -0.014305116 -0.015483179 0.08906532 0.015584765 0.18509643 0.11461967 0.23501197 0.038944725 -0.02783089 0.012336205 0.36737007 0.12955296 -0.11795203 0.038666222 -0.024563387 0.013260906 0.1644439 0.06478064 -0.030089248 -0.008752228 0.121970795 0.14211184 0.26103058 0.21188833 0.09114619 0.0143543305 0.060544845 0.31171015 0.031130668 0.070622504 -0.011671833 -0.035128552 0.11739227 0.022589343 -0.048613265 0.009962453 0.33487463 0.079616085 -0.0011858299 0.067234695 0.15483898 0.021974595 0.060157575 0.14645992 0.057629958 0.37416378 0.18394856 0.1052985 0.10989584 0.13179334 0.09957096 0.14503868 0.119666375 -0.067730516 0.17381452 0.15603778
when -0.00873364 0.100743264 -0.08281517 0.13601059 0.111701824 -0.042984527 -0.059411738 -0.017822102 0.062386688 -0.05698996 -0.039332617 -0.054190386 0.07515672 0.09419034 -0.046188366 0.019119363 -0.034997154 0.1851747 0.1963277 -0.032806482 -0.025419138 -0.036719866 -0.046577416 0.089125186 -0.03317282 -0.011723898 0.17792645 -0.016837029 0.025685696 -0.11216357 -0.056307238 0.18237363 -0.017174102 -0.041792158 0.078963995 0.020071613 0.040199738 -0.09054822 0.13766213 -0.10079058 -0.047501545 0.0033203643 -0.098124266 -0.08582534 -0.03515434 0.01029543 -0.0021806338 -0.07131638 -0.08029453 -0.07563698 0.17375633 0.039956536 -0.14644063 0.035381716 0.113568954 0.02845049 -0.12103675 0.12226344 -0.061520044 0.013090557 0.07816112 -0.05049734 0.025402594 -0.024073424 -0.022285834 0.09601007 -0.057706874 0.0073401844 0.008096765 -0.07604205 0.03795622 0.15060754 -0.046418373 0.017683245 -0.056056533 0.07722038 -0.058678187 -0.046523556 0.02399555 -0.04705565 0.22172332 -0.032335322 -0.009528445 -0.0484421 0.07807737 -0.08464123 0.06734874 -0.07925044 -0.14155772 0.34998697 0.059119526 -0.04434643 0.11271734 0.108587936 0.14505047 -0.015554495 0.20128796 -0.0242222 0.002905882 0.07907262
will -0.011780412 0.05570615 -0.053145044 0.056942157 0.21884373 -0.026588341 -0.06829265 0.03205782 0.10797037 -0.09033481 -0.05146356 -0.06773455 -0.029221801 0.11339337 0.027697187 -0.026828364 -0.062266383 0.14958672 0.04880447 0.0118401805 -0.07099446 -0.055059236 -0.00958872 0.041849203 0.028213969 -0.0073578265 0.17288399 0.048209503 0.09293514 -0.048072506 -0.034718778 0.1874765 0.06642449 0.013910516 0.058672253 0.002294802 -0.052315265 -0.033451878 0.14987954 -0.12425034 -0.017173281 0.011289489 -0.040898588 0.069586106 -0.07878885 0.014720564 -0.024064908 -0.05328183 -0.14859587 -0.031675745 0.05904029 0.00957087 -0.018625889 0.012101734 0.09787709 -0.044456445 -0.15381533 0.11326485 -0.07614416 0.07460589 0.05599131 -0.12596075 0.08875322 0.022587068 -0.13841431 0.049704835 -0.048825085 -0.028761486 0.0044736 -0.009271579 -0.014672886 0.10287175 -0.04069227 0.03427594 -0.05109428 -0.017537564 0.0042938157 -0.036451876 -0.029720288 0.036186762 0.13148357 0.017843638 -0.06718762 -0.014859384 0.16357507 -0.12365288 0.12640344 -0.068096355 -0.099518746 0.27963427 -0.010227858 -0.053380575 0.046501424 -0.009583332 0.22744907 -0.0006062322 0.19939333 -0.042537816 0.14450862 0.053656016
( 0.116511896 0.11003864 -0.04537325 0.10475969 0.21407025 0.008749288 0.022101972 0.00686042 0.11381939 -0.058775306 -0.014271409 -0.027564319 -0.048303463 0.068072416 -0.01452777 -0.019771826 -0.044268522 0.20916334 0.093350835 0.037661433 -0.0013115784 -0.050183978 0.0041156933 0.07567075 -0.017235959 0.022723285 0.23423223 0.08260417 0.057449587 -0.024243873 -0.015274182 0.1949471 -0.014667505 0.034999598 0.06799387 0.06742199 -0.012142525 -0.079425044 0.14350869 -0.07047108 0.044747192 -0.029260933 -0.058083646 -0.041174125 -0.053979672 -0.026440075 0.061520625 0.0012238825 -0.092444666 -0.050493848 0.11795597 0.054868802 -0.03139278 0.03131884 0.07829577 0.025617037 -0.07785307 0.039220963 -0.06564255 0.045113206 0.045162212 -0.054835584 0.053206738 -0.027310764 -0.092360735 0.13633838 -0.059132103 0.02737637 0.17641033 -0.044952802 0.011232386 0.17107521 0.045629308 -0.002041712 -0.042651374 0.08686817 -0.009100133 0.009082023 -0.04380026 -0.014244415 0.12785578 -0.002194487 -0.07421756 -0.027911324 0.15165344 -0.04917078 0.04868203 -0.061185602 -0.07965449 0.3360918 0.04371316 -0.010287471 0.13069692 0.15609217 0.16788678 -0.032429267 0.23157291 -0.013059091 0.11882162 0.09293598
) 0.029849889 0.080853105 0.028916823 0.07094573 0.23744601 -0.006364033 0.03158776 0.03597339 0.0826748 -0.012852932 -0.030540206 -0.0028276264 0.013128843 0.13199969 -0.046862293 -0.0059078983 -0.031489037 0.17592897 0.200252 -0.006827813 -0.0066097807 -0.031249842 0.07284549 0.07229815 0.017123386 -0.054810617 0.19807 0.0015097627 0.07811329 -0.02380892 0.06530067 0.14675629 0.003455195 -0.012158553 0.053737503 0.038700562 -0.0060715186 -0.011738323 0.20932405 0.025485428 0.057713475 -0.034728423 0.013967595 -0.015131044 -0.025733229 -0.023587545 0.101343244 -0.004281669 -0.052345287 -0.032629237 0.15492427 0.046494294 -0.010752823 -0.031583473 0.05163959 0.09332245 -0.017450295 0.11331315 0.016068479 0.022086004 0.076104164 -0.048707295 0.020235248 -0.04915265 0.01289353 0.08991752 -0.032046925 0.06886024 0.10045262 -0.041879658 0.012430576 0.1715643 -0.027822945 0.09642622 0.03479829 0.015216721 -0.05275059 -0.016712615 -0.017572494 -0.045640793 0.1137018 -0.047332212 0.01927714 0.010358544 0.19694455 0.011607392 0.06837043 0.006752511 -0.021350306 0.2979261 0.065807834 -0.022035085 0.12955718 0.1657522 0.20433213 0.024244677 0.2074328 -0.020112881 0.14935659 0.12942286
able 0.029755235 0.13422084 0.029972782 0.10510654 0.16668682 -0.06590718 0.0069110617 -0.031631082 0.034787826 -0.076635614 -0.058864642 -0.019211436 -0.027677998 0.14309497 -0.0201481 0.061917257 -0.034377713 0.15165278 0.21089806 -0.014420712 -0.038548034 -0.024999043 0.07523235 0.06580589 0.037789203 -0.008147158 0.242845 0.085021175 0.11809045 -0.018380964 -0.0018159287 0.15725109 -0.009981077 -0.05383863 0.12554562 0.038418103 -0.027884353 -0.06284313 0.11892963 -0.022392193 0.010628158 0.009370991 -0.07739674 0.0045643863 -0.041554473 -0.06281301 0.098747745 -0.064124234 -0.09361205 -0.050322134 0.09179131 0.06934231 -0.014687944 -0.026984727 0.09858391 0.090750806 -0.033301666 0.008656901 -0.06353231 0.0003455255 0.114399254 -0.12192521 -0.009722523 -0.030519284 -0.15233856 0.11771524 -0.04353428 -0.018963065 0.10582483 0.035660867 0.0064256005 0.24279425 0.045401473 -0.018521106 -0.04909394 0.10216767 -0.057238523 -0.008229303 -0.031106103 -0.018181931 0.13669747 -0.044635978 -0.06587014 -0.027808076 0.12930666 -0.08965533 0.06767421 -0.057366736 -0.0699338 0.26758075 0.03460391 -0.01887883 0.122953504 0.119039945 0.14131235 0.007828717 0.23076901 -0.026900783 0.04490898 0.076408334
almost 0.123241425 0.14845566 -0.0074715107 0.03571794 0.14775369 -0.029707529 -0.05601498 0.015575223 0.048713893 -0.04038964 0.012264131 -0.020876782 -0.004855402 0.11420074 -0.004023169 0.05825424 -0.06942196 0.17207512 0.12936305 -0.050051507 0.0006112652 0.02857266 0.037966646 0.06508414 -0.022560386 -0.023267237 0.16589975 0.057229027 0.04323557 -0.023982314 0.077487975 0.15115769 -0.047024287 -0.05029877 0.016456287 0.0151730105 0.019162845 0.009885009 0.20935254 -0.027438546 0.05593682 0.021295851 -0.042777546 0.008024224 0.019338336 0.024163194 0.081320226 0.00074502616 -0.05787798 -0.046939593 0.109360866 0.044474196 -0.009208591 -0.010770812 0.044865333 0.08974468 -0.03277962 0.012646343 -0.023482643 -0.010329841 0.050444044 -0.03854001 0.0063433456 0.04075141 -0.0411317 0.16113657 -0.003661892 0.038386457 0.07546745 -0.043920085 -0.00882795 0.17772892 0.044063747 -0.005356324 -0.022030944 0.05547124 0.0022938799 -0.03091605 0.01380938 -0.04356165 0.16891792 -0.03527501 -0.025974484 -0.057672597 0.17573835 -0.054935507 0.030236464 -0.08172282 -0.043820404 0.24751453 0.083131686 -0.021738913 0.07529311 0.06782205 0.122204654 -0.044658482 0.21341343 -0.025307126 0.1515592 0.14264458
always 0.040509176 0.14064598 -0.039608978 0.047518313 0.22523178 -0.06165878 -0.019920096 -0.006851331 0.074245356 -0.0022206246 0.0037687586 -0.052526813 -0.035689496 0.11140732 0.0035603466 0.02571258 -0.0028829542 0.17253722 0.2172231 -0.0373045 -0.017125534 -0.026477966 0.017908793 0.006557522 0.020772578 0.0051045413 0.22707146 0.036822766 0.06471943 -0.03431382 0.077055566 0.18270192 -0.008316951 -0.029630112 0.09835651 0.037750516 0.019589096 -0.03430915 0.17554682 -0.018040376 0.04289991 0.036075413 -0.028341927 -0.04220587 -0.010410161 -0.036946263 0.058847412 -0.049209468 -0.045016225 0.012782818 0.13083507 -0.021627547 0.02557391 -0.045498922 0.01794818 0.03089952 0.010581911 0.047464885 -0.02629541 0.057751313 0.08741783 0.021561153 -0.042725652 -0.024399282 -0.009741518 0.092160374 -0.039344598 -0.012446354 0.08631365 0.029782005 0.010054712 0.20849553 -0.03435667 0.08148605 -0.015202599 0.070947446 -0.008507757 -0.032959 -0.012866324 0.017977897 0.10991192 -0.020493913 0.03006409 -0.032685984 0.13875635 0.018356133 0.1182416 0.009405892 -0.04882431 0.2701066 0.08278239 -0.037339948 0.10722196 0.076896556 0.13340083 -0.04919622 0.16587612 -0.07845388 0.13626973 0.06786914
data 0.0857626 0.049557127 -0.01448922 0.11081361 0.085095495 -0.04405646 -0.011438479 -0.036227718 0.036993906 0.02056584 -0.04923854 -0.016765857 -0.026287956 0.20343442 -0.025600348 0.025996437 -0.019391308 0.107495524 0.31422815 -0.039670706 0.010329506 -0.035184857 0.2764126 0.07913415 -0.039140545 -0.05237474 0.3436461 -0.0075180707 -0.0062669246 -0.082791604 0.025802247 0.07959366 0.02282271 0.2007317 0.06389961 0.01829825 0.0054988554 -0.028485961 0.13656253 0.029105047 0.0449312 -0.036734 0.09876157 -0.0369452 0.07411737 -0.026133593 0.08743044 -0.025011392 -0.05284016 0.0034175273 0.16651659 0.039841857 -0.017644757 -0.042956892 0.32969275 0.04752968 0.09013552 0.042518914 0.033581804 0.036679305 0.10122085 0.072977155 0.010224368 -0.02404306 0.16507427 0.004513105 0.16873834 4.110548e-05 0.07056446 0.041322503 0.0973882 0.32687616 0.03173416 0.0059549813 0.04443285 0.028696537 -0.02739344 -0.05218953 -0.019076226 -0.016232887 0.06594348 0.07705334 0.15706147 0.0700559 0.12344769 0.1269449 0.040117428 -0.017170215 -0.07634162 0.17798446 -0.00822065 0.0457942 0.10463905 0.08428956 0.0842 0.15697935 0.1761109 -0.053635996 0.106933296 0.05703926
enough 0.07338179 -0.010181314 -0.008444838 0.023188552 0.1068026 -0.032074165 -0.056296278 0.026700646 -0.010609687 0.099397786 0.0017268047 -0.044246648 0.023790237 0.26679435 -0.041775603 -0.0018590121 -0.07687497 0.113523595 0.28006524 0.05304188 0.008925085 -0.05688577 0.2365229 0.06553472 -0.0074254074 0.032870688 0.38547707 0.007342515 0.06452073 -0.0975911 -0.046912186 0.10445362 -0.054546855 0.10210787 0.14644317 0.017012816 0.0033495212 -0.073265836 0.11169146 0.0831333 0.040528037 -0.04819238 0.08041501 0.018191142 -0.019986942 0.03406227 0.06089121 -0.031363934 -0.098083794 -0.04558221 0.13819419 0.004223739 -0.032162152 -0.002245716 0.34451684 -0.03950406 0.02626285 0.03839708 0.09994606 0.0060928655 0.14979295 0.11534145 -0.012168463 0.011610767 0.09229232 0.009132849 0.12172672 0.0041157748 0.06970581 0.05702019 0.044495106 0.26851383 0.030026877 0.03815095 0.016928202 0.039212573 -0.046188515 -0.035894126 -0.012322891 -0.015504807 0.10910161 0.050383274 0.087348945 0.07311841 0.1912099 0.12339458 0.0630342 -0.02985801 -0.06912287 0.15880886 -0.0027664765 0.038083624 0.08352449 0.0651442 0.118364565 0.14998142 0.20504871 -0.055156987 0.11975677 0.06731349
establish 0.013987954 0.07603316 -0.039625585 0.12164691 0.22674644 0.0027237874 -0.02355315 -0.022966359 0.12217278 -0.14089221 -0.052734897 -0.031232335 -0.006320916 0.09412462 -0.03361846 0.014867834 -0.07445117 0.19229986 0.1305074 -0.028075509 -0.003336267 -0.066771396 0.058661856 0.026762035 -0.047514137 -0.033385824 0.17044559 0.040273804 0.124951445 -0.1112864 0.052084036 0.29411298 -0.045468137 -0.034472737 0.1093005 0.018449882 -0.022483729 -0.03416419 0.114596896 -0.04166006 0.0582153 -0.00776448 -0.11686815 -0.043666128 -0.04274642 -0.065754205 0.080585845 -0.05332828 -0.084337205 -0.045737024 0.094358526 0.021994077 -0.04866952 0.026147794 0.039131045 0.102221325 -0.11443343 0.0554673 -0.07439377 0.0051898956 0.06460724 -0.08993874 -0.029766679 0.01620419 -0.14638688 0.19049306 -0.13972107 -0.029388685 0.14000322 -0.043629862 -0.08895048 0.26706034 -0.035788633 -0.026660316 -0.007858263 0.025047522 -0.0014066406 -0.016048936 -0.0012839375 -0.0020404551 0.17019135 -0.051758967 -0.11153206 -0.017448373 0.14650305 -0.13758652 0.16129074 -0.0481439 -0.061811764 0.39393312 0.14893436 -0.020450305 0.17648508 0.1136361 0.14941527 -0.030162292 0.18556285 -0.030550063 0.057282466 0.182282
it 0.17379104 0.105041414 -0.03278405 0.028941335 0.110195994 0.14776848 0.033363342 0.09498284 0.09819961 0.093519874 0.056178693 0.14498825 -0.0010234131 0.0313692 0.1267877 0.032700043 0.156906 0.05251268 0.0649715 -0.006752358 0.10780034 0.00998682 0.04677548 0.01517562 0.09223549 -0.019228702 0.12274825 0.022908317 0.22764644 0.042045295 -0.02199393 0.060529683 0.07495359 0.094564855 0.010536505 -0.006652506 -0.032574788 0.28517923 0.033121172 -0.03914681 0.15713297 0.24129373 0.03524291 -0.040375 0.037638865 0.047694925 0.03722431 0.0980678 0.18575557 0.1473784 0.06252513 0.055715736 -0.015855366 -0.04115773 0.24276817 0.068480395 -0.02617774 0.014718886 -0.041056845 0.047492445 0.31782135 0.030630214 0.00088137283 -0.033593994 -0.029244358 0.045296237 0.2521359 0.04852564 -0.010507121 0.11626437 -0.006088996 0.2140706 0.060376007 -0.074870795 -0.030008473 0.06394796 0.08852157 0.03242947 0.17921796 0.013576401 0.018444104 0.069807336 0.08438005 0.006151835 0.13710292 0.040753774 0.054961205 0.09022344 0.087614894 0.10945053 -0.032339014 -0.037017997 0.098155476 -0.0005587084 0.012516252 0.18021572 0.13037854 0.15616286 0.010205042 0.1458045
moreover 0.09586416 0.02027181 -0.0093362685 0.08960415 0.06251944 -0.06157266 -0.02576931 -0.040298298 -0.00077104056 -0.06186784 -0.04168559 -0.011687993 0.031148901 0.06333372 -0.038288448 0.014298509 -0.007481334 0.15472491 0.038856696 -0.024774337 0.007825181 -0.055854212 0.025978738 -0.018445231 0.018207764 -0.023510024 0.12910043 0.0010560859 0.060468376 -0.16644187 0.0040031043 0.16188496 -0.018027293 -0.017895335 0.065544225 -0.016419854 -0.056296207 -0.029840987 0.011131369 -0.040796645 -0.024852656 0.012773299 -0.11882221 -0.04040734 -0.0493449 -0.0035774258 0.083924666 -0.097456574 -0.046606395 -0.030600604 0.11625946 -0.0071193743 -0.11972076 0.0123478575 0.122202 -0.014084078 -0.08851009 0.0071387505 -0.09834651 0.017844345 0.07672005 -0.035457578 -0.029074937 0.006707354 -0.056681518 0.062169574 0.01667839 0.057872936 0.12281969 -0.026587868 0.0036068088 0.1422201 0.035361115 0.042634126 0.0047661876 -0.011277889 -0.034611188 0.021821257 -0.024931284 0.035964902 0.13226305 -0.042318568 0.028409448 0.026209716 0.10815207 -0.00027813434 0.071950935 -0.020036826 -0.13641277 0.25842446 0.015057828 -0.038083266 -0.025996331 0.08847099 0.14318368 -0.036917407 0.15360872 0.0022333134 0.07840557 0.0399952
not 0.11727126 -0.0842671 0.09169497 0.007931264 0.05812294 0.041636713 -0.059523933 -0.005848124 0.006275756 0.19326237 0.039567538 -0.115023755 -0.013795451 0.26674798 -0.085252136 0.07853125 -0.060905937 0.06939954 0.30393118 -0.015643597 -0.06370045 0.042141903 0.1985754 0.031053329 -0.045122884 0.103870586 0.32485732 0.08090463 0.018872125 0.12145648 -0.046557963 0.06239014 0.0038797816 0.20293197 0.038396236 -0.044100054 -0.022541778 -0.0055011273 0.08886407 0.08795841 0.04865636 0.056169104 0.26677173 0.08803465 -0.0004144472 0.022389064 0.12689497 -0.0013897 -0.066402055 -0.047408655 0.03033519 0.109834835 0.07445324 0.03513294 0.25102904 -0.015198019 0.094356194 0.123198815 0.30610597 0.22177243 0.02442262 0.19739357 0.015415043 -0.062196363 0.2823496 0.040514287 0.18947808 -0.043612123 0.0749274 0.10993905 0.25472492 0.20035379 -0.04870978 -0.078580104 0.07162572 0.11905078 -0.046961077 -0.03848572 -0.032630574 0.007949048 0.030674309 -0.037175067 0.24842094 0.08326866 0.08618031 0.26124442 0.002313439 0.01517729 0.10412039 0.048583608 -0.02023367 0.04463245 0.027439324 -0.027502859 0.0725401 0.21922196 0.17069897 -0.011446793 0.08078004 0.07716334
shall 0.11230564 0.047014188 0.027302867 0.05824906 0.23516351 -0.046609968 -0.049142517 -0.0076318025 0.11325556 -0.011453804 -0.044402137 -0.04741128 -0.011528174 0.048748758 -0.030867182 0.015588581 -0.029689979 0.17280592 0.18073884 0.038580474 -0.082592405 -0.027878525 0.02240332 0.0006105598 -0.023704214 0.013254002 0.20703164 -0.0026162555 0.08768193 -0.0258212 0.05420481 0.19295314 0.037026245 0.019925069 0.033751637 0.024576392 0.010816929 -0.029936928 0.15219486 -0.07486986 -0.009721955 0.01771112 -0.050863434 -0.012971417 -0.037543867 0.012167472 0.11307073 -0.03908964 -0.043939993 -0.051193483 0.094997935 0.027975513 0.0068153865 0.01347111 0.02430223 0.070846885 -0.06290803 0.116323985 -0.060760528 0.05868437 0.07513375 -0.052711893 -0.006994492 -0.0024441853 -0.088995546 0.09447831 -0.11695042 0.051018354 0.11657785 -0.020832784 -0.04827334 0.198715 0.03094001 0.07168961 -0.048481807 0.10420454 0.018099194 0.027331835 -0.038958486 0.008735632 0.1367293 0.01884063 -0.076992445 -0.06605598 0.1872241 -0.12306522 0.10849413 -0.032771807 -0.023102017 0.32199425 0.0805089 -0.05679062 0.108654685 0.14552176 0.23640811 0.00039252604 0.20835741 -0.047120854 0.09999959 0.1352234
that 0.11538928 -0.047489617 -0.056843918 0.10087812 0.10079285 -0.058630906 -0.033261728 -0.04395065 0.008136365 0.19504924 -0.055064656 -0.12985548 -0.028685331 0.4712435 -0.11835543 0.12480008 0.06944923 0.07713176 0.5168094 0.017151495 0.0032003867 -0.070746064 0.46148187 0.023369294 -0.021750174 -0.032783486 0.6322671 -0.032246534 -0.0040633334 -0.15606974 -0.036416497 0.2144798 0.014327969 0.30548337 0.1216201 0.004872913 -0.0061082095 -0.1206845 0.21551274 0.081203766 0.137159 -0.0658524 0.22000065 -0.05328145 0.053883776 0.0194469 0.04961534 -0.107665055 -0.12060556 -0.0960749 0.098735794 -0.00568383 -0.128225 -0.049062315 0.50151366 0.03687165 0.11560043 0.019146143 0.1672093 0.10945055 0.14233644 0.29457137 -0.022183845 0.0025518662 0.28408936 0.038982727 0.27797684 -0.07465091 0.1154735 0.1215191 0.1713944 0.43053794 -0.020107815 -0.043032024 0.011564408 -0.032342866 -0.07691292 -0.014278184 -0.043150388 -0.043300554 0.1407268 0.037965767 0.24984053 0.027634066 0.24965832 0.20866194 0.045045353 0.035968974 -0.1476047 0.2203156 0.0041451375 0.07719041 0.08490125 0.05222158 0.042542793 0.29306027 0.23500487 -0.08544587 0.086403616 0.06837099
there 0.11647507 0.082047895 0.02199167 0.21335597 0.19532102 -0.029520886 -0.03276318 0.047076624 0.13206047 -0.04897163 -0.05321725 0.017080698 -0.050605092 0.08533383 -0.013616426 -0.022996198 0.001818342 0.17099467 0.12153901 0.03137705 -0.03582253 -0.02393259 0.010728877 0.07960408 0.008552456 -0.01652144 0.29091957 0.020107495 0.052074566 -0.13232024 0.07187299 0.22514406 -0.059610516 -0.037141047 0.10638914 -0.023491614 0.025011031 -0.06301173 0.103297904 -0.059248287 0.077688865 0.051769514 -0.14775907 -0.08319609 -0.05813029 -0.009402311 0.0895074 -0.04515337 -0.06636864 -0.05704681 0.10775886 0.078803465 -0.07970103 -0.034000818 0.1288701 -0.02274857 -0.12172051 0.11888067 -0.08367843 0.026323836 0.1744501 -0.08705082 0.032688063 0.016801627 -0.1736124 0.17415008 -0.06156503 0.024536742 0.18905298 0.016951643 -0.06259996 0.20049943 0.050265957 0.0591227 -0.08764325 0.07940389 -0.031043684 0.030107286 0.028279455 -0.018958673 0.26324984 -0.035404366 -0.14279251 -0.090005524 0.2527889 -0.14753506 0.16034481 -0.03130727 -0.11827001 0.41871816 0.0044387956 -0.04498228 0.022437062 0.17169882 0.20893784 -0.051302124 0.23541482 -0.022680935 0.15675615 0.17215106
to 0.18659604 0.3120959 -0.06459542 0.055520564 0.39318636 0.151539 -0.05033368 0.15474865 0.07765709 -0.04801466 0.08576314 0.20186329 -0.04017979 0.09981145 0.02767611 -0.07288136 0.073054425 0.13708818 0.14709552 -0.03794193 0.029259188 0.008093102 0.033337582 0.18287487 0.17688413 -0.076017305 0.14780778 0.0071024536 0.38725865 0.06654373 -0.017812457 0.15728916 0.006283458 -0.015880134 0.086279854 0.049932525 -0.051217996 0.22651093 0.085374184 -0.054321952 0.14489006 0.23849991 -0.08792556 -0.0056030094 -0.049944278 -0.0013431318 0.12729412 0.11784998 0.19248691 0.07516704 0.098934464 0.015680648 -0.06996732 -0.029263867 0.102538034 0.20286362 -0.08636887 -0.034285694 -0.06419273 0.12616423 0.15881015 -0.08487707 -0.03433824 0.010952104 -0.083843715 0.18527572 0.117814295 0.17499381 0.07917088 0.04500016 -0.0065676738 0.14242467 -0.018625494 -0.003192789 -0.034240875 0.06404473 0.15477863 0.021611365 0.104736425 -0.035569407 0.11285907 -0.025294334 -0.09291476 -0.006997155 0.10489922 -0.05660201 0.14074773 -0.024674833 0.14074521 0.31258157 0.06395151 -0.04304573 0.20044413 0.10335599 0.07402909 -0.06315155 0.14811747 0.2367044 0.041450333 0.4008704
where 0.10270322 -0.03654093 -0.022565013 0.10435928 0.17391755 -0.069453605 -0.012533457 -3.2645774e-05 0.092234366 -0.07609371 -0.059113394 0.02012199 -0.06764358 0.086966015 -0.015467217 0.038824085 0.0040260293 0.13277097 0.08198848 -0.047521427 -0.034871843 -0.015228935 0.008154731 0.014514762 0.021906946 -0.05841638 0.21863712 -0.050785735 0.10500959 -0.17258953 -0.029712202 0.25394413 0.017610442 0.020272683 0.13139474 -0.012292372 -0.047600556 -0.07760609 0.08631311 -0.16398597 0.08622268 0.00081428105 -0.11809247 -0.05845539 -0.043715138 -0.039325137 0.028643107 -0.06623468 -0.023346247 0.009736448 0.09523577 0.11070692 -0.07871844 0.0077141 0.102950856 -0.023255516 -0.09038619 0.0669785 -0.10561224 0.011174443 0.026608454 -0.10224371 -0.037860576 0.056871507 -0.10197517 0.07761657 -0.058667954 0.019226158 0.083293706 -0.0062795095 -0.10277094 0.10250307 0.046410426 0.05219648 -0.07352699 0.033243928 -0.027618373 -0.05351865 -0.009872579 0.029329939 0.19224323 0.05724203 -0.10081219 -0.060763367 0.21940483 -0.10919199 0.17525522 -0.019870043 -0.1265558 0.32405263 -0.06064637 -0.072080694 -0.010372428 0.11152637 0.15324664 -0.066158086 0.11604632 0.016297065 0.117914386 0.0766144
arbitrary -0.022802005 0.026673414 0.27655828 0.063875064 -0.08732924 0.01203294 0.15352021 0.028677098 0.107379146 -0.017008146 0.073976986 0.2809673 0.04331267 0.00497326 0.36741248 0.032105867 0.086649135 0.11826605 -0.014234178 -0.040818673 0.050324753 -0.014401342 0.046748668 -0.045090213 0.0071834084 0.181085 -0.03712942 0.095122494 0.10736906 0.084641956 0.10934531 -0.0057947785 0.16162094 0.0104807 0.086044066 0.0420644 0.09430932 0.015513224 0.0068242513 0.24303116 -0.052710414 -0.002327741 0.0692429 0.18103229 0.019137064 0.023261273 -0.0043915682 0.04402142 0.056971714 -0.009023767 0.008830493 -0.0004907157 0.30979475 -0.020753272 -0.05075294 -0.015169771 0.052376617 0.0094222305 0.023146 0.019622533 0.025894418 -0.005113685 -0.04343318 0.09221523 0.25520638 -0.056868672 0.04471333 0.16103685 0.02080309 -0.022076976 0.26349026 -0.0046605975 0.011399888 0.0032207984 0.11662178 0.025785288 0.10403432 -0.05528194 0.0045060334 -0.023961019 0.036380604 0.25675553 0.16531214 0.007434703 -0.00067254767 0.05029058 -0.05498408 0.31118822 0.16013266 -0.0014329532 0.09118576 0.15104678 -0.063953765 -0.014535758 0.0026296454 0.067844324 0.026375255 -0.058099777 0.057994783 -0.06327968
between -0.0028554099 0.040243745 0.19437927 0.06433431 -0.06539723 -0.026563983 0.04996756 0.16020778 0.04580958 0.12547216 0.079192 0.2468382 -0.01955343 0.14592354 0.24937221 -0.027097996 0.02368363 0.07275512 0.0881813 0.01164837 0.12869933 -0.04852143 0.16860978 0.04586303 -0.060355365 0.041665178 0.1703394 0.0072637517 0.08473606 -0.01702752 0.10431479 -0.098589286 0.15142395 0.10835163 0.19986732 0.0015427107 0.09003042 -0.09297798 0.038264208 0.26591927 0.02055562 -0.07526817 0.18870701 0.120397665 0.09001037 0.15256707 -0.043071773 -0.003182187 0.082687736 -0.059178073 0.06482767 -0.047131557 0.07099325 0.002616162 0.14104852 -0.024144087 0.070118785 0.011783136 0.15828554 -0.008658668 -0.032996148 0.18420792 -0.010057025 0.06790467 0.5044233 -0.029888062 0.18951479 0.19858448 -0.052984077 -0.023165334 0.30859366 0.07771206 -0.003782042 0.002054647 0.11516824 -0.08387488 0.1307306 -0.055578396 -0.0657211 0.0010842155 0.06877627 0.173262 0.336163 0.038016524 -0.04540868 0.1734072 -0.033302534 0.3596125 0.037356533 -0.13913934 0.15113302 0.29424182 -0.05245012 -0.029601568 -0.077320926 0.20844674 0.01015081 -0.11147469 0.09119555 -0.14131792
corpus 0.038860094 -0.07441229 0.02692887 -0.02396808 -0.13520378 -0.030272331 -0.02472938 -0.025964044 -0.09238969 0.0468919 0.037376016 -0.086207405 0.027115418 0.17601365 -0.038660537 0.030109258 0.017012667 -0.041678574 0.08300385 -0.040945195 0.06934987 -0.00042424386 0.19536735 0.05751327 -0.025464207 -0.018672429 0.13810676 -0.0027084572 -0.10275728 -0.070798084 -0.0059388457 -0.034139443 -0.038175903 0.13107394 0.0011268556 0.0045420425 0.025289923 -0.052096926 -0.07333855 0.050687384 0.10344574 -0.033499528 0.07845829 -0.02774619 0.10287635 0.012128689 -0.05372796 -0.06710454 0.006005988 0.0978269 0.0069974903 -0.0075909174 0.019547831 0.029329455 0.18796548 -0.060300335 -0.023671474 -0.0019700192 0.09657891 0.036024768 0.042160198 0.2615999 -0.029522836 0.035992853 0.2427976 -0.13448775 0.20941001 -0.020097943 0.0059948536 0.08930753 0.1009541 0.032874376 0.005420606 -0.02945604 0.049669005 -0.023910487 -0.06178146 -0.029721614 0.02664075 -0.027769325 -0.11185211 0.086990245 -0.011898931 0.18125708 -0.033048924 0.17875366 -0.06809901 0.04086527 -0.016231887 -0.17714791 -0.09444172 0.016430145 -0.009916767 -0.06665598 -0.11004723 0.23686989 -0.07057833 -0.0252546 -0.021975368 -0.16704825
demonstrably 0.03474066 -0.023396943 -0.031874068 -0.036030143 -0.06786116 -0.024290813 -0.017049346 -0.0447817 -0.045019854 0.17850268 -0.023900697 -0.061867174 0.024499273 0.20565198 -0.035150733 -0.014469107 0.00021626725 -0.09516989 0.16948822 -0.0043373974 0.08239508 -0.031062463 0.20811053 0.08453848 0.008858849 -0.009842472 0.28425458 -0.044105478 -0.019601809 -0.1081869 -0.030204544 -0.016666256 0.025032932 0.22417927 0.03637229 -0.05283659 0.008577495 -0.04923168 0.0033740408 0.108618475 -0.0050132712 -0.006701504 0.24188502 0.014611152 0.13489673 0.09352453 -0.030354045 -0.024129033 -0.003838139 0.082471885 -0.0043421444 -0.026468184 -0.03632931 0.026728436 0.275802 -0.009982731 0.08948321 -0.016507952 0.16832478 -0.0042860825 0.00495723 0.235072 -0.038365327 -0.009403032 0.29212686 -0.06241645 0.21916983 -0.039055914 -0.06363031 0.051205974 0.14206934 0.12255338 0.018348956 -0.020042252 0.032055426 -0.04945405 -0.05660055 0.0059910323 -0.041082606 -0.030130146 -0.046244916 0.11396764 0.23232852 0.19041634 -0.04243082 0.185354 -0.053815957 0.06698323 0.03884604 -0.04718851 0.0076992176 0.054954816 0.0059524653 -0.031741522 -0.04384607 0.27473474 -0.049807835 -0.043731328 -0.01845746 -0.0955778
do 0.07340767 -0.02768099 -0.016098343 -0.023674643 -0.07723175 -0.06320879 0.019029012 -0.046674788 -0.013822621 0.101978794 -0.0053360066 -0.040090315 -0.017106066 0.1577854 -0.012080188 0.07106107 0.03599822 -0.05381786 0.20329931 0.052477706 0.09483284 0.023001302 0.2033241 0.10457867 -0.03902575 0.0031933263 0.15928209 -0.016063306 -0.08134578 -0.053049542 -0.0067135035 -0.0868751 0.065346785 0.16180348 -0.024555556 -0.05580547 -0.025066363 -0.04269988 -0.06357604 0.07191899 0.028386865 -0.008805586 0.287965 -0.032901548 0.05411267 0.016485635 -0.021433538 0.004309483 -0.07075231 0.052799474 0.04602844 -0.028250776 0.032657493 0.041641932 0.23973094 -0.008686212 0.13455667 -0.021713823 0.14567478 0.034061253 -0.0041212495 0.1790217 -0.04412371 0.039781693 0.3161319 -0.09468928 0.28209165 0.0016388373 -0.07046833 0.08316218 0.19491157 0.13195544 -0.050704308 -0.07323459 0.048668746 -0.057573404 -0.027044341 -0.06445567 -0.018483123 0.022331025 -0.0374378 0.11175523 0.16814685 0.20984866 -0.03373606 0.28234938 -0.10818337 0.00047676262 0.06041984 -0.17583705 -0.020218225 0.12145643 -0.0013241627 -0.08155231 -0.09771527 0.27770317 -0.04203796 -0.054914393 -0.05836726 -0.13961859
does -0.006934189 -0.0086968215 0.0038803185 -0.02075269 -0.084118046 -0.030604023 0.007611551 0.0047899494 -0.019023022 0.22171532 -0.0016625533 -0.009978502 0.0083003575 0.14203641 -0.043175638 0.0021881172 0.048600048 -0.03988042 0.16594128 0.03917467 -0.0037119735 -0.006726278 0.2624771 0.09556498 -0.046022765 -0.041082114 0.2557384 -0.030731825 -0.0249318 -0.071106315 -0.049154915 -0.06703325 -0.017470364 0.13929616 -0.0052920347 -0.033712443 0.019901691 -0.016808512 -0.04376166 0.16220766 0.0051896162 -0.051071253 0.20165251 0.025949074 0.114752844 0.0495493 -0.03224615 -0.0146582145 0.0049731503 0.095093265 0.06431096 -0.02046281 -0.06141919 0.041725144 0.16486183 0.008198771 0.03760539 -0.039773166 0.17812712 -0.0036381993 0.017754784 0.24804124 -0.012170702 0.0013656857 0.3364657 -0.062565744 0.17933974 -0.014115893 -0.024201864 0.011393704 0.17479466 0.08110356 -0.009464631 -0.032136977 0.084277585 -0.05445413 -0.02377739 -0.019630177 -0.058875192 -0.022212459 -0.04377071 -0.0009642272 0.15445761 0.092513956 0.01593277 0.17869675 -0.053143803 0.06218543 0.053237926 -0.080439284 -0.0024808953 0.05483872 -0.037634447 -0.012560072 -0.04726783 0.17396848 -0.06870677 -0.004361568 -0.009139028 -0.048712205
fact 0.06875339 -0.019375956 0.030940145 -0.04858691 -0.090798624 -0.048830073 -0.041712116 -0.027180796 -0.020003734 0.16988668 0.030386675 -0.053227283 0.016549796 0.21217953 0.025738744 0.04807005 0.055276375 -0.06502362 0.17722581 0.04719799 -0.004607702 -0.048519906 0.16796347 -0.0025078277 -0.047147274 0.026083926 0.1830054 -0.02173569 -0.021756202 -0.0045418446 -0.029172122 -0.09844265 -0.03314667 0.20882306 -0.043583944 -0.057694107 -0.03750683 -0.05178503 -0.03743681 0.15691496 0.04999968 -0.031859923 0.17769435 -0.019833986 0.13126314 -0.010239561 -0.009564316 0.006795979 0.0034794998 0.077354774 -0.0022509112 -0.023069259 0.03550792 -0.03705118 0.20170346 -0.048660893 0.14915146 -0.017498272 0.11351023 -0.015415375 0.058986295 0.2241767 -0.00078362034 -0.035155434 0.3465123 -0.106544375 0.22226875 -0.020406993 -0.013345132 0.09511217 0.12186792 0.052468605 0.0100776935 -0.0017973657 0.05838149 -0.084798485 0.0007916407 -0.041200012 -0.011831068 -0.024801243 -0.09704515 0.032984853 0.23982312 0.025111526 -0.040209364 0.16125245 -0.10319583 0.06019646 0.0066111255 -0.105509825 -0.011809454 0.09442646 0.010664903 -0.020092743 -0.11053103 0.23776704 -0.0091461865 0.011548817 -0.06324516 -0.094209716
frequently 0.088929094 -0.051554885 -0.0042217053 -0.045738388 -0.11749176 -0.013339698 -0.046117235 0.020461885 -0.041327674 0.11392556 -0.022033358 -0.03980823 -0.020801233 0.20786761 -0.0034022552 0.038931526 -0.016277334 -0.08931624 0.24131957 -0.022777395 0.06296479 0.014191566 0.23975113 0.0706607 -0.031117057 0.011994852 0.18232049 0.013212806 -0.05520223 0.0025382314 -0.07379966 -0.033163942 0.005838281 0.12496641 0.04312363 -0.015692834 0.021384137 0.0045463266 -0.047823526 0.15937075 0.043843795 -0.029342925 0.182608 -0.0092961155 0.051159047 0.042634364 -0.028025815 -0.011273089 -0.055990335 0.13708776 0.004516186 -0.014090955 -0.061678283 0.036736157 0.27585468 -0.037817948 0.07741599 -0.060721386 0.22222584 0.04330611 0.0364348 0.2758431 0.0043813335 -0.043747865 0.40526223 -0.022520911 0.29667923 -0.06331264 -0.03203435 0.08711028 0.09179761 0.14095755 -0.018573832 -0.06120896 0.043923654 -0.026421526 -0.02679875 -0.044981968 -0.033660367 0.0035166123 -0.09026845 0.040821753 0.12658781 0.15032831 0.007196017 0.23378503 -0.022822063 -0.0070201186 0.050270554 -0.16503544 -0.03902561 0.11773119 -0.08101474 -0.067768134 -0.06141109 0.28943482 -0.033526704 -3.49386e-05 0.003149631 -0.023206467
have 0.05297662 -0.109043114 0.018186424 -0.080547884 -0.16771786 -0.00065103517 0.020961948 -0.045727793 -0.058465667 0.17327099 -0.041798506 -0.07363731 -0.037808236 0.1806426 -0.04425002 0.038157657 -0.011195807 -0.10901877 0.14074916 -0.013675619 0.058171943 -0.012672664 0.25593737 0.072336465 -0.020775849 -0.04498869 0.17961584 -0.04891645 -0.09930395 -0.008017978 -0.052561805 -0.11109996 0.0055398173 0.23198317 -0.022947127 -0.06019635 -0.030138422 -0.051481996 -0.070320696 0.07639506 0.012061017 -0.004685967 0.23825009 0.035803683 0.071709275 0.0067483424 -0.04264439 -0.05628691 -0.021245385 0.13701503 0.012012563 -0.04782492 -0.031439286 0.012719222 0.22824025 -0.047435015 0.19501539 -0.018723436 0.1881494 0.07742422 -0.017312996 0.22265978 -0.011227046 -0.011662293 0.27546316 -0.12982473 0.24891832 -0.07547019 -0.040018007 0.09438428 0.13871206 0.08383354 -0.034408614 -0.050540913 0.02881139 -0.09219895 -0.036125075 -0.03024429 -0.016484587 0.010776657 -0.113451935 0.11834633 0.17681201 0.20241964 -0.043257114 0.31224754 -0.11037556 0.0149712395 0.036279272 -0.16803584 -0.059583906 0.088490725 -0.045939352 -0.07164917 -0.16968158 0.29505354 -0.05879326 -0.010464342 -0.037006937 -0.20259048
inference -0.02010526 -0.007941023 0.011413339 -0.028623555 -0.089929104 -0.014130421 0.013048038 -0.015547945 -0.0054677953 0.17737357 0.013700245 -0.010673769 0.025031643 0.14310548 0.01762229 -0.0007112726 0.017438285 -0.05479191 0.17323436 -0.011718543 -0.016239021 0.0054928144 0.23780265 -0.02297544 -0.04179994 -0.026539652 0.19926003 -0.024322677 -0.042666424 -0.05231288 -0.031031823 -0.08414121 0.03309962 0.15924682 -0.02709078 -0.018830484 -0.0007124521 -0.031485885 -0.03324066 0.022900816 0.032530855 -0.05645398 0.21470915 0.040643293 0.1287388 0.033984885 -0.01902076 0.005243488 0.025047105 -0.02001058 -0.0024159348 -0.042791683 -0.00044601425 -0.026352398 0.19675778 -0.017622009 0.16210079 -0.04131816 0.16812032 -0.008515923 -0.03655978 0.2690669 -0.0477505 0.005534407 0.3548929 -0.08754693 0.17420465 -0.027290372 -0.0849593 0.06067039 0.10528888 0.0607619 0.013654712 0.005074185 0.06440567 -0.06381936 -0.043378368 -0.030799557 -0.03937289 -0.008855448 -0.040215496 0.006900863 0.2505633 0.000105438536 0.019023161 0.19535881 -0.04162748 0.093096666 0.028098226 -0.14999557 -0.008978984 0.11299242 -0.02940999 -0.05144386 -0.06947447 0.26502344 0.0061222445 -0.019183835 0.02059735 -0.12827453
relation 0.04084058 -0.004933364 0.0039570043 -0.07244559 -0.09846769 0.011648403 -0.021731194 0.03877028 -0.033213604 0.16443893 -0.03357224 -0.043727003 -0.047513414 0.17596559 -0.0631637 -0.027044276 0.015053021 -0.032668337 0.2366872 0.0055685504 0.06994429 -0.039036002 0.24078973 0.0035819989 -0.031908 0.018363785 0.26640117 -0.06846529 -0.06111911 -0.013668849 -0.0347213 -0.024795342 0.07663115 0.21465112 -0.00036722148 -0.03323224 0.026047787 -0.002935261 -0.051094484 0.081333324 0.0813743 -0.04795285 0.16574658 -0.034469977 0.10087357 0.0505273 0.0066925082 0.023986962 -0.04916897 -0.021969175 -0.014414455 -0.022405343 0.008689063 -0.01214061 0.28074142 0.010886018 0.056506913 -0.041586433 0.113423645 -0.008391417 0.0008014812 0.22777519 -0.034306806 -0.030908203 0.34531575 -0.069616795 0.27674538 -0.048671436 -0.040330093 0.028377468 0.10601719 0.08704901 -0.03063874 -0.03884154 0.089178935 -0.0776813 -0.05423258 -0.0151803475 0.01221658 0.0011850542 -0.020550268 -0.015638646 0.2510299 0.07928616 -0.040983543 0.25170416 -0.053110853 0.06738668 -0.025798228 -0.08094548 -0.07869316 0.06942809 -0.048594214 -0.009359805 -0.10685959 0.26462784 0.020340715 0.004956089 -0.058896605 -0.07425517
so 0.057811983 -0.03267669 0.030913295 -0.03273092 -0.11310218 -0.0113913575 -0.0051129637 -0.028892769 -0.02823867 0.23858571 -0.003889886 0.015267529 0.012959609 0.18548238 -0.0028078079 -0.017936757 0.0449224 -0.05785963 0.19370286 0.004869521 0.037843492 -0.02778833 0.24345516 0.033318773 0.00944864 -0.05054332 0.23090804 -0.010031548 -0.04289184 -0.02303312 0.015038978 -0.051298488 -0.037584603 0.13921298 0.034076396 -0.039544303 0.012862251 -0.007861856 -0.033985686 0.11769092 0.032796137 0.004539043 0.20274405 -0.005364453 0.047091603 0.07635855 -0.05353633 0.019163739 -0.04369028 0.0068295207 -0.045171235 -0.0057063038 0.033682737 -0.01736129 0.1792128 0.011720008 0.17355473 -0.028364101 0.16475049 0.0762102 -0.038120378 0.27703562 -0.013193855 -0.031008033 0.28951457 -0.03177365 0.19975252 -0.0027910136 -0.057234798 0.03321084 0.074859016 0.05926904 -0.005777086 -0.04314716 0.09342956 -0.050886314 0.015730724 -0.044026878 -0.055542763 0.015704896 -0.11257387 0.049421996 0.16591616 0.061370194 -0.05511522 0.22640929 -0.095707916 0.07860774 -0.02005382 -0.16184443 -0.0013259514 0.08205479 -0.06598579 -0.060916252 -0.08376834 0.17097302 0.0059793144 -0.042774864 -0.028085738 -0.12761967
studies 0.013160118 -0.087207146 0.011248876 -0.0646358 -0.090286925 -0.034862064 -0.08127373 -0.013737823 -0.031475388 0.13868123 0.022119448 -0.053440522 -0.018294299 0.2457703 -0.036408745 0.018502897 0.01767968 -0.0655132 0.15284953 -0.020929923 0.07493551 0.006645548 0.2775677 0.06939949 -0.059515357 -0.051013473 0.25470364 -0.068723604 -0.074203596 -0.1214353 0.034115814 -0.042524774 -0.0015579099 0.13068213 -0.03635065 -0.024831584 -0.021767836 -0.057442408 -0.04008813 0.11232437 0.11388484 -0.08326724 0.14233267 -0.030053308 0.107848406 0.06397354 -0.027028438 -0.08580746 -0.049836617 0.072299294 0.008513121 -0.018250551 -0.0055025173 0.051606353 0.31700826 -0.050756957 0.0070524644 -0.09488446 0.17592373 -0.008656492 0.075870745 0.33319944 -0.009138187 0.02169309 0.39966032 -0.073713 0.24759479 -0.08365615 -0.066525176 0.059644587 0.08112019 0.08277187 -0.023161404 -0.039908122 0.041950997 -0.08588855 -0.04472069 -0.012363233 0.0027085915 0.031043032 -0.029196434 0.08466288 -0.011375041 0.26005962 -0.048704006 0.18163523 -0.06454113 -0.030775553 -0.045292296 -0.13757306 -0.05223297 0.103834495 -0.02650235 -0.0044661756 -0.072070636 0.271826 0.03397678 -0.06861698 -0.011192307 -0.1814973
support -0.011716627 -0.05248912 -0.046184707 -0.024048602 -0.091932476 0.0063677067 0.0013863442 -0.054379538 -0.063836 0.18757053 -0.01825956 -0.021372955 -0.006528338 0.1848975 -0.039719023 -0.007304475 0.0149380565 -0.0845449 0.1305953 -0.005905132 0.023255737 0.005523207 0.23834312 0.024168985 -0.016855009 -0.049175046 0.1884954 -0.024776936 -0.04481328 -0.06413001 0.002624799 -0.019622533 0.014412032 0.1994784 -0.05217202 0.012871512 -0.01154789 -0.045670167 -0.074210815 0.115261406 0.06460993 -0.05061276 0.23522921 -0.026159104 0.080612615 0.062785685 -0.00023856592 -0.025623372 -0.05555513 0.01792611 -0.012273394 -0.032625694 -0.055426683 0.008557129 0.2403665 -0.028361324 0.07672159 -0.0299197 0.15613683 0.009576068 0.068020836 0.23744677 -0.015857156 -0.04465114 0.30314606 -0.08540074 0.23732254 -0.029727519 -0.026957456 0.05154324 0.106290996 0.04905617 0.0166388 -0.014479736 0.06078308 -0.034178365 -0.03604583 -0.02882515 -0.059042968 -0.019532073 -0.03290361 -0.010244482 0.19868498 0.12730728 -0.002984734 0.24878979 -0.08172979 0.06715131 0.046429418 -0.12116915 -0.009386124 0.118794516 -0.03573137 -0.019367589 -0.04362056 0.13998434 -0.065090075 -0.04174043 -0.006865958 -0.10867751
two 0.026107214 0.0050382335 -0.041562513 0.003825314 -0.0018781032 -0.042723138 -0.024925359 -0.02423967 -0.05477781 0.24207619 0.011083156 -0.029565522 0.00967029 0.19702597 -0.0019922913 0.029269187 0.031910583 -0.051947825 0.19226098 0.020977529 0.007881187 -0.0070328307 0.21829663 0.12669314 -0.006685714 0.00420856 0.2724683 -0.035650574 -0.05430044 -0.039955646 -0.025425736 -0.062381815 0.06363835 0.1671987 -0.04084809 -0.06965175 -0.0485066 -0.01943594 0.00045696023 0.053757917 0.08356204 -0.038507152 0.25875083 0.019711034 0.09419555 0.030995704 -0.015370814 -0.000121897945 0.0055247652 0.005395372 -0.03611803 -0.03453634 -0.08593878 -0.042845313 0.25919056 -0.016963763 0.043766253 -0.0731876 0.14823042 -0.04316077 0.0448232 0.28489462 -0.03737861 -0.0014044705 0.3469105 0.003710115 0.2555231 -0.05803677 0.011349669 0.03852372 0.15993094 0.17179446 0.0055615674 -0.051967718 0.001961619 -0.06756921 -0.017573517 -0.045347 0.012015441 0.004125965 -0.03038153 0.08121635 0.26719722 0.08504808 0.0029339388 0.23666267 -0.06515802 0.103491485 -0.052965786 -0.064809896 -0.04758707 0.06796915 0.008353639 -0.021002414 -0.039193224 0.21762373 0.014785286 0.040363103 0.019302417 -0.031177066
are -0.039643124 0.016887799 0.11955699 0.024668153 0.0026706248 -0.05293149 0.06688395 0.08866026 0.09086169 0.06279389 0.039091922 0.20299171 -0.0033207627 0.016885186 0.15281367 0.043828405 0.000828337 0.07814132 -0.054518744 0.0044796523 0.025268946 -0.010710195 -0.025231127 -0.04821807 -0.016422324 0.17487083 -0.017640315 0.033224795 0.0820195 0.08477713 0.07997236 -0.044921283 0.020100623 0.048600107 0.13305607 0.027284672 0.15857346 -0.002743011 -0.0064803693 -0.07347027 -0.017278725 0.047273625 0.021072693 0.046178684 0.07505215 0.04699294 0.038438126 0.10972103 0.102956586 0.056567825 -0.012936714 -0.051488765 0.052598093 0.020043189 -0.029495204 0.0047392664 -0.0068773217 0.06850786 0.0154658565 0.009769624 -0.008566472 -0.033953566 -0.040388703 0.10624186 -0.029964872 -0.01481736 -0.036403194 0.11966974 0.042249758 -0.05252199 0.09971997 -0.06242635 0.012681308 0.02903159 0.033713132 0.020218607 0.07301859 -0.0060859914 -0.034032073 0.009110777 0.021824388 0.067146644 0.047063466 -0.019019984 -0.0019238187 -0.06453337 0.04242535 0.17025547 0.046996836 -0.048905995 0.077967696 0.13417102 -0.024967978 0.065653674 -0.05095086 -0.004231636 -0.058011495 -0.054519746 0.06725191 -0.047268357
associations -0.02211212 0.13630588 0.17208591 0.119388744 -0.0029361064 -0.05287113 0.17208812 0.16281982 0.10447633 -0.0757198 0.0674306 0.3482562 -0.010503396 0.034868997 0.37899297 0.04404833 0.04717045 0.1391995 0.011407475 -0.03176288 0.10643004 0.008595875 -0.027024021 -0.040124115 -0.009648109 0.08369594 -0.0657147 0.02169168 0.17766777 0.030804427 0.1127123 -0.014850896 0.12990528 -0.050832454 0.11148119 0.03600763 0.110134006 -0.043708254 -0.0020933235 0.1413697 -0.033575166 -0.064074576 -0.022865716 0.14520991 -0.013882135 0.0167486 0.06306571 0.04450902 0.17813137 0.007129812 -0.023479162 0.019174065 0.15072453 -0.025622215 -0.058078192 -0.0096109705 -0.05265712 -0.027618803 0.008209625 0.026027026 0.014430475 -0.02598274 -0.02223748 0.09264104 0.13767926 -0.030221786 -0.028388517 0.25323772 0.092114456 0.005406349 0.1578713 0.0037222467 0.0016853036 -0.039954815 0.10637456 -0.013479987 0.113321945 -0.046603728 -0.025279963 0.026012199 0.13319767 0.17788374 0.04088859 -0.042503458 0.0063539706 -0.06124148 0.02285486 0.24493478 0.117897965 0.0062419297 0.18655713 0.14985755 0.024725655 0.09384551 -0.016190995 -0.04261737 -0.023672549 -0.022554774 0.037826575 -0.045817547
evidence -0.082645535 0.050219618 0.27180174 0.0740665 0.041085172 -0.0639551 0.1666524 0.08815588 0.13647321 -0.018725205 0.10834565 0.3648751 -0.03282124 -0.08054218 0.34842113 -0.014807147 0.050657466 0.22804601 -0.13730153 -0.024276283 0.07217955 0.017504979 -0.05923583 7.761984e-06 -0.04665286 0.034897335 -0.1799545 0.020549778 0.18334672 -0.030560747 0.10779445 -0.045280777 0.056419875 -0.016737426 0.12512492 0.07845016 0.1571849 -0.1260418 -0.012701772 0.15525128 -0.0019367372 -0.043229263 -0.0293126 0.116149455 -0.026510948 -0.015872126 -0.030024348 0.04645971 0.15339135 -0.0572301 0.0077980435 -0.04541137 0.14172639 -0.02301877 -0.0840162 0.012645194 -0.071524404 -0.09182032 -0.028658072 -0.030369574 -0.044712998 -0.03621363 0.041110348 0.09841758 0.20158306 0.029646603 -0.09060478 0.2753447 0.050945505 -0.05038968 0.19159055 -0.11212051 -0.0084134955 -0.00963787 0.12445788 -0.05577192 0.18522073 0.006950456 -0.0037039816 0.011021717 0.056419183 0.19616616 0.033556074 -0.041511886 -0.11377481 -0.056881405 -0.07560311 0.3426269 0.056020964 -0.12562853 0.2003224 0.14180776 -0.05995113 0.024263248 -0.08647324 -0.03580361 -0.07257813 -0.055062372 0.12367919 -0.12409983
experimental -0.06467081 0.015088328 0.16957399 0.030046053 0.035836566 -0.022528507 0.14565967 0.041122515 0.028112238 -0.022104621 0.025286207 0.29853213 -0.038971074 -0.01717088 0.3200998 -0.0782121 0.032557495 0.15821563 -0.08253425 -0.0039768806 0.094259344 -0.041346733 0.030385923 0.034337793 -0.060422894 0.017743137 -0.113149546 -0.0023092886 0.09490922 0.085796416 0.13255833 -0.0031411282 -0.007861153 0.018326335 0.15356962 -0.013773351 0.15156475 -0.06847651 -0.022290034 0.08446294 -0.03160599 -0.09437561 -0.048165284 0.1524317 0.029762335 -0.0083050355 0.006004488 0.007039217 0.07177799 -0.050733875 -0.04675551 0.0013086069 0.21117081 -0.031350646 -0.079798855 0.025066538 -0.10466056 -0.015070745 -0.035562206 -0.006291396 -0.052161444 -0.064015895 -0.04114884 0.056954764 0.11523659 -0.03892093 -0.060223747 0.24196267 0.011899554 -0.020180844 0.12172886 -0.09520298 0.008758346 0.021618357 0.016319469 -0.038363546 0.14977825 -0.039307944 -0.0034909097 -0.044811312 0.055181254 0.13175672 -0.034074884 -0.021361183 -0.052225363 -0.05187676 -0.03881237 0.1679161 0.02079758 -0.085941 0.17349409 0.0533518 -0.052023742 0.030678252 -0.0511348 -0.01205741 -0.07077746 -0.09431448 0.07768925 -0.12737298
frequencies -0.0041930582 0.053740446 0.18790887 0.104198776 0.017461402 -0.04375571 0.168974 0.15625362 0.044664133 -0.038067937 0.11847258 0.30518714 -0.02040025 -0.02639979 0.38657787 0.01973693 -0.024796447 0.118025266 -0.0010047085 0.008341884 0.07240696 -0.018411666 -0.055567667 -0.036004126 0.0008065655 0.099255845 -0.018342618 -0.016888821 0.16568673 0.012369997 0.14689581 -0.05364746 0.14176904 -0.043453515 0.17676969 0.018079983 0.08985402 -0.13752688 0.03030902 0.028501865 -0.008728022 -0.058087535 0.00943099 0.16100061 0.017626721 0.02173506 -0.019917341 0.034841586 0.17208077 -0.05722992 0.04754293 -0.03422475 0.14980586 0.0183999 -0.032558087 -0.018051991 -0.05114729 -0.013890119 0.006526125 -0.02713705 -0.036195412 -0.03678016 -0.011122107 0.020041421 0.16645215 0.041406017 -0.05653102 0.2768376 0.08557237 -0.010163254 0.22301428 -0.023615351 0.024937363 0.014421781 0.102096505 -0.057080902 0.14343143 0.041542627 -0.02899866 -0.023116408 0.048026837 0.16790445 0.14756311 0.016956959 -0.069025956 0.016356688 -0.07474345 0.25512972 0.055551887 -0.041955445 0.21786152 0.1316529 -0.0039171777 0.067875795 -0.066625975 -0.016329002 -0.031816497 -0.08414898 0.106952 -0.03734585
how 0.11186646 0.32919025 0.12963581 -0.0062297196 0.17706478 0.12118297 0.055482198 0.26819775 0.14227541 -0.08139884 0.2807284 0.5501864 -0.009258208 -0.11575402 0.3805278 -0.017760364 0.23589344 0.10485373 -0.12422153 0.020931153 0.15164964 -0.029470159 -0.1964279 0.00662799 0.06464969 0.0758286 -0.08724165 0.0036355504 0.44850153 0.09440472 0.12636346 -0.1131822 0.054189857 -0.08507847 0.118597865 0.044659656 0.070750445 0.18208423 -0.06610897 0.1118656 0.07787615 0.14861035 -0.113252334 0.067839086 -0.059948955 0.0105977105 -0.018115442 0.26774535 0.48588556 0.117003456 0.00084563385 0.031890694 0.17500125 -0.0029433533 0.009098125 0.09289266 -0.058757443 -0.049801633 -0.1064114 0.0082855215 0.05905349 -0.11289271 -0.046766233 0.055239554 0.10491036 0.0020343065 0.11313324 0.29990268 -0.0007106454 0.055594753 0.062984265 -0.14078823 -0.017718818 -0.07467303 -0.0068689585 0.0007389626 0.33237773 0.09810307 0.09677418 0.008217358 0.057955906 0.11009574 -0.004064211 -0.03444138 -0.07092371 -0.07226981 0.0034798356 0.4374889 0.2772122 -0.007220131 0.11808357 0.06203107 -0.013852725 0.0041089603 -0.09434992 -0.11829171 -0.12138509 0.20876089 0.13225958 0.19878374
of -0.08648105 0.1270804 0.19394304 0.05929278 0.0007347824 -0.02835007 0.11985188 0.13121308 0.07677835 0.024550632 0.1299496 0.35498762 0.0049390313 -0.06661217 0.31893528 -0.013193412 0.015810682 0.22760133 -0.05572082 -0.049846053 0.09427038 -0.039520025 -0.05311966 -0.0063189412 -0.017262926 0.12563154 -0.09299331 0.060841944 0.15449056 -0.034901578 0.10308578 0.016439626 0.12985362 0.0120212445 0.12034843 -0.026046505 0.18268043 -0.076418765 0.045768376 0.15858625 -0.029647987 -0.00810165 -0.032810915 0.13342589 -0.04507903 0.10816484 0.030808244 0.07373875 0.1663195 -0.06498636 -0.056820527 -0.032995418 0.1576639 0.023738246 -0.09300669 -0.054585434 -0.03416326 -0.025285859 -0.044559445 -0.027775882 -0.05956047 -0.039652716 -0.03767494 0.08326378 0.14315833 -0.013266044 -0.07341361 0.31494644 -0.022321727 -0.050801855 0.18588468 -0.050084706 0.011280407 -0.0044565434 0.10083228 -0.004053134 0.13840988 -0.049643945 -0.01269344 0.031326566 0.0875679 0.22665218 0.0024551991 -0.01623962 -0.01941709 0.0060298424 -0.021144222 0.25728425 0.030563917 -0.03753616 0.17716588 0.12227261 -0.0041601732 -0.033583093 -0.0579042 -0.06776913 -0.014697478 -0.018615816 0.048626423 -0.011856398
present -0.09456601 0.056475513 0.115576096 0.0809968 0.0029329755 0.0054160138 0.14997551 0.06279572 0.031237902 -0.0126955025 0.06280304 0.18233527 -0.021860277 -0.05315422 0.17317767 -0.080149226 0.046149947 0.12064851 -0.07930016 -0.0030041174 0.039352547 -0.038171772 -0.06957099 -0.02211572 0.0130536165 0.066160575 -0.0788249 0.075493105 0.08814036 0.026470887 0.06041737 -0.06231037 0.03617783 -0.056766033 0.07312424 -0.017655252 0.117060356 -0.03781379 0.004730926 0.092006095 -0.016278889 -0.045651983 0.014654113 0.12007681 -0.00023099496 0.09009652 -0.003277656 0.041913066 0.058157496 -0.028434647 -0.030224336 -0.02568371 0.118172765 -0.049449638 -0.028965937 -0.022338986 -0.032225076 0.072562136 -0.047891945 0.025152074 -0.06069226 0.010229333 0.017487854 0.06548923 0.06239203 -0.037869863 0.0061348174 0.14809477 -0.015121481 0.0025649099 0.11334945 -0.090996094 -0.034098197 0.014683662 -0.056761406 0.040702432 0.15237316 -0.028134216 -0.006974588 0.021119125 -0.001536667 0.05846944 0.051598098 -0.0388562 -0.028601114 0.015699128 0.016378194 0.15195127 -0.03020936 -0.0018692606 0.13047878 0.09895079 -0.045662623 -0.040723752 0.03207076 -0.04252052 -0.04605097 -0.04343096 -0.00043085957 -0.062247068
systematically 8.6112705e-05 0.07264097 0.19115895 -0.0092524635 0.029621856 0.05051608 0.03549964 0.024934493 0.021282412 -0.04810505 0.12080722 0.21293959 -0.012725409 -0.015496034 0.23370181 0.08711379 0.0054948586 0.107741274 -0.0689528 -0.021597624 0.03654892 -0.039224084 -0.045538735 0.026668355 0.0029313236 0.15156052 -0.06927876 0.016909277 0.07346052 0.121781945 0.05499285 -0.038785737 0.024357239 -0.055213183 0.05654667 0.018907094 0.0285774 -0.046183564 0.055092573 -0.018303495 -0.041062996 -0.011583136 0.029522032 0.18157172 -0.017160604 -0.014187167 0.023447193 0.08555593 0.046381544 -0.002768448 0.041428816 0.024619794 0.17762358 -0.048370663 -0.05505829 0.010696208 0.025278114 0.14013053 0.016355617 0.018080885 -0.009562123 0.046538178 -0.01731985 -0.019388558 0.034432676 -0.034595683 -0.060926784 0.18143533 0.05308152 0.035063677 0.0775455 -0.048637994 0.0018279204 -0.033013415 0.11956993 0.00034890848 0.084660776 -0.02619644 -0.057312705 0.036209602 0.012741241 0.05987547 0.02266504 -0.04378432 -0.014400051 0.009129038 0.011530594 0.17984568 0.12661207 -0.032671995 0.14593236 0.0687346 -0.03420403 0.013009019 0.0047921217 -0.016801843 0.02757821 -0.03397265 -0.024246719 -0.10868424
word -0.033057485 0.10196034 0.20465519 0.08023309 -0.054210637 -0.026720468 0.12953316 0.15130919 0.05983742 -0.027582617 0.12694742 0.3153564 0.00070100726 -0.03649701 0.38734916 0.022516888 -0.02140355 0.19925144 -0.049394723 -0.009493291 0.08196639 -0.0036815014 -0.022414047 -0.029586112 -0.0102331415 0.05960124 -0.13227402 0.03517637 0.20637017 0.011351325 0.108507775 -0.021311063 0.09811117 -0.034571577 0.18798603 0.048172656 0.0864658 -0.11749104 0.06757468 0.107145034 -0.06207298 -0.06967975 -0.0597145 0.11295482 0.04204259 0.09277535 0.015469402 0.089725085 0.09600122 -0.044938896 0.015686756 -0.04235927 0.16136555 -0.012557523 -0.052786972 0.02738155 -0.025565589 -0.040199295 -0.06670845 -0.019277317 -0.050276693 0.008207909 -0.030589089 0.09505483 0.12214914 0.03693512 -0.018516853 0.26877123 -0.01906918 -0.010892531 0.19439724 -0.040118188 -0.055640664 -0.03605708 0.15841168 -0.009541478 0.16573584 -0.018520653 -0.034580484 0.025726292 0.030884316 0.21533501 0.15160738 0.03325539 -0.07240916 -0.0034202954 -0.014358898 0.29441255 0.060116023 -0.09805278 0.1624728 0.2284577 -0.0050417986 0.097977735 -0.012611134 -0.060282767 -0.05002575 -0.050018057 0.08259159 -0.025295855
been 0.08047764 0.17661504 -0.0515509 0.010586822 0.19602874 0.1667944 -0.048075937 0.10192055 0.020742698 0.033147864 0.11585759 0.22092347 -0.046150163 -0.06891174 0.03540493 0.0074997228 0.1853255 -0.008753689 -0.080024816 -0.015132722 0.15877879 -0.092079304 -0.040217116 0.12847969 0.08590394 -0.022547664 -0.053997222 -0.0101322485 0.2458883 0.15331739 -0.022346113 -0.07055094 -0.054186624 -0.033629626 -0.0238249 0.10978244 -0.027752254 0.25446177 -0.027169865 -0.051421683 0.09460613 0.2572008 -0.02015686 -0.03409914 -0.042186514 -0.0010598722 -0.041515518 0.16438021 0.38699415 0.17023829 0.07345736 0.043102782 0.00682223 -0.047830164 -0.00055042515 0.08531728 -0.077218115 -0.02586615 -0.06117122 0.03942709 0.04267565 -0.026497677 0.001574568 -0.02294068 -0.042108558 -0.011975276 0.170893 0.09706025 -0.017567392 -0.019165905 -0.00079689396 -0.053832706 -0.04672662 -0.06646004 -0.03698782 0.0076580886 0.11506039 0.07506389 0.1472356 -0.03814173 -0.027146177 -0.03774294 0.012474307 -0.008712042 -0.041627385 -0.021939801 0.0473652 0.059092253 0.23488593 -0.05197755 -0.033937037 -0.038347475 0.025071107 0.014358637 -0.034570146 -0.033979736 -0.02965449 0.26393777 0.09393693 0.20510158
has 0.27275842 0.29581344 -0.011911436 -0.054454274 0.26347202 0.28186044 0.0045589223 0.28337097 -0.015279827 0.048272446 0.27588752 0.44562644 -0.01616205 -0.08508971 0.18891837 -0.011526147 0.38016728 -0.06995006 -0.15876012 -0.032143176 0.25376263 -0.065538175 -0.16618377 0.16049984 0.27443445 -0.05239466 -0.08020322 -0.082839765 0.48513776 0.21881662 0.011408794 -0.14576393 -0.043348547 -0.089678295 -0.02673795 0.083289854 -0.037693024 0.4984302 -0.076774314 -0.07355576 0.13219973 0.44433814 -0.08923246 -0.026274346 -0.057094343 -0.06464175 -0.044697877 0.40711144 0.6694312 0.20315833 0.008087602 0.016777018 -0.008163509 -0.014889248 0.15456484 0.18535931 -0.047962468 -0.02621092 -0.07767165 0.055528536 0.14872958 -0.06641667 -0.048307367 -0.03150983 -0.03446047 0.10784084 0.3253105 0.15077728 -0.039563652 0.08392258 -0.060887173 -0.1355242 -0.017096616 -0.044002466 -0.07432153 0.040214993 0.27447608 0.08303855 0.172114 -0.021711065 -0.03799145 -0.022626309 -0.0026247855 -0.036961228 -0.07596062 -0.033440553 -0.013985515 0.1341137 0.5402653 -0.07949636 -0.013372419 -0.06475813 0.08182862 -0.033627108 -0.079617985 -0.0498209 -0.0973382 0.40287754 0.032312345 0.36824745
led 0.17657928 0.19507705 -0.03539211 -0.0014349293 0.18581031 0.15188675 -0.030423766 0.15415458 -0.03245662 0.011430064 0.17862828 0.3090566 -0.035486292 -0.04204199 0.038409214 0.0050159153 0.15713252 -0.086615086 -0.0504553 -0.018602278 0.10862051 -0.03365134 -0.018302092 0.06742605 0.13756981 -0.06811278 -0.083432466 -0.008779087 0.2958899 0.14811905 0.03383148 -0.044529986 -0.040729728 -0.017551096 -0.055620704 -0.010244382 -0.021217486 0.33977163 -0.025901038 -0.03587545 0.069631785 0.29792777 -0.0007221637 -0.005346072 -0.002204883 -0.0028058605 -0.025371151 0.17125589 0.3694797 0.08258729 -0.031276856 -0.043380603 0.027643207 0.004609891 0.10850327 0.076903425 -0.031502772 0.020949498 -0.032685246 0.07021694 0.12405109 -0.028873352 0.0019520308 -0.04264136 -0.055756185 0.030497223 0.187341 0.10411188 -0.024964446 -0.030117763 -0.0334528 -0.08716719 0.058794513 0.014773639 -0.019527528 0.0029283233 0.09670974 0.08769251 0.16570316 -0.00891417 -0.07329968 -0.056310043 -0.046070974 -0.003244068 -0.028764842 -0.024040975 -0.038920976 0.03936316 0.29799956 -0.059485074 -0.035687324 -0.04929077 0.017618455 -0.055183057 -0.0032685474 -0.055678833 -0.043188475 0.3134679 -0.0132510085 0.23267297
literature -0.010114362 0.2106909 -0.07058366 -0.0014703519 0.211527 0.12027895 -0.003944449 0.19783644 -0.042548895 -0.050606746 0.119098306 0.18147506 -0.021732967 -0.14249203 0.06283089 -0.11601887 0.21452324 -0.093200184 -0.1100899 0.04138128 0.06418638 -0.047876284 -0.049088813 0.10705483 0.099301934 -0.089298174 -0.1158946 -0.09515939 0.19247966 0.088193804 0.045988817 -0.14501394 0.00982737 -0.059874263 -0.06108072 0.0061626947 -0.038795505 0.2902461 -0.10129808 -0.007941482 0.15608287 0.1267518 -0.099561796 0.012557494 -0.060183592 0.0050538406 -0.011448552 0.1636322 0.3843272 0.20059256 0.022277124 -0.020498436 0.06909349 -0.011555447 0.05524669 0.087357074 -0.0808723 -0.01912415 -0.035063196 0.05335626 0.08670437 -0.037329305 -0.025223939 -0.025166417 -0.026297562 -0.012914791 0.17043026 0.12473883 -0.04758578 0.08065578 -0.10448776 -0.09502171 0.07680943 -0.047725055 -0.06653993 0.054748606 0.15575306 0.12296896 0.07771474 0.022576 -0.034220807 -0.027821004 -0.03349975 0.007105881 -0.09131004 -0.06915939 0.00810823 0.103747755 0.27585265 -0.05880343 0.011829267 -0.039010152 0.005015515 0.02351793 -0.10418197 -0.01279561 -0.10169754 -0.038083136 -0.0115120895 0.19372192
misleading 0.11049158 0.13149005 0.057049483 -0.042767834 0.036925595 0.07431838 -0.0055121505 0.08755073 -0.059544895 0.016916428 0.10405284 0.18928726 -0.040410403 -0.03821244 0.11585476 0.023755783 0.09777771 -0.058555104 -0.081442684 -0.012291882 0.084821686 0.0038767261 0.0068379273 0.070519045 0.12839235 0.0799672 -0.025196921 0.022998767 0.1257932 0.23944429 -0.030397287 -0.050814662 -0.0040831454 -0.0007065666 -0.064467475 -0.046836976 0.025844509 0.19337341 -0.06442652 0.06745626 -0.012357532 0.19044247 0.013774821 0.0016878459 -0.017107993 -0.03107868 -0.00450292 0.12534262 0.2275726 0.03978333 -0.02877063 0.054149818 0.07612795 0.084360346 -0.029831374 0.035399158 0.037479084 0.032271974 -0.012046369 0.11026818 -0.0037224463 0.02376245 0.031482693 0.017508266 -0.018968916 -0.0293831 0.04154743 0.036699057 -0.03805199 0.04143143 -0.002914779 -0.040932547 0.0067052366 -0.019479169 0.07653126 0.061821334 0.060080696 0.004098737 0.117218226 0.028440047 0.00015770912 -0.019292798 0.00888096 0.0044363993 -0.031306654 0.013455595 -0.041970715 0.07216086 0.18773319 0.008805188 -0.036255818 -0.0031610355 -0.020404719 0.00027372668 -0.0040200874 0.0536185 -0.045356613 0.10598481 -0.022048626 0.16933137
often 0.14254944 0.13506576 -0.025708947 -0.010357989 0.17448907 0.11531998 -0.03182981 0.18301089 -0.029325614 0.0015979747 0.11417007 0.23971897 -0.004346938 -0.04270264 0.10236055 -0.03303359 0.2356774 -0.07135725 -0.04934032 0.00047243017 0.09860415 -0.042698503 -0.02448734 0.007280008 0.108246855 -0.0047849836 -0.0036726987 -0.03471968 0.2608567 0.09057449 -0.024440834 0.009304316 -0.032226145 -0.008837166 -0.059490766 0.037959125 -0.011292904 0.31856063 0.0048153806 0.00040545297 0.111400895 0.2329561 -0.013502195 -0.0221333 -0.0067178025 -0.055088256 0.03466423 0.2225584 0.30498615 0.15994695 -0.021598693 0.045323875 0.022439046 0.012086696 0.038689878 0.13023445 -0.020707024 -0.021985043 0.022324262 0.07491469 0.026141124 0.040156957 0.042247124 0.013936255 -0.019979542 0.00013540205 0.15467054 0.07174041 -0.041111086 0.06428657 -0.02354286 -0.049537875 0.05276783 0.042044856 0.020093644 0.053323764 0.10028317 0.1427584 0.14350666 -0.004504106 0.0129965395 -0.034706045 -0.03168555 -0.010654065 -0.02427782 -0.033888556 -0.01553545 0.10484801 0.24316138 -0.055831812 -0.050043534 0.023948995 0.07639532 -0.010683085 0.02496728 -0.0033740029 -0.010053158 0.23947844 -0.030439788 0.2138214
or 0.118518814 0.03184718 0.008611038 -0.040181585 0.025833894 0.10773026 -0.06886032 0.069619805 -0.0031154507 0.0043186815 0.12312856 0.09909746 0.0259168 -0.025978733 0.06302621 0.044561666 0.08413252 0.026804488 -0.017053079 0.0066358163 0.01374237 0.01811182 -0.023259426 0.02715322 0.18573144 0.06446086 -0.040498093 0.052298654 0.09106008 0.078056976 0.011880032 -0.06515159 -0.021513049 0.0025567815 0.031808082 -0.03264302 0.046511345 0.1380501 0.0044622286 0.021280663 0.00668659 0.07559038 0.042921025 -0.04052812 -0.01764754 0.0055334554 -0.0147999115 0.044324167 0.10012224 0.061822444 -0.0033098161 0.06522906 0.08685445 0.05790824 0.07054057 0.04364943 0.080897816 -0.018908042 -0.0013751937 0.031178767 -0.011704137 -0.017809458 -0.0041550086 0.01333474 -0.04695628 -0.01738584 -0.012331251 0.07512863 -0.017000418 -0.0010837425 -0.044221994 -0.009350204 0.008482989 -0.027059615 -0.022904813 0.055073716 -0.012881341 0.019847143 0.1393473 0.00922301 -0.033154 -0.012603606 0.0035663433 0.0018076118 -0.045613006 0.030217499 -0.040987775 -0.007334699 0.038230237 -0.0012600616 -0.04498672 -0.0015882975 0.05890379 -0.049191937 -0.018626891 0.054936565 -0.09566266 0.13206013 -0.030952964 0.10567521
results 0.080630235 0.05508453 0.06828254 -0.030291492 0.004278091 0.13525411 -0.000984174 -0.030948348 0.078197315 -0.019441593 0.016553855 0.06659164 -0.008876335 -0.0024010874 0.033646237 0.07513532 0.0015436384 -0.044333003 -0.018403048 0.028487265 0.056778807 -0.0023114588 -0.030834083 0.008559141 0.10427293 0.057927962 -0.0630572 0.039368547 0.06652382 0.10615062 -0.028199816 -0.08588682 -0.031458765 0.008160656 -0.01587956 -0.015925515 -0.011628225 0.08756702 -0.0071488093 0.1057479 0.040154714 0.10318047 0.05881761 0.062762976 0.010443508 -0.016789759 -0.028953504 0.08128676 0.0760567 0.03077218 0.00050473266 0.13955002 0.121103875 0.039928406 -0.03414586 0.014924063 0.060930185 0.09488009 0.06467465 0.039416973 -0.03403112 0.022010524 -0.03650142 -0.031217633 -0.039082564 0.006907095 -0.01981479 0.013174346 0.015100913 -0.032747217 -0.0063931146 -0.056710646 0.013303022 0.039601985 0.01641361 0.002264868 0.041135143 -0.0018699913 0.1141864 -0.0373392 0.01766681 0.0054193866 0.015848808 -0.025613742 -0.023391755 -0.023588825 -0.01411424 0.022901218 0.095177956 0.0043462706 -0.03469166 -0.014882445 -0.027905948 -0.0325785 -0.0027030397 0.0049220244 -0.037830047 0.054201238 -0.048117388 0.15675169
