87 100
, -0.048025142 0.012670044 0.0035515428 0.02124292 -0.04427153 0.01215433 0.02958158 -0.027665198 0.028726783 -0.023895442 -0.03580997 0.03350235 -0.033266783 -0.016379751 0.021420706 0.009202518 -0.03133408 -0.03577012 0.01919527 0.010803819 -0.045787204 -0.0021349303 -0.010822736 -0.044603255 -0.038793396 0.03748658 -0.025562525 -0.04854467 -0.009180535 0.00602876 0.042244304 0.035662297 0.036246646 0.04364835 -0.03083166 0.03493345 0.037627447 0.042003963 0.035193693 0.024955902 0.048015725 -0.048289705 -0.024028515 -0.0015302524 0.03385785 -0.010061897 0.032641936 0.046462093 0.044550728 -0.038989045 -0.007920444 0.0032890923 -0.008666288 0.006722808 0.0038219914 0.04788598 0.010660313 -0.008480143 0.013767492 -0.027299155 0.049245868 -0.03462224 -0.025499761 -0.029176677 0.032313477 -0.0223302 -0.016974855 0.043894444 0.0013319738 0.005073298 0.00022450835 0.0023367517 -0.02735113 -0.0021316037 0.0026911125 -0.035808157 -0.049690392 -0.024898602 0.026037965 0.033456076 -0.0020011663 0.0012633428 0.0046594366 -0.012138914 0.030630898 0.032061104 0.007873952 0.036738608 0.020882357 0.0022748485 0.012388192 0.038965825 -0.014647044 -0.021276832 0.02107675 0.010977518 -0.039809514 0.016824808 0.023332749 -0.023955692
. 0.31342646 -0.23699838 0.30680537 0.056449976 0.055138174 -0.45451978 -0.44048348 -0.38060963 -0.28913367 0.49865854 0.31103596 -0.12999536 -0.016414601 0.115024984 -0.16305037 -0.48290795 0.30795923 0.029453397 0.416794 0.20862645 -0.451764 0.026561208 0.18186408 0.35222507 0.2696149 0.23399141 0.29369202 -0.16562599 0.46132547 0.25750342 0.27695802 0.02273847 0.18742558 0.4855305 0.4179982 -0.33761993 0.14494607 0.08454543 0.28148505 -0.37643 0.38299072 0.20587279 -0.33968204 -0.22304784 0.3742101 0.31790683 0.07172339 -0.19219556 0.46547914 0.37898615 0.2920509 0.05181588 0.4932327 0.41472933 0.02588899 0.2995583 0.428149 0.121009864 -0.09717491 0.42901972 -0.42684957 -0.25615573 0.11326895 0.35959607 -0.2532257 -0.39430764 -0.2899766 -0.082173735 -0.34404576 0.029591398 -0.36788025 -0.021216381 -0.114309356 0.032910306 -0.35974434 0.1821037 -0.16908772 0.007963646 0.031560857 0.28937793 -0.29861528 -0.2515668 0.3300562 -0.016418355 -0.32671908 0.34030458 0.31323794 -0.34552014 -0.3110861 0.38160732 0.39736557 0.067825355 0.41916013 -0.113195635 -0.45214292 0.12788609 0.3368992 0.21379866 0.27516362 -0.2406566
and 0.2477374 -0.1567753 -0.049200933 0.119347595 -0.23248902 0.15323292 0.06877433 0.37079567 -0.045815162 0.19013675 -0.056142863 0.17330714 0.26953897 -0.17307442 -0.32629627 -0.187871 0.44256857 0.33316502 -0.0034508337 0.32868266 0.27867112 0.29275742 0.16153294 0.20451632 -0.3291482 -0.04336942 -0.018879952 -0.2756211 -0.024816724 0.34524986 0.18135029 -0.20221461 0.062093027 -0.34003833 -0.34284204 0.025789496 0.13365771 0.33585414 0.28100628 -0.11793869 -0.36890984 0.39573228 0.19160932 0.0014044438 0.35891184 0.18185017 -0.26503235 -0.30377316 -0.36739436 -0.026945798 -0.39924887 -0.24892527 -0.305336 -0.27968705 -0.34478965 0.22058658 0.31749833 0.07075719 0.23351975 -0.06115494 0.071006946 -0.4530167 0.36077797 -0.10059816 -0.0396136 0.40717527 0.43278888 0.3456448 -0.3890599 0.18366542 0.19492024 -0.14948985 -0.39178023 0.4472663 -0.34283015 0.16800603 0.28503716 -0.17794903 -0.28280002 0.19025785 -0.22040963 -0.3537924 0.3475971 0.3898143 0.17296684 -0.0036696524 0.21043529 0.39219812 0.06672364 0.16140226 0.15927804 0.0033736886 0.4318477 0.15765361 -0.2410608 -0.31535769 -0.14887787 0.21582355 -0.007382931 -0.24080049
choose -0.23892161 0.11492143 0.23226625 0.27001676 -0.023439117 -0.23486383 -0.0075970152 -0.23023869 0.23765868 0.20614576 0.22281326 0.110747665 0.07437247 0.031712767 0.24155122 0.25567245 -0.21915281 0.22728118 0.25206333 0.16596116 -0.22177912 -0.20013437 -0.22502126 0.28326672 -0.102617286 0.26440886 -0.22711107 -0.21204633 -0.24805163 0.22592096 -0.22760907 0.25857645 0.25179738 0.22599527 -0.2576039 -0.23184785 0.23493062 -0.17459853 -0.21782887 -0.21171036 -0.079710566 -0.24973047 -0.21299058 -0.22559243 -0.22213714 0.20709825 0.20525566 0.257918 -0.25305256 -0.21777968 0.24807633 -0.2238697 0.21482411 0.20843658 0.2649718 0.20436224 -0.24894518 0.25828582 -0.124024466 -0.21047027 -0.027010655 -0.24856761 -0.26040626 0.21616067 0.20443305 0.21352732 0.26183626 0.2144287 0.23091644 0.272933 -0.19516613 -0.2317823 0.245173 0.14803594 -0.22368327 -0.25361508 0.22707461 -0.26469308 0.26292136 0.18466708 -0.22621992 -0.18967533 0.25154427 0.2114331 0.21049179 -0.25745213 0.23398612 -0.24021825 -0.1676343 0.21005794 0.23193698 0.20916602 0.22431064 0.22780903 -0.21891326 0.1372599 0.25265777 0.2580348 0.19929832 -0.05920963
essentially 0.1824062 0.22130007 0.25260475 -0.032358278 0.18750297 -0.2003405 0.24767667 0.2499398 0.06784858 0.19526094 -0.2345881 0.23296413 0.23158921 0.25018194 -0.22940505 0.23911527 0.24516553 -0.20183906 -0.12475681 -0.20940785 0.22299525 0.19069181 -0.23634277 0.20125121 -0.23148239 0.19554995 0.24756187 -0.19419259 0.24814752 0.24649331 0.24218747 0.23917033 0.22665311 0.17752922 -0.23515214 0.16311073 -0.23522367 -0.23833384 0.22819935 -0.23492542 0.22231658 0.22885887 0.19195402 0.21471813 -0.23358129 0.23844884 -0.22987777 0.23277372 0.23152743 -0.20303586 -0.25391415 -0.18443534 -0.15033008 0.11027453 -0.23259543 0.20749122 -0.24276228 -0.23043774 0.26247302 -0.212842 -0.2072409 0.22876097 -0.3052255 -0.2191183 0.22212611 -0.21911746 0.19950213 0.2567933 -0.19244727 0.21473226 0.24165824 -0.22491868 -0.18827198 0.2761291 -0.2563081 0.17581876 0.2129882 -0.2287458 0.23989977 0.21847643 0.248938 0.23313752 -0.23928548 -0.22766931 -0.13958791 -0.20809397 -0.22079784 0.19871831 -0.24745902 0.23815036 0.24202278 -0.2406018 -0.18774807 -0.24824293 -0.25862005 -0.23250261 0.2507702 -0.21557125 -0.21805517 -0.16961461
is 0.21063036 0.27293733 -0.36054012 -0.43516725 -0.015127905 -0.0005191526 -0.43387786 0.06095488 -0.41587034 0.25416526 -0.17503785 -0.077499144 0.0035330474 0.07703625 -0.20257607 -0.21962635 -0.26902178 -0.4097526 0.4316567 0.18203673 -0.041797847 -0.09661429 0.1059859 -0.30866733 0.42624196 -0.22202657 -0.3476945 -0.16172649 0.38496324 0.19598249 0.40645486 -0.3565971 -0.398292 0.28348204 -0.12265243 0.23846394 -0.16217247 0.12810853 0.16855672 -0.36507902 0.1323403 -0.1417174 -0.3320679 0.3996601 0.10899969 -0.43566892 -0.043312375 0.1335333 0.080741376 0.114766136 -0.36301056 -0.31895185 -0.24303031 0.11924454 -0.17971607 0.46238127 0.39547545 -0.2676727 -0.22219108 0.41407317 -0.059086144 -0.18424384 0.028743798 -0.3314125 -0.3633142 0.29006243 0.3251032 -0.388666 -0.4100921 0.11262993 -0.12893443 0.14175874 0.03342619 -0.4329767 -0.0051476164 0.30111724 -0.098368324 0.060613718 -0.43879628 0.28870612 0.25573426 0.27250814 -0.35902956 -0.37323 -0.3467393 0.35998595 -0.34648305 0.27094337 0.1463848 0.39100254 0.30778122 0.28221706 -0.208408 -0.34969062 -0.39026532 -0.20833908 -0.3266496 -0.31471464 0.23907429 0.17190093
language 0.21707216 -0.33047515 0.2832743 0.3195097 0.26713428 -0.19246374 0.26680565 -0.24228032 -0.22594519 0.2262276 0.27122235 0.21683161 0.05892439 0.24046552 0.2217044 0.25688255 0.18731122 -0.26010424 0.3042458 0.2592791 -0.28920063 0.17152588 -0.27493608 0.21298581 0.29707333 0.2727331 -0.3142248 -0.2090026 0.10235587 0.23371252 0.23763864 0.27291462 0.0850657 0.24933623 -0.25331908 -0.17056155 -0.19402198 -0.26814452 0.23427257 -0.2433835 0.27703515 -0.29278612 0.23493995 0.18015823 -0.25976604 -0.24493879 -0.2886386 0.26263562 0.24584946 -0.22328524 -0.2166127 -0.2619331 -0.26968703 0.276882 -0.23678374 0.2548305 -0.2556326 -0.2256686 0.23987849 -0.20405117 0.22191219 -0.18529478 0.22958788 -0.26614994 -0.2879235 0.2540939 0.2818405 -0.21052286 0.25359905 0.28872508 0.23209581 -0.25207618 0.26248768 0.22603464 -0.004733308 -0.1732074 -0.29240748 0.24534471 -0.20989735 -0.25690752 0.24201766 -0.27291298 0.26933408 0.0030042932 -0.193015 -0.23852724 -0.2555237 -0.26361495 0.30599216 0.28442568 0.27584633 -0.23676167 0.2259813 0.2794089 -0.26144052 -0.2334006 -0.22760855 -0.20991471 0.15069556 -0.26427773
never 0.22309698 0.15983385 0.15614729 0.30592248 0.20309918 -0.2638647 0.30217594 0.26068935 0.115678035 0.2614628 0.28809807 0.26681954 0.2162741 -0.07089936 -0.28301468 -0.25782657 -0.16037416 0.098352626 -0.100293644 0.2195024 -0.1744258 -0.22741422 -0.24998626 0.3779503 0.25930086 0.028016241 0.3819569 -0.100848846 -0.18526706 0.3376351 0.30536994 -0.19691852 0.1302359 0.19641957 -0.027500922 -0.026413566 0.18115498 0.13875619 0.2277885 -0.3014059 0.35297075 -0.1659784 0.24771187 -0.29510075 -0.15552063 0.2588191 0.27916798 -0.06738848 0.32325807 0.33532527 0.33794865 0.12862407 0.09885375 0.14267272 0.018335178 0.21828976 0.2592231 -0.20014651 0.15931822 0.2996364 -0.3428226 -0.2839738 0.25482735 -0.27134433 -0.25502816 -0.29236332 0.25260267 0.37022898 0.19813283 0.1347186 -0.0034174512 -0.21764044 -0.3266753 0.2578183 0.29441512 -0.19601162 0.35258457 -0.30184776 0.3354891 0.34240633 0.06639222 -0.24176785 0.32320237 0.31056368 -0.3121739 -0.32162136 0.19869529 -0.11378406 -0.08377937 -0.3685333 0.26230407 -0.29978463 0.25383988 0.27314875 -0.23323038 -0.35049817 -0.32303143 -0.2865405 -0.26304764 -0.1966642
non-random 0.2830807 0.2264827 0.28345573 -0.32242358 0.27823105 -0.24030367 0.13892354 0.330447 -0.2582062 0.0027680395 -0.17553052 0.20443441 0.2860785 -0.07790624 -0.23758806 -0.24958162 0.3166273 -0.27397648 -0.09611459 -0.19342741 0.13814595 0.25359517 0.08438216 0.23267882 -0.2588881 0.017750194 0.27880812 -0.20709865 0.31656453 0.34278274 0.21543743 0.18924065 0.06388956 0.15776975 0.016741617 -0.30677846 -0.2500673 -0.16890451 0.26619676 -0.33632815 0.20929363 0.40358892 0.37619942 0.3230842 0.34615973 0.39404157 0.1201981 -0.30478868 0.30625376 -0.13082038 -0.21645512 -0.2600296 0.20254494 0.13072573 -0.23063324 0.26447037 -0.23263147 -0.25896803 -0.3217375 -0.304441 -0.23044164 0.051399488 0.1803011 0.13990039 0.25968537 -0.0866169 -0.19987017 -0.20890242 -0.34729826 0.18558842 -0.1804687 -0.26569837 -0.14807405 0.26840216 0.1298455 0.24893881 0.23650452 0.2532244 0.058822755 0.2283469 0.15838656 0.265019 -0.18314312 -0.25929973 -0.18223034 -0.09766989 -0.34886548 -0.18928702 -0.04815389 0.2611726 -0.07540404 -0.015575922 -0.20076434 -0.04146317 0.083281144 0.18065856 0.25881746 -0.23685966 0.085755184 -0.30186164
randomly -0.12824048 0.23405805 0.123863354 -0.24051812 0.24400182 0.2325175 0.21363825 0.27349102 0.18934402 0.25811478 0.24880226 -0.2471785 -0.2546332 0.24247535 -0.21434033 -0.237189 0.14035164 -0.23406821 0.19565526 0.18572472 -0.22766846 -0.22050247 -0.2232968 0.22101164 0.07682192 0.22764689 0.215132 -0.23063564 0.21404336 0.21376014 0.21655141 0.16371289 0.21124522 0.253677 -0.24130571 -0.2720336 -0.2221985 -0.23926081 0.25403875 -0.20685771 0.1982588 0.24306147 -0.20342389 -0.18491066 0.16710854 0.21962053 0.19358562 0.23482193 0.23566742 -0.23561455 0.17649047 -0.21492057 0.15570514 0.21549721 -0.24214351 0.14925244 -0.045620672 -0.24171332 -0.21372338 -0.08756021 -0.16416967 -0.2130213 -0.23114443 -0.17761093 -0.23145872 0.2327157 0.25391674 -0.19175144 -0.13810088 0.20382401 -0.21324229 -0.23671186 0.18129507 0.19532186 0.2200802 0.18645377 0.17248854 0.21368188 0.24032448 0.24587423 -0.26063147 -0.25561944 -0.14786886 -0.24273343 -0.11051478 -0.19646819 -0.20875284 -0.24923815 0.032980744 -0.17990741 0.23879433 0.25051612 0.22196977 -0.26854008 -0.24646516 -0.24896924 0.16698492 -0.1711096 0.22056513 -0.20399024
users -0.2254387 0.20063652 0.2663951 -0.20779714 0.26481554 -0.21500035 0.26314932 -0.28287935 0.2366747 0.23375034 -0.20828743 -0.18135935 -0.21445556 0.2663708 -0.19997078 -0.14318708 -0.25220805 -0.1966147 0.25128546 0.21931621 0.2164148 0.19582982 -0.20086971 -0.09249904 0.267152 -0.22021502 -0.23084596 0.26140758 -0.2353538 0.2509195 0.20615415 0.26132044 0.21866699 0.28107876 -0.2528255 -0.18106896 -0.23328862 0.24338242 0.24653076 0.232974 0.23890074 -0.23565865 -0.20494239 -0.22259623 -0.25073233 -0.1136455 -0.21632254 0.23391235 0.13508631 -0.21978803 0.18886217 -0.22640346 -0.28674397 0.20853415 -0.22364959 -0.20477019 0.2303274 -0.21532409 0.23328753 0.2051499 0.2707645 0.19298042 0.10055135 0.27094626 -0.23822783 0.25342005 0.25057518 0.25122502 0.25330186 0.21288757 0.21530066 -0.24033657 -0.2515627 -0.21017905 -0.26950255 0.15601188 0.18561447 -0.27119848 0.27257118 0.17675662 0.105923735 0.18556134 -0.19183919 0.23396319 0.2378972 0.014701048 -0.24249971 0.17778303 0.26257184 0.24586871 0.22826274 -0.21707904 0.29069987 0.069495 -0.14523958 -0.22946128 -0.22780341 0.19277462 0.25605598 -0.25450695
words -0.25367084 0.24023126 0.20506424 0.07670455 0.2133082 0.26033834 0.19796954 0.23544185 -0.25508484 0.2501126 0.23918344 0.2794624 -0.25456363 0.23495045 -0.20092827 0.10261258 -0.28155538 -0.16208647 -0.23889348 0.24826154 -0.2517207 -0.16133799 -0.24781533 -0.23589762 0.21365248 0.24205095 -0.23268485 0.2272843 -0.25492695 0.22404517 -0.26219448 0.26247263 0.050163023 0.25815102 -0.21962972 -0.25558084 0.171098 -0.22296888 0.21659824 0.25414965 0.20248035 -0.26557237 -0.28872636 -0.2262703 -0.19177309 -0.15743129 -0.22169377 0.21552971 0.1623903 -0.21171932 0.23393261 -0.27385497 -0.15078352 0.26857805 -0.24748495 -0.24626213 -0.0884823 0.05551458 0.19725974 -0.25179073 0.22748454 0.20596415 0.23246227 -0.18090999 -0.24760301 0.19707765 -0.22140352 0.24339122 0.26744294 0.19984211 -0.2154687 -0.25427583 -0.05398673 -0.20449534 0.24446851 -0.23065397 0.19287933 -0.19736253 0.15795383 0.21504624 -0.20090942 -0.22488043 0.23741063 -0.21990475 0.25703374 -0.03023363 0.2541576 -0.23983736 0.2546382 0.23893364 0.23192988 0.2654903 0.2302682 0.26561636 -0.26759472 -0.25329813 -0.18683957 0.17676929 0.24991445 -0.25238645
a 0.2294964 -0.24762358 -0.32589492 -0.3054766 -0.15211737 -0.30989733 0.1061334 -0.32149976 0.1547309 0.26967803 0.29971048 -0.0028613415 0.29288772 -0.35966218 0.15212893 0.22618972 0.28680387 0.33211112 -0.2972027 -0.2740874 -0.07850654 -0.28028184 0.25065503 -0.23745723 -0.3231323 0.22441714 0.32753608 -0.122939765 0.28877866 -0.0021066787 -0.032055583 -0.16464752 -0.21554922 -0.19867182 -0.17069612 0.23556396 0.052443936 0.26184547 -0.2551005 -0.2394149 -0.21355496 0.20802392 -0.25024277 0.14014415 0.30242237 -0.07755402 -0.20977904 -0.31285444 -0.22489098 0.38754708 -0.2651183 0.3054048 -0.13212498 -0.2113042 0.21595985 0.30681393 -0.051065408 0.2071997 -0.32870516 0.3718373 0.14001158 -0.31097826 0.29243127 -0.215847 -0.091692016 0.19600135 0.21940541 0.37790883 0.15588334 0.26498705 -0.29897785 -0.1436411 0.24239281 -0.17878513 -0.27657232 -0.227544 -0.35228145 0.27710837 0.14999321 -0.21055491 0.32079887 -0.20900135 0.27895376 0.31348857 0.24157768 -0.21924773 0.25988016 0.024341939 -0.27198538 0.25166774 0.2871413 0.24036191 0.16467561 -0.28634745 -0.015084969 0.3332268 -0.1255844 0.094727576 -0.31837115 0.23457709
hypothesis 0.27324274 -0.34828123 -0.12777059 -0.21691538 -0.31870985 0.2874013 -0.2111992 -0.27838266 0.18473674 0.26968607 -0.27282047 -0.2720342 -0.09090162 0.2722031 0.30262998 0.37460506 0.24639702 0.19026017 0.12915026 -0.11788039 -0.2700598 0.13792562 0.1634701 -0.19251513 -0.004871471 0.26377827 0.1976713 0.29423493 -0.32732865 0.096301936 -0.30942923 -0.25398746 -0.24789087 -0.32367724 -0.29513028 0.27875948 0.23870075 0.339296 0.25549617 -0.25457177 -0.2419704 0.2530692 -0.10916788 0.07247737 0.24865893 -0.27287433 -0.21969111 -0.084461346 -0.325662 -0.30763865 -0.27506056 -0.24778073 -0.34671178 -0.33678523 0.17419516 0.29383954 -0.28534096 0.30568725 0.15974064 -0.39095762 0.27892452 -0.15476921 0.3007928 -0.24613585 -0.24526636 0.3061889 0.31395504 -0.10473589 0.29647458 -0.242688 0.19970772 -0.30393615 0.12580726 -0.23635326 -0.29767528 -0.3202774 -0.20650505 0.04095533 -0.16232386 -0.18257998 -0.30616018 -0.30326807 0.25224152 -0.0119975135 0.3436858 0.06491252 0.24598272 -0.26227492 -0.33694297 0.27692124 0.2816612 0.2206471 0.33589682 -0.05363819 -0.31539905 0.28616953 -0.29061586 0.31002918 0.35342342 0.22779873
null 0.22717805 -0.2538977 0.21407388 0.11098241 0.026015412 0.32883504 0.15915294 0.22040817 0.12119069 0.21183442 0.11464368 0.24696451 0.32268038 -0.19330837 -0.016389785 0.31316304 0.24608326 0.30622008 -0.2580385 0.20172682 -0.14736584 -0.2955663 0.2260718 0.18188421 -0.29834256 -0.13435578 0.07699769 -0.3119888 -0.29361412 -0.29869655 0.19286484 -0.2803575 -0.26925915 -0.24990845 -0.24430488 0.18998447 0.10463183 0.26742756 0.31192744 -0.18812443 0.16374712 -0.26217636 -0.086639464 -0.28822663 0.20262311 -0.21757413 -0.22463778 -0.25640178 -0.2990069 -0.2571578 -0.020099422 0.15927573 -0.3027836 0.22416039 -0.23207079 0.33577752 -0.0829592 0.22666419 -0.2837128 -0.28587678 0.28474635 -0.28418967 0.35173923 -0.052334234 -0.070086695 0.32814643 -0.21967052 0.25987554 0.26060086 0.25084105 -0.24418846 -0.2557628 -0.2712386 -0.16011158 -0.31399617 0.24501303 0.04092536 -0.31398624 0.19844648 0.21785326 -0.15476714 -0.2325556 0.24283734 0.27501377 0.13115282 0.26074865 0.19612493 -0.0026406494 -0.28023502 0.25020757 0.23632629 0.29386714 0.25477833 -0.3032515 -0.30240303 -0.25816047 -0.31780267 0.23427816 -0.3052595 -0.1508662
posits -0.18752882 -0.26277423 0.20786867 -0.24822412 -0.24120224 -0.23442222 0.2412155 -0.25224608 0.14793484 0.20330293 -0.22768216 -0.18923426 0.20550856 -0.2641153 -0.23576452 0.18006672 0.21727474 -0.2458353 0.20984901 -0.25160035 0.14604099 0.26961344 -0.21880366 0.2411087 -0.2713619 -0.24353005 0.24888444 0.27135026 -0.21457575 0.1914351 -0.19890098 0.24010041 0.25251263 0.22755174 -0.1950387 -0.23834124 0.20912476 -0.2223851 0.21977028 0.18808915 0.22167055 0.17813326 -0.22031677 -0.19044177 -0.20329785 -0.22490261 -0.26063642 -0.21838629 0.2353713 -0.22345456 0.004566143 0.25852886 -0.14317836 0.26020667 0.21595594 -0.1776272 -0.23952387 0.23000221 0.22439837 0.0289398 0.14795618 0.25107875 -0.24231145 0.2039001 -0.120328106 0.17575406 -0.23721117 -0.07072425 0.22808607 0.22744332 0.15941718 -0.22337224 -0.23293741 -0.2413132 0.19340892 -0.26019 -0.17256564 0.18523017 0.2479994 -0.18267916 -0.21616249 0.21301949 0.2556102 0.18821876 0.16793017 0.10300422 -0.2359141 -0.23946476 0.23010242 0.21878143 -0.20900406 0.222449 -0.17602563 0.2384735 0.19753128 0.03672545 0.23466022 0.2434736 -0.2043868 -0.19804984
randomness 0.2563755 0.18462244 0.16196096 -0.18999057 -0.2355814 -0.1591192 0.21690895 0.1690473 -0.16249666 -0.13351794 -0.24291597 0.1798088 0.225737 -0.21543744 -0.22988407 -0.1828301 -0.2493332 -0.22089076 -0.17050536 -0.21514444 0.19406457 0.2273151 -0.053223956 0.18399769 -0.24746248 -0.18590167 0.22621788 0.23505032 0.17314996 0.27886802 -0.19235112 -0.23602638 0.17653869 0.1549796 0.23547798 -0.19585572 -0.11413267 0.18558587 -0.05916106 -0.16937232 0.22133037 0.24395828 0.12736659 0.23551796 0.2597827 -0.2591311 -0.12939835 -0.26413608 0.20802999 -0.2756881 -0.16100714 0.1165005 0.21098368 -0.2512781 -0.24067816 -0.22248541 0.21589932 -0.1664468 -0.2368497 0.20699766 -0.214398 0.2087332 0.22764139 0.23939806 0.16892444 -0.18294531 -0.1755261 0.18250291 -0.21717982 0.15220948 -0.21349269 0.008642924 -0.22291479 -0.21403736 0.18536636 0.16819973 0.17870127 0.18307154 0.22099067 0.23833133 -0.29559076 0.18760179 -0.12756735 -0.2389776 -0.22288625 -0.1151987 -0.27228996 0.14900522 0.049865723 0.25717565 -0.15090872 0.20244946 -0.14236946 0.13977794 -0.18978578 0.17738244 0.24324699 -0.13373654 0.2101989 -0.16507098
statistical 0.17273743 -0.20334345 -0.19083513 -0.21621168 -0.13866827 0.1461199 -0.23761927 -0.252812 -0.21424282 0.23259121 0.22868405 0.24099612 -0.20832103 0.17263386 0.20036153 0.17396002 -0.076850295 0.23805043 -0.022628808 -0.21389696 -0.21996713 -0.23976944 0.22719017 0.20124146 -0.24140954 -0.19929561 0.21951702 0.24201584 -0.09642107 -0.21946505 0.087985314 -0.15836549 -0.19386885 -0.16298038 -0.17752069 0.17113559 0.20315853 0.17738245 0.25896513 -0.18457544 -0.21157031 0.11892624 -0.20416112 0.21689166 0.1206842 -0.18971115 -0.25587237 -0.20613657 -0.18423519 0.24290405 -0.20332858 0.22195634 -0.20623648 -0.17262867 0.21495214 0.16004206 -0.2071746 0.20269972 0.083562426 -0.12253771 0.18043451 -0.23535961 0.2386413 -0.22265737 -0.15671962 0.25464046 0.17655149 0.25791737 0.24720739 -0.18880792 -0.22855285 -0.18313684 0.20709954 -0.22034419 -0.18456936 0.17472155 -0.18377917 0.18092316 0.19672048 0.23360763 -0.21618044 -0.22366013 0.20339972 0.13881424 0.21602364 0.1477715 0.17717424 -0.18801291 0.25213063 0.26661724 0.23191985 0.21482429 0.2474519 0.10839685 -0.21179782 -0.22232644 -0.22814022 0.21131341 0.1595786 0.19927588
testing 0.15898012 -0.09937311 0.16187946 0.3695898 -0.29365078 0.16382469 0.32978573 0.36152384 0.28073785 0.037993923 0.08122992 -0.38604337 0.3660324 -0.03124236 0.08310977 0.24095882 -0.4219335 -0.163775 0.018978273 -0.28678176 -0.123556584 -0.3316164 0.16199952 0.14205931 0.19611245 -0.24586102 -0.02745016 0.0048679262 -0.27746996 -0.28803378 0.38120085 -0.21488325 -0.14536037 -0.19759907 -0.2200972 0.1808093 0.25731504 0.25864947 -0.3524909 0.17418316 -0.12709442 0.0062380526 -0.3293014 -0.2736534 0.1012496 -0.14258575 0.1149179 0.06963896 -0.11002448 -0.36637592 0.34222758 0.14388077 -0.27979946 -0.20145305 0.29683408 0.16740918 -0.37868488 0.2485533 0.41887563 -0.27509522 0.21569279 0.40314868 -0.3809742 -0.15467173 -0.2622874 0.10653845 -0.23530136 -0.17573193 0.16353056 -0.15322058 -0.17064127 -0.34224182 -0.20468834 -0.2282717 -0.124766305 -0.25228992 0.35570455 -0.35309312 -0.40210217 -0.15757515 -0.15757464 -0.15158889 0.18784605 0.19599757 0.19282652 0.3235971 0.01568131 -0.19099668 -0.3079187 -0.31678203 0.17623037 0.3081886 0.059310034 -0.11079266 -0.23579088 -0.3918262 -0.12032122 0.2911492 -0.34763485 0.18056665
uses 0.21249264 -0.22420186 -0.25130567 -0.18442756 -0.18194489 0.25598451 -0.21519062 -0.16578119 0.25821808 0.21909525 0.25015235 -0.16380154 0.17705604 0.23017083 0.25345942 0.21006235 0.24373542 0.23193082 -0.25856203 0.22862045 -0.23419084 -0.14692819 0.21496525 0.26322222 -0.25955302 -0.1974676 0.19607309 0.19957754 -0.20019293 -0.2593652 0.055436894 -0.21005724 -0.19331764 -0.2070178 -0.25977838 0.2262447 0.18854906 0.20048517 0.26523402 -0.23577148 -0.24915212 0.23530386 -0.20680627 -0.22922339 0.2712707 -0.21659455 -0.2554205 -0.20522249 -0.21169393 -0.18792029 0.2184598 0.27612877 -0.24630271 -0.1940689 0.20426667 0.093603626 0.22987399 0.24953677 -0.234721 -0.17236446 0.1773399 0.19177188 0.24059957 -0.2535332 -0.24219623 0.19793244 0.16738608 0.22194351 0.22197971 -0.2094618 -0.23282084 -0.17009479 -0.21462023 -0.22311537 -0.23561074 -0.19995086 -0.26092535 -0.08680026 0.29052958 -0.20603974 -0.22213623 -0.20989932 0.17938864 0.18314686 0.22650343 0.22367959 0.23517157 -0.16745941 0.24914473 0.18700767 0.01660338 0.23408091 0.20334002 -0.23284493 0.07869541 -0.1557001 -0.21235529 0.20403408 -0.22492863 0.2265645
which 0.23584291 0.096285194 0.17307398 -0.3088412 -0.26249653 0.23062451 0.33341154 -0.25391963 -0.19160824 -0.010412241 -0.3077656 0.09098207 0.22300686 -0.30139586 -0.059569996 0.29130667 -0.33011606 -0.3258799 0.013812859 -0.30386484 -0.22531623 -0.26131216 0.2624289 0.27459532 0.02336718 -0.34407446 -0.28225166 0.3386445 -0.1407002 -0.16995305 0.287752 -0.22131145 0.32833782 0.1594695 0.14718801 0.2476916 0.19807835 -0.16122922 0.25949362 -0.35144943 0.23964657 0.35110164 0.30669817 0.14993101 0.19337216 -0.22580962 -0.3041846 -0.22747785 0.305216 -0.15549807 0.28024092 0.3013001 0.06457985 -0.35560474 0.14471743 0.28453454 -0.32624173 0.22065222 -0.18884863 -0.32996657 -0.36328277 0.34588966 -0.15276131 -0.31420833 -0.2538083 -0.09007544 -0.2226799 0.1991892 0.10100859 -0.13389438 -0.2511315 -0.16202182 -0.30555815 -0.3397913 -0.17784372 -0.25511682 -0.28139165 -0.22128195 0.20005992 0.29411942 -0.21715678 -0.22386028 -0.030514823 -0.3380229 -0.15836565 0.19231023 -0.1444069 -0.2721426 -0.13227136 -0.036029343 -0.25645047 0.22969154 -0.119363785 -0.30338633 -0.2427188 0.30599234 -0.19379194 0.18358725 0.28865653 0.15880689
at -0.23032956 0.2367321 -0.20210467 -0.19977726 -0.25442702 0.0164103 -0.19115743 0.13796549 0.25857735 0.2465759 0.21533938 -0.25031796 -0.22977853 0.22425067 0.20087495 -0.2375396 -0.14811403 0.18020046 0.2403581 -0.18764941 0.25247478 0.25628185 0.25881603 0.20805971 0.26390758 -0.2015159 0.23927581 0.23239332 0.2603416 -0.26422167 -0.23910849 0.23263353 0.19937366 0.19148815 0.21566404 0.23419584 -0.068862945 0.24852973 0.18279314 -0.2584333 0.16107416 0.19610107 -0.14966248 -0.17007715 0.1417703 -0.28199467 0.23697877 -0.16833155 0.15678023 -0.19627446 0.21358873 0.21038482 0.19578603 0.10109537 0.23838216 -0.27382836 -0.24155858 -0.23853338 -0.1801027 0.22974077 -0.19239612 0.21918851 0.17287335 0.23018554 -0.19322304 0.24987371 0.23174295 -0.24640147 -0.22955497 -0.2344204 0.23958041 0.19199042 0.22710319 0.27559093 0.20856848 0.22686416 0.18898012 0.2712908 0.26958063 -0.22044027 -0.17885044 0.25892863 -0.26171243 0.23281729 -0.22874835 -0.22732958 -0.2693916 -0.22066492 -0.25241247 -0.21178812 -0.23497136 -0.23640183 -0.24583952 0.2113916 0.17149514 0.2617799 0.22564927 -0.1918189 0.23646528 -0.21997356
be 0.18046635 -0.18198164 0.31684023 0.38468972 0.3520055 -0.051088996 0.37538227 0.35000843 0.30871153 -0.3676641 0.329756 0.18837394 0.24354741 -0.32889375 -0.17402725 0.333016 -0.3362766 0.3474304 -0.18843709 -0.36087602 -0.35231915 -0.26403862 -0.31823742 0.34441495 -0.28519663 -0.221413 -0.08631955 -0.12663089 0.310888 -0.23954315 -0.32733244 -0.23796882 0.38341498 -0.023990052 -0.35360393 -0.32246748 -0.33491358 0.28022164 -0.0030410935 0.3276813 0.20610312 0.045646306 0.15044948 -0.3055599 0.23999925 0.4014236 -0.087837666 -0.27851662 0.23109224 -0.3421928 0.32542926 0.27260357 0.3568511 0.27471045 -0.05938846 -0.26397 0.038148504 -0.26495716 0.35172224 -0.30993193 0.063255616 0.35268566 0.2758724 0.29618853 0.30590522 -0.31323606 -0.09792479 0.26879302 0.2233614 0.28649193 -0.31988823 -0.2300362 -0.09582065 0.3542074 0.36819732 -0.37596163 0.3390359 -0.32345098 0.36331874 0.20808877 -0.18928811 -0.30160445 0.2085138 0.26873085 0.2782501 -0.32537293 0.3661932 -0.03522645 0.17951791 -0.15982068 0.15251446 0.27189586 0.16112271 0.3446292 -0.2802749 -0.2012413 -0.30796912 0.11731246 0.37075758 -0.2848441
corpora 0.28492883 -0.23370007 -0.033975057 -0.17526388 -0.22293885 0.364412 -0.3358526 -0.117975436 -0.4233919 0.26065123 0.30137238 -0.36985958 0.2840901 -0.31420106 -0.09297356 -0.37787798 -0.2636431 -0.19378084 -0.06463652 0.3119301 -0.19201809 0.05702771 -0.015975107 -0.32371348 -0.12366232 0.15180579 -0.1256078 -0.22189076 0.31016383 0.19469368 -0.08502557 -0.3216308 -0.3322975 -0.028145185 -0.23061948 -0.21197318 -0.3443555 0.36323547 0.20537171 0.16237378 0.26902694 0.34745112 -0.25983655 -0.24479306 0.33043098 0.13846517 0.093716845 -0.31503552 0.17088766 -0.281654 0.090186104 -0.2545688 -0.17599925 -0.055484746 -0.2123571 0.23456089 0.015406018 0.3520418 -0.3061552 -0.2166533 0.36688787 0.14108607 0.2671747 0.09051254 0.044292144 0.33731443 0.05873987 -0.044595275 -0.16815332 -0.33650953 -0.37519598 -0.25661966 -0.3387257 -0.13417801 0.067102276 -0.04712081 -0.31401223 0.29264876 -0.36652434 0.32736847 -0.36696216 -0.2806851 0.21847837 -0.22942722 0.34060422 0.32049236 0.22828826 -0.0034577467 0.07324994 0.21712214 0.29938105 0.32887307 0.17208901 -0.35055983 -0.29697624 -0.13169502 0.2053692 0.35999924 0.31700858 -0.005013573
hence 0.18769889 -0.23798256 0.22201785 -0.23834103 0.18541312 0.17025307 -0.18781859 0.17864227 -0.19133165 0.29025626 -0.19117862 0.1095769 -0.25876865 -0.21856011 0.23266931 0.069560066 0.24724203 -0.23756628 0.14813165 -0.24623726 -0.19234985 -0.24877161 0.27015933 0.17124373 -0.18659219 -0.20893389 -0.14797635 -0.13929777 0.16990297 -0.18331178 0.24940024 -0.15010244 0.19130245 0.12296235 -0.19317842 -0.19547863 -0.13384233 0.21331148 0.26415187 0.12658407 0.15524119 0.20018423 0.055902712 -0.1688793 0.21212137 -0.17531563 -0.16995065 0.23789166 0.2515149 -0.15863492 0.22531228 0.16062875 0.22266039 0.22244386 -0.14974906 0.002250189 -0.20193823 0.22578542 0.20818034 0.21578418 0.20706473 0.18640712 0.18759778 -0.18336196 -0.22539966 -0.23734196 0.19933037 0.15707555 0.21651371 -0.24778876 -0.15391177 0.08849973 0.17118703 -0.17318444 -0.261342 -0.2150997 -0.2478997 -0.20360255 0.1436251 0.23797075 -0.16334948 -0.21753892 0.21963789 -0.21610712 0.18183024 0.14991385 0.24781047 0.10137677 0.2504508 0.20763569 -0.20626587 0.15269409 -0.19038162 -0.10924384 -0.16720785 0.20499358 -0.2475931 0.041542303 -0.12901808 -0.09779972
in 0.3145374 -0.11418642 -0.37319076 -0.37852165 -0.23353747 0.066708 0.14889158 -0.3760723 -0.39983618 0.40348202 -0.08897299 0.17193857 0.204511 -0.065305114 0.28330112 -0.11846827 -0.22518241 -0.13237958 0.12909132 -0.20548864 0.31502834 0.1332795 0.35085866 0.019336399 0.28410226 -0.33010012 0.28660357 0.31468752 -0.033816967 0.089359045 0.30296382 0.0873222 -0.3993403 -0.11764066 0.15235576 0.114114426 0.27422652 0.24665022 -0.2819635 -0.17218389 -0.07658655 0.28033704 -0.39691138 0.20562734 0.23327465 -0.31990275 0.37770376 -0.3607779 0.09328454 -0.07338267 -0.23953913 0.23162441 -0.20189111 -0.29310367 0.35584217 -0.11807482 0.028101005 0.2940861 -0.150421 0.331423 0.09254382 0.13117972 0.23521473 0.1190712 -0.3348488 0.2940382 0.3097344 -0.344218 0.17658052 -0.33239034 0.29810467 -0.16579582 0.3180214 -0.052283626 0.121392325 -0.34720382 -0.35504276 0.38990724 -0.17348702 -0.31602558 0.38002768 0.33928126 0.029815303 0.39699063 0.33940744 0.3022145 -0.095364824 -0.23614967 0.09252453 0.37774527 0.3538849 -0.10529777 -0.3216137 0.19352856 0.19932987 0.23301654 0.15114976 -0.032008577 -0.35126904 -0.016576879
linguistic -0.24605353 0.2885194 0.20652494 0.19633807 -0.26663432 0.2059829 0.25353426 -0.2716687 0.259191 0.25749704 0.29740387 -0.26452312 -0.2076643 0.2739548 0.23895942 -0.13632718 0.22304375 0.31879964 0.30199805 -0.21777354 0.22131407 0.23196696 0.3005413 0.23393223 0.23877741 -0.21794376 0.24775998 0.27245483 -0.07418896 -0.22023432 -0.25229427 -0.25739837 0.19507787 -0.20428964 -0.27533066 0.26596382 -0.25613797 -0.1642067 0.27720496 0.18819627 -0.21179608 0.25095737 0.23825455 0.23868896 -0.20782796 0.1218417 -0.23556963 0.20506692 0.3358764 -0.24312992 -0.01947093 0.27467304 -0.27700195 -0.21879685 0.27868107 -0.2459537 -0.19807413 0.24273409 0.22490092 -0.24909878 0.26256958 0.21109228 -0.1761312 -0.10764491 -0.27814153 0.21861328 0.2856901 0.17374073 -0.26704398 -0.23934045 0.21501309 0.29111135 0.20421663 -0.28540632 0.17729273 0.111787975 -0.27201748 0.23880479 0.21688825 -0.23293531 -0.29790357 -0.22946104 -0.23539168 -0.117861316 0.24353182 -0.19976848 -0.18873008 -0.25141698 0.16502607 -0.19064525 -0.15686099 -0.006169514 -0.03203959 -0.28827032 0.21585132 0.27385584 -0.2738119 0.24814226 0.26427084 0.12125699
look -0.112907 0.2619937 0.19677286 -0.24844056 -0.22079192 -0.18805769 -0.27822047 -0.25531906 0.20660533 0.1469487 -0.26495627 -0.24571458 -0.25232667 0.24841267 0.24112962 -0.19870298 0.22743717 -0.20501742 0.22989447 -0.21596675 -0.27536607 -0.19550751 0.22073716 0.25937667 0.26183903 -0.25216767 0.19381648 0.27994528 0.23330766 -0.20372243 0.2399935 -0.17357586 0.240029 0.24868178 0.226388 0.23578803 -0.2723439 -0.26329255 0.22594936 -0.24917488 -0.14261582 0.20532702 -0.26796052 0.09716811 0.21665807 -0.1056343 0.18857461 0.16915666 0.2742162 0.29996413 0.29468393 0.23177053 0.20727114 -0.23940012 0.2425055 -0.2307713 -0.21807615 -0.24274105 0.23763528 0.16815674 -0.27518898 0.25976956 -0.18831262 0.21089676 -0.26350284 0.26595324 0.19575551 -0.22520992 -0.25117013 -0.27597612 0.24858509 0.21787697 0.26317394 -0.21609351 0.23314889 -0.18449421 -0.21775733 0.2348368 -0.23953885 -0.19062303 0.14213511 0.18696639 -0.18492343 -0.19176827 -0.25706112 -0.17999457 -0.23338696 -0.24039628 -0.22929381 0.27319324 -0.2081329 -0.18368056 -0.19006892 0.29843676 0.18728241 0.24583197 0.20360333 -0.27523893 -0.22306882 0.20053332
phenomena 0.14756279 0.25500515 0.3321349 -0.1941346 0.3219589 -0.00871058 0.14301254 -0.30171037 -0.026941346 -0.13429323 -0.22796862 -0.19350661 -0.100527346 0.28384364 0.25651765 0.1796031 0.3985525 -0.26242793 -0.018253654 -0.35885444 0.30108228 0.05658421 0.25969613 0.3409696 -0.22878608 -0.00072187645 -0.065073185 0.20962115 -0.0040743486 0.32227674 0.14080408 -0.0141107105 0.19692957 -0.15445149 -0.36100683 -0.07930668 -0.36051467 -0.20215824 0.073263764 -0.21987382 -0.03251324 0.18581812 0.26826352 0.19654718 0.18641761 0.29117218 -0.27515078 0.14151515 0.33670464 -0.1666575 -0.40625545 0.30446354 -0.21476883 -0.22572641 0.29010823 0.29375452 -0.30745557 -0.18682353 -0.32746 -0.33001816 0.30312622 0.105971426 -0.26793778 -0.15978763 -0.042576253 0.2542461 0.30818772 0.1772293 -0.30563262 -0.08474404 -0.24597901 0.050204303 0.32127053 -0.10362915 -0.32894138 -0.1961313 -0.28692526 0.34032685 -0.31247568 -0.35923892 -0.025654677 -0.18980119 -0.09208002 -0.23073973 -0.3251762 0.020744 -0.32676834 -0.33509225 -0.32788286 -0.09532531 -0.21630335 0.08306721 -0.39211026 -0.15207149 -0.032002926 0.27428064 0.2628105 -0.31957132 0.08537425 0.36128765
the 0.3685009 0.08917929 -0.31699628 -0.3557256 -0.042761356 0.024679672 0.31422058 -0.26924697 0.3647775 0.2678731 -0.056925055 0.352334 0.36504695 -0.37806043 -0.33895504 0.106856376 0.38900316 0.21815252 -0.3982106 -0.36978906 0.3355532 -0.14354096 -0.05308318 -0.28408465 -0.37300074 0.27386177 0.19660982 -0.2609926 -0.03050476 -0.16162454 -0.31934115 -0.25836423 -0.17418125 -0.026280314 -0.21329202 0.27144295 -0.37813097 0.24194539 0.2864616 0.39329848 -0.109249815 -0.1684327 0.27826273 -0.26992866 0.32820195 -0.11989384 -0.30788198 -0.04201828 -0.03619193 0.20367008 -0.10656938 0.346647 -0.038583912 -0.17250231 -0.22079791 -0.14753051 0.28289324 0.073855795 -0.31845528 -0.14760129 -0.25170305 -0.3328376 0.27149284 0.36299443 0.29484835 0.32725528 -0.34404495 0.38419634 0.3332076 -0.13507505 -0.36017737 0.07790568 -0.30176947 -0.09270915 -0.32972458 0.012666851 -0.3710118 -0.11708648 -0.30726883 0.2180202 0.32294473 -0.3012303 0.3423465 0.21687123 0.1529221 0.33589265 0.1467667 0.23684496 0.21435504 0.28991866 -0.31930166 0.26004073 -0.29149324 0.3008797 -0.31163764 0.2616413 -0.24393891 -0.3476079 -0.36139524 0.34783712
true 0.31314647 0.049274012 0.21370259 0.14137092 0.15579641 -0.28868437 0.18183677 -0.27029043 -0.014536826 0.36229083 0.073943794 -0.11752537 0.27258882 -0.2583533 0.28991222 -0.18670066 0.2807736 0.2800002 0.17758267 -0.1557758 -0.2574738 -0.20470935 -0.25589082 0.28130737 -0.28476346 -0.13268392 0.34523988 0.032925073 0.26802424 0.18303253 0.2541932 0.026743824 0.32169518 0.24111588 -0.06884863 -0.27371794 -0.13606957 0.3009909 0.29058936 -0.29601294 0.28376144 0.28985325 0.18476333 -0.31383654 0.31599224 0.3131774 0.13927267 -0.35720232 0.22602873 -0.12620959 0.21534108 0.25419894 0.04286721 -0.010914744 0.23707569 0.34029463 -0.17649002 -0.057424013 -0.2048416 -0.03572172 -0.22123955 0.16466294 0.3192956 0.14473617 -0.10526034 -0.03327828 0.03173093 0.094122246 0.017067116 -0.09325983 -0.089353055 -0.28300127 -0.34227863 -0.18307337 0.041188397 0.1751441 0.29535016 0.05864719 0.2645183 0.23535372 -0.21657142 -0.3314529 0.287551 -0.11271192 -0.24044384 -0.259318 -0.0021027413 -0.20961684 -0.018051352 0.012311001 -0.0431646 -0.19550815 0.07806192 0.22372293 -0.09429475 0.15929015 0.01914337 0.04458328 0.024552548 -0.29063135
we -0.34884703 0.28606662 -0.25111884 -0.1316004 -0.378656 -0.094900824 0.011698696 0.48788783 0.35851154 0.088052504 -0.0046043345 -0.21409607 -0.15764152 0.44234437 0.12718433 -0.19040631 0.3207883 -0.10153662 -0.21267343 0.011562186 0.33015528 0.13851821 0.2454231 -0.17685953 0.3065267 0.048944037 0.34602886 0.19895585 0.11839149 -0.15146427 -0.09227043 -0.2856962 0.12298905 -0.21897328 -0.13385673 0.39967775 -0.08474369 -0.10728075 -0.068074115 0.005949112 -0.38598415 0.13531137 -0.24305108 0.23306935 -0.34317705 -0.47888744 -0.2809786 0.13356185 -0.45200208 0.4101941 0.009595281 -0.22430179 -0.45179954 -0.3983126 0.15853314 -0.18722083 -0.10158644 -0.03466992 0.17965218 0.40128785 0.4104231 0.185089 -0.46595165 -0.28780466 -0.25930297 -0.18369456 0.22445446 -0.32311556 -0.06722631 -0.010466744 0.32774755 0.26675096 0.20964059 0.0227369 -0.030472288 -0.27797693 -0.06606952 0.21586448 0.19191551 -0.39444572 0.22009905 -0.04702605 -0.16685794 -0.04357089 0.24022938 0.1037291 0.14786676 0.011630521 0.015510897 0.09169721 0.08997042 0.119775295 -0.20556143 -0.29346713 0.28383276 -0.092495516 -0.34514275 0.11665844 -0.44720533 0.3121864
when -0.21239856 0.1678312 -0.19770251 0.20832644 0.20921588 0.12531759 0.20769975 -0.10555507 0.25045887 -0.22507663 0.20208587 -0.18176877 -0.24182904 0.16411997 0.10733979 0.18074524 0.22333486 -0.18932097 0.18656805 -0.22167137 0.2017064 0.23835532 -0.20060821 -0.20285165 0.20938398 -0.16936718 0.19849621 0.23295482 -0.20273298 0.12076613 0.27005196 0.2009311 0.013933851 -0.21735013 0.17842951 0.23629767 -0.22466299 -0.20571546 -0.24540415 -0.16936974 -0.14717375 -0.18019646 0.23047976 0.19505338 -0.24235265 -0.31094122 0.19753204 0.23009846 -0.15928082 0.20611282 0.15669826 0.20452473 -0.1767566 -0.24706833 0.24171904 -0.17584597 -0.23020914 -0.26218528 0.25278363 -0.11745908 0.17793724 -0.18295538 -0.25016838 -0.17169175 -0.25530788 0.1321037 0.22177765 -0.20598176 -0.24937914 -0.1047985 0.2254473 0.26906914 0.26596278 0.18323754 0.2119369 0.16219762 0.2175143 0.18951567 -0.050548166 -0.22786255 0.20799227 0.24388804 -0.26713818 0.13083728 -0.22177018 -0.22909236 -0.26088622 -0.22496244 -0.19615892 -0.2617197 -0.2633176 -0.22526833 -0.2040457 0.17695068 0.1992944 -0.17115015 -0.17986736 -0.20067053 -0.25119773 0.24631384
will 0.20755939 -0.22922055 0.21729729 0.26285568 0.29520664 -0.2743664 0.23608735 -0.24153407 0.24522284 0.20283817 0.2309565 -0.21764933 0.21563442 -0.14351633 0.25469184 0.21655566 0.21326233 0.21521422 -0.18761386 -0.28133038 0.25374538 0.30723748 0.20336789 -0.22379637 -0.08134454 -0.28191617 0.26119113 0.19178163 -0.19129896 0.2709536 0.24430779 -0.23596361 0.136992 0.23317531 -0.17224133 0.25179505 0.27297217 0.24930112 -0.06386446 -0.20349339 0.2205927 0.16919337 0.25929454 -0.2094127 0.21547364 0.18126152 -0.18812612 -0.22750722 -0.23454589 -0.23164165 0.21226518 0.23409812 -0.24483219 -0.22821859 0.21900259 0.23706764 0.27100024 0.20537744 -0.28626245 0.06485372 0.21215776 -0.24060571 0.2266835 0.27144682 -0.25371966 0.12857218 0.24171048 0.26944375 0.22478278 -0.23353705 -0.23790655 -0.09397768 0.21868764 -0.19210416 -0.27546093 -0.22491097 -0.20012432 -0.22681609 0.24349189 -0.13854185 -0.27009416 -0.1545278 0.1895051 0.2282753 0.2106153 -0.2842127 0.22400588 -0.27632725 0.19997405 0.26151526 0.2686909 0.13908972 0.13652696 -0.1763847 -0.24684352 0.23346855 -0.20491083 0.2396251 0.26293322 0.20923859
( -0.27018762 0.21314761 -0.14478877 0.2593074 -0.22259389 -0.26514992 0.23376952 0.23215047 0.21920043 -0.2523318 -0.27194613 -0.26469797 0.2562024 -0.24449745 -0.19197233 0.32894975 -0.26713043 -0.24507746 -0.24067004 -0.20930171 0.28320956 0.23326956 -0.19659415 -0.21428503 -0.22328903 -0.3047202 0.27587813 0.20119925 0.21053642 0.25745425 -0.25774848 0.16737144 0.1825834 -0.27060086 0.2316351 -0.23128715 -0.19204079 -0.2789201 -0.26279202 -0.1905286 -0.1979617 -0.23210442 -0.20660742 0.2265048 -0.20451324 -0.09503436 -0.079037026 -0.15098935 -0.15914647 0.16349694 0.2590564 0.1948297 0.23466448 -0.09540392 0.22602794 -0.26234177 -0.27917612 -0.20367792 0.070255674 -0.28420815 -0.23599446 0.24845973 -0.2246005 0.25949666 0.20205548 -0.18020225 -0.21163842 -0.20692706 -0.24968825 0.25627902 -0.19677575 -0.00020048898 -0.114176124 0.24271706 0.25850743 -0.3159252 0.24520375 0.25138992 -0.25577775 -0.21041387 0.2290808 0.26846713 -0.2716392 0.1783364 -0.24779488 -0.2538596 -0.2447756 0.18238859 -0.27584913 -0.13185506 -0.20691581 0.26430458 -0.27322933 0.29419023 0.24079266 0.17173408 0.2080532 -0.21621066 -0.20919433 0.14070013
) -0.10067258 -0.30273777 -0.29233405 0.25614518 -0.3382304 -0.040060576 0.29118297 0.22713284 0.28986093 -0.23892564 -0.24284635 0.21269596 0.26640597 -0.27479324 -0.18442306 0.26338425 -0.28952292 0.32975364 -0.24912491 -0.2639004 -0.19646162 0.1996006 -0.24086632 0.26149085 -0.24690321 -0.1926635 0.24668318 -0.24163511 0.0028314102 -0.0496707 -0.26148558 0.27776104 0.28171906 -0.30341363 0.23951936 -0.17652914 0.019097468 -0.079718746 -0.2835084 -0.26837513 0.23257741 -0.2690288 0.074662164 -0.25387654 0.27431703 -0.074364886 0.21347432 -0.26380804 -0.2600421 0.27964878 0.27249515 0.2602024 0.24358766 -0.29052532 -0.21017851 0.25559658 0.2783082 -0.2209503 -0.2516577 0.22981139 -0.26302585 -0.28798443 0.20674819 0.27222586 0.20778216 -0.22395697 -0.25596103 0.10239389 -0.20176469 0.2459049 -0.28880158 -0.25628912 -0.13875587 0.233647 0.27364978 0.26826045 0.26420867 -0.2307845 0.1796605 0.2624721 0.22670236 -0.08648642 -0.2254213 -0.20369734 -0.19803257 -0.23961987 -0.13093932 0.2726334 -0.30391487 -0.27854428 -0.2721998 0.26877528 0.20191677 0.22322062 0.29501587 0.28751734 0.2657518 -0.2420027 -0.096577175 -0.096979246
able 0.26703328 -0.26813468 0.17211603 0.22706243 -0.22949772 -0.12501048 -0.27565038 -0.24670245 0.24255891 0.23058034 -0.248324 -0.24391015 0.24900751 -0.20693293 0.27521732 0.20801792 0.26838908 0.18960544 -0.0801141 -0.14375336 -0.19866186 -0.24743953 0.22730444 0.207538 -0.21640678 0.2779055 0.19968499 -0.19682409 0.24792628 -0.24980411 0.22758874 -0.24806629 -0.24739528 -0.274466 0.23918544 0.22789034 0.25143078 0.28861603 -0.23981486 0.26198652 -0.27151594 0.24704848 0.29056254 -0.11214878 0.26218662 0.23472907 0.24884728 -0.17146403 -0.17250364 -0.31100136 0.21399519 0.10930172 0.14655238 -0.29598233 0.28213137 0.22201745 0.15736842 0.25202924 -0.2087323 -0.2517996 -0.22462562 -0.24544613 0.2137991 0.17247485 -0.026136616 -0.18388441 0.27888966 -0.21487445 0.28087997 -0.32209727 0.19830798 -0.22682688 0.17354783 0.21836133 -0.22035684 0.21191233 0.28506702 0.13664156 -0.17412652 -0.25023258 -0.23657648 -0.2686834 0.2774071 0.25359985 0.22141235 -0.06071312 0.27492613 0.19465835 -0.2784164 -0.24993438 0.27274773 -0.16970778 0.22169462 0.27774334 -0.2608536 0.15117586 -0.22592214 0.27474266 0.28599778 0.25131932
almost -0.1964595 0.262716 -0.27451232 -0.2892329 -0.2828323 0.21415159 -0.27480203 0.23192853 0.25812733 0.21239257 -0.16524452 0.22968812 0.23212117 -0.08619643 -0.2005588 -0.23924589 0.19821809 -0.25724244 -0.22131588 -0.13634714 -0.22679152 0.1807956 0.20363723 0.20366313 -0.27676252 0.2527272 0.28699625 -0.23738144 0.27970725 -0.26608828 0.19058864 -0.2525265 0.24998334 -0.23015966 0.06813294 -0.22698069 -0.2524102 -0.17831543 0.032655757 -0.19986723 -0.21706803 0.26746526 0.18752612 0.27785224 0.26087222 -0.20746826 -0.1938568 0.2058216 0.118040085 0.26471868 -0.0057427427 -0.23098099 0.22343977 -0.2912616 0.24420822 -0.19199176 -0.2623097 -0.28116873 -0.2875715 -0.28324553 -0.22829975 -0.08619765 0.13802882 -0.22887169 0.24072234 -0.27003136 0.20969191 -0.22765777 -0.19532098 0.27447936 -0.24520269 -0.22485249 -0.23225757 0.30658123 0.18615304 0.17259648 0.24364217 -0.264241 -0.22012089 0.22031224 -0.14778818 -0.2325752 -0.19342847 -0.22598116 -0.2240738 -0.20728348 -0.067507364 0.26906976 -0.16016644 -0.25857544 -0.14476228 0.29793993 0.23099788 -0.29982144 -0.2151716 -0.23600216 -0.17153989 -0.2543892 -0.24712537 0.20677157
always 0.13352783 -0.20011999 -0.32140103 0.19408128 0.17787951 -0.25709304 -0.26073232 -0.27967742 0.2632838 -0.15199065 0.22129737 0.22653326 0.20061348 -0.2799111 -0.19382474 0.17296186 0.16868956 0.2305116 0.1745182 -0.15078774 -0.27941155 0.26645312 -0.27676433 0.1856286 -0.24876063 -0.04604028 -0.2909944 -0.19206351 0.12631576 0.26912525 -0.22277078 -0.23387316 0.20932764 0.2377352 -0.22239214 -0.26095867 -0.24195018 0.27437785 -0.25064147 -0.22671549 0.21028762 -0.22185588 0.28938612 -0.20694011 0.2958297 0.22086948 0.16479228 -0.21732736 0.18083091 0.27583653 0.24853127 0.14559326 0.23518574 0.20778987 -0.25246724 0.1945524 0.2460924 -0.25566292 -0.28040227 -0.07639285 -0.27699506 -0.22493514 0.2541525 0.27782446 0.22454971 -0.2639379 -0.26160198 0.29646295 -0.20899798 0.23396315 -0.17821643 -0.20688514 -0.2656278 0.26885355 0.22743194 -0.24472307 0.20421326 -0.28257853 0.24024299 0.26542443 -0.29077882 -0.2684342 0.19642523 0.25491294 -0.2689878 -0.28012362 -0.29801542 0.28072283 -0.2715067 -0.19239625 0.25125396 0.26340744 0.25487983 0.2806977 0.2947099 0.25444356 0.22813465 -0.1712573 0.30728832 -0.19109705
data 0.0004984718 0.24001577 -0.3305572 0.058644876 -0.27771878 -0.09164824 0.18844876 0.29353353 -0.25454238 -0.26134273 -0.32033673 -0.033242937 0.24241678 0.17085375 -0.05375138 0.11783909 -0.100791745 0.33737326 0.012279015 0.22940154 0.33276483 0.14057547 0.041605387 -0.011997253 0.055051256 -0.44147202 0.03856611 0.23712666 -0.27263442 -0.0352156 -0.22898383 -0.45813334 -0.3534106 0.18223952 0.2194286 0.3573447 -0.10480436 -0.010621572 0.15781656 -0.1492742 -0.049569108 -0.28563336 -0.1493351 -0.025367951 0.120959274 -0.3586255 0.23132724 0.15227585 -0.37245014 -0.17979209 -0.07487024 0.02926346 0.070188925 0.061280705 -0.051571764 -0.045089904 -0.2817752 -0.29189482 0.3740779 0.1026843 -0.24917346 0.33865228 0.17090538 0.21491323 0.330439 -0.15299043 -0.26925877 -0.255794 0.15614006 0.11319454 0.3072222 0.27707028 -0.3354201 0.30931094 0.313043 0.26615974 0.33786875 0.16818114 0.12559433 0.16514175 0.1120208 0.19924921 -0.28741592 -0.09411893 -0.27417782 -0.17730509 -0.15609173 0.07295685 -0.3635733 -0.12894645 0.031504102 -0.3552324 -0.26611888 0.32038435 0.010583444 -0.2915654 -0.060505256 -0.22342888 -0.3922872 0.26944062
enough 0.068708695 0.22521521 -0.33350316 -0.3123782 0.30122608 -0.28922287 0.33739576 0.2584346 -0.3558682 -0.025315488 -0.34344083 0.33051798 -0.23363994 0.23182373 -0.27112523 -0.31248903 -0.3230852 -0.31600618 -0.15394445 0.40209156 0.30353522 0.2846374 -0.14898136 -0.28623545 -0.25071394 -0.3467741 -0.17848648 -0.31742826 0.35234657 -0.39461473 0.33267012 0.26452023 -0.39294964 0.331031 -0.26513383 0.20936953 -0.23355056 -0.19977704 0.31621286 -0.21599972 -0.3021351 -0.21570389 0.2659712 0.2913582 -0.18771838 -0.3429125 -0.10321931 0.35850102 0.18716699 -0.13412961 -0.3446415 -0.349323 -0.1319329 -0.2762567 -0.27150515 0.14150444 -0.33522716 -0.27780193 0.3491331 -0.10892204 0.08544851 0.27626592 -0.19778657 -0.27966624 -0.27839977 0.13010415 0.14061046 0.19978407 -0.12213161 0.16313727 0.39782166 -0.3302776 0.11868008 -0.14606096 -0.04052895 0.23019224 0.18697256 -0.2788234 0.30871275 0.28414062 0.053678323 0.21633504 -0.23157614 -0.19422211 -0.090168126 0.31052977 -0.1699335 -0.03125504 0.15579727 0.12224692 0.0091194175 -0.38616198 -0.26790562 0.40070355 -0.27191508 -0.36184937 -0.049968265 -0.2080806 -0.21377997 0.31757763
establish 0.2397979 0.17351468 -0.26427528 -0.23384796 0.23819238 -0.26797637 -0.14847688 -0.29265618 -0.23630008 -0.23452532 -0.20101903 0.14267914 0.20074333 0.15221868 0.074295536 -0.23506176 -0.24067533 0.23811036 -0.030688768 -0.04493084 -0.045254767 -0.251702 -0.2948101 -0.23875087 0.046030916 0.25451645 -0.17688002 -0.28056723 0.27029687 0.12777093 0.25672534 -0.20010406 -0.12438923 0.19405659 -0.23908173 -0.24433842 -0.2360312 0.26124763 -0.28401247 0.13399336 0.25318608 -0.26691708 0.06680738 -0.26537082 0.21656623 -0.18746746 -0.2074647 0.3039871 -0.21681972 -0.26555553 0.21314935 -0.24697158 0.23541135 0.27460912 0.21185163 -0.24305318 0.27099547 -0.25525567 -0.23432875 0.20883569 -0.24954318 -0.22060387 0.28283715 0.23117886 0.20688213 -0.24801794 -0.18325745 -0.27723086 -0.1563611 0.25002322 0.19742352 -0.25100774 -0.19146192 0.23790428 0.199712 0.16667487 0.18560372 0.06742784 -0.16421947 0.21390118 0.2765282 0.27381894 -0.10926411 0.2317233 -0.2661075 -0.011859826 -0.29034388 0.22046553 0.2273687 -0.27403387 0.2735559 -0.24507749 -0.2601346 0.16899881 -0.21932185 -0.14439626 -0.13694334 -0.25196725 0.19697396 -0.20888703
it 0.3178993 -0.0836902 0.4165102 0.17900951 0.09476431 0.0025055103 -0.15793478 -0.25675425 -0.3210834 -0.03612932 -0.35927278 -0.36317092 0.19175357 -0.3570274 0.49383068 -0.15744875 0.1156476 0.080826186 0.34644377 0.30286068 0.19917144 -0.26669586 0.41538957 0.40630746 -0.33929285 -0.064675294 -0.3278483 -0.12284746 -0.12510705 -0.2700701 0.31568044 -0.3402293 -0.3336924 -0.07892088 0.15583692 -0.21583816 0.19270013 0.42183876 0.39630145 0.19298978 -0.36409697 0.06657396 0.15881325 -0.41076827 0.37112153 0.19416378 -0.24485269 -0.32897425 0.19158562 -0.45491225 -0.23519894 0.26566228 -0.28671116 -0.36807078 -0.004132632 0.4152897 -0.06750218 0.2643554 0.013701545 -0.4147824 -0.10048028 -0.17441373 0.33051607 0.3337346 -0.2666484 0.03521985 -0.20507325 0.41753182 0.34012353 0.01594992 -0.06548007 0.4091016 -0.3116469 -0.19748963 -0.3580529 -0.059729055 0.0761613 -0.3118193 -0.3786969 0.06444738 -0.1712837 -0.23018354 0.35200992 0.0063622245 -0.0670349 0.3768796 0.05324129 -0.20784685 0.34415162 0.15224767 -0.31960934 0.17790794 -0.09082795 0.39346972 -0.23170882 0.024326855 -0.22402084 0.13520816 0.117533766 0.0025156033
moreover -0.2377638 0.16978697 -0.24878499 0.21929486 0.17481953 -0.16051242 0.21096611 -0.16566786 -0.06761854 -0.19864082 0.2479486 0.22807954 0.17537114 -0.119900815 -0.23580372 -0.21521744 -0.15890667 -0.01747655 -0.27771086 0.23332496 0.26236486 0.20676178 -0.20520167 -0.20040858 0.19965962 0.259085 0.13979077 -0.17369205 -0.2474149 -0.2085159 -0.21987619 0.22848709 -0.21359368 0.082418665 0.18350941 0.20508118 0.18369994 -0.20572418 -0.25664443 -0.16969916 0.14991449 -0.12420639 0.19666795 0.19526176 -0.1922087 -0.20818831 0.1594651 -0.15489991 -0.24565716 0.23150119 0.080917075 -0.27355686 0.18100339 0.18692207 -0.18437214 0.25907886 0.20503734 -0.21131317 -0.17581564 0.09566447 -0.22709319 -0.13659687 -0.22223331 0.27052727 0.1892341 0.1867757 -0.22584526 -0.2246805 0.06600293 0.24135369 -0.19670641 -0.17738362 -0.2088287 -0.031237666 0.26146993 0.24199964 -0.14586653 0.1863261 -0.17504461 0.08143985 0.21728277 0.1742399 -0.20172752 -0.07102144 -0.11331652 0.28039804 -0.19365117 0.22021921 -0.2545379 -0.21478073 0.22313108 0.22841696 -0.12344626 -0.24765961 0.06763882 -0.20357826 0.16833073 0.24005437 -0.17795284 0.0724321
not 0.22908679 0.22582343 0.22136699 -0.3164159 0.078552954 -0.14364727 -0.3890126 0.24028634 -0.3203753 0.2892064 -0.3059996 -0.34261933 0.38206884 0.3337402 0.26329362 -0.3517971 0.19953677 0.3492917 0.3009824 0.27871144 -0.35093975 -0.38179514 0.045029208 0.28571588 -0.08146491 -0.23451567 -0.31020305 -0.3821265 0.3295287 0.29503953 0.31702527 -0.21800518 0.32713443 0.30041945 -0.20433663 -0.35071295 -0.33235082 0.38059863 0.2808242 -0.27385327 0.22101377 0.17697382 -0.35221478 -0.2512956 0.35182658 0.12852389 -0.24631377 -0.33198872 0.27685818 -0.27510417 -0.26858434 0.32358935 -0.14887574 0.24710222 0.19291534 -0.27652553 -0.21056451 -0.34508002 -0.3280453 0.048344698 -0.33014974 0.3092678 0.3514434 0.2689076 0.1391855 0.25687844 -0.3963758 -0.39575538 -0.3245941 0.3079209 0.3154718 -0.37148154 -0.33741176 -0.14092271 0.3892465 0.3206629 0.25899354 -0.0015191925 -0.045324273 -0.23159643 -0.3193591 -0.372195 -0.1253533 0.384484 -0.35925812 -0.2057297 0.2771299 -0.02632423 0.1790376 -0.26100305 -0.37238273 -0.3424091 -0.20276237 0.06968017 -0.1291102 -0.33607304 -0.23219278 -0.20928417 0.108658195 -0.36037698
shall -0.16739944 -0.22433846 -0.19461074 0.12872355 -0.16584176 -0.11255403 -0.18707663 0.27061528 0.15545537 -0.20774797 0.15936793 -0.12225339 -0.22076406 -0.25445786 -0.1952743 -0.26465705 -0.23857264 -0.1618909 -0.21214312 -0.23990743 0.20220448 0.2638756 -0.19620432 -0.2352409 0.20315859 0.24930972 0.114241704 0.24182628 -0.2184405 0.26913282 -0.2677796 0.21277033 -0.2373702 -0.20615543 0.22618343 -0.19956364 0.13095969 -0.2509558 -0.19714883 0.028022602 0.12549883 -0.24705335 -0.17404634 -0.19281057 -0.05624509 0.21769376 0.2829636 -0.2507758 -0.20790066 0.19767834 0.18305689 0.25771308 0.18930395 -0.21802376 0.25104266 -0.2525009 0.23791774 -0.21334602 -0.18651439 0.26726723 -0.251494 -0.19306934 -0.10015982 0.23188618 0.2244231 -0.2632612 -0.24821979 -0.24764109 -0.22675799 -0.18336535 -0.24018174 0.25873533 0.25865173 0.20590627 0.23806825 -0.22071864 0.21776415 0.23437911 -0.22734246 -0.13170387 0.26252437 0.22442934 -0.20324013 0.05067269 -0.20995295 -0.21685661 -0.266331 0.1888004 -0.1958508 -0.28124577 -0.2602071 0.17845704 -0.21131264 0.23995101 0.18830542 0.26470098 0.22867626 -0.1985325 0.19393283 0.16167946
that 0.3622144 0.46975884 0.101994805 -0.01923381 -0.016854126 -0.28346458 -0.1072541 0.10901581 0.43008143 0.02446503 -0.36790404 -0.3633045 0.31406552 0.30713892 0.22886762 0.28622797 0.35939583 0.3289165 -0.24437584 0.31606206 -0.28049907 -0.36404142 0.33544883 -0.3211569 0.15825763 0.21638528 -0.1440611 -0.39087808 0.23074411 -0.3900308 0.38542768 -0.3722504 0.37110925 -0.31346297 -0.345032 0.35134488 -0.3194283 0.3325139 -0.36126453 0.0712976 -0.19593123 0.35793728 0.009674404 0.20132214 0.34884435 -0.0071352925 -0.35815448 -0.17718834 -0.18501224 -0.37369743 0.27165407 -0.29197264 -0.38091394 0.26213577 -0.37887782 0.28623775 0.12616152 -0.22181065 -0.027946778 -0.21824393 -0.31816316 0.17519513 0.24901667 -0.1948957 0.37676325 0.05964454 -0.12113975 -0.37143433 -0.015411743 0.35732085 0.37803087 -0.33174783 -0.18926696 0.19422887 -0.19914542 0.27209243 0.23263207 0.051620618 -0.32273704 -0.13953692 0.3862138 -0.266171 0.2122098 0.35023537 -0.009294776 0.030611405 0.22658642 0.3807068 -0.43079844 -0.19551425 0.271974 0.043820143 -0.3418448 -0.12421454 -0.09216804 -0.22310607 -0.33444193 -0.2064488 -0.38174078 -0.29573452
there -0.20114286 0.2559618 -0.21622767 0.21469048 0.2001076 -0.29822856 0.28258365 0.2738399 -0.2496636 0.24441925 0.20365545 0.27162927 -0.21313833 0.20356943 -0.044935342 -0.25908566 -0.22890006 -0.2522166 0.23307197 0.18060976 0.14803152 0.26221332 -0.20641284 0.19926712 0.26772544 0.23234943 0.26278996 -0.22890995 0.20558606 -0.035170104 0.25066555 0.24811763 0.2283617 0.19873458 0.116417006 0.043024022 -0.018188804 -0.046297263 0.25476536 -0.26336616 0.2534075 -0.19188961 0.12263678 0.23579773 -0.21424133 -0.23836741 -0.24223086 0.22093046 0.26342368 0.22751196 0.24603172 -0.2526702 0.13744491 0.2684889 -0.21807094 0.27348635 0.22541769 -0.27429956 0.3009687 0.22444896 -0.18804182 0.24911931 0.22817037 -0.26260573 0.19607995 -0.13840394 -0.21349593 -0.29395685 -0.25036746 0.21406515 -0.15094508 0.16174701 -0.19037814 -0.26656264 0.23965624 0.26071787 0.26041365 -0.035020012 0.25775242 0.24466248 0.22454993 -0.32881632 -0.20635083 -0.24944177 -0.2075061 -0.23188993 0.20250537 0.13564558 0.18788354 0.32505023 0.25346673 -0.21350285 -0.19427793 0.111390725 0.097830445 -0.19413032 -0.1796227 -0.1805549 -0.26134893 -0.22087577
to -0.073750295 -0.078002594 -0.2719645 0.28279355 -0.34734592 -0.009833577 -0.021697892 -0.13548262 -0.3490071 -0.37774613 -0.20978546 0.009249501 0.293392 -0.33201417 -0.16843684 -0.31920263 -0.3412284 0.38095415 -0.29551473 0.032146968 0.32516775 0.2722805 -0.18884817 -0.238876 -0.26521543 0.23320004 -0.30090538 -0.27896094 0.09489762 -0.19014917 -0.17325011 0.2521883 -0.350673 -0.37063158 0.40727365 0.3532765 0.31619698 0.042963814 -0.23448358 0.07885851 0.075645305 -0.35503578 0.33719894 -0.1754983 0.16707991 -0.39622796 0.08594732 -0.05816984 -0.26697537 -0.32226977 -0.25723988 -0.30913514 -0.29982987 -0.33685526 -0.23822168 0.22707038 0.29793853 -0.23663718 -0.29258412 0.14070563 -0.34040117 -0.3456659 0.26492617 0.37170526 0.3060639 0.044189084 -0.2517655 -0.10723433 -0.24067996 0.27801046 0.14369756 0.3650439 -0.276517 0.27512327 -0.062356792 0.10135528 -0.18640588 -0.0061128824 -0.36303484 0.072937526 0.23101749 0.3533301 -0.17436805 0.08920563 -0.045873553 0.15948597 -0.2694365 0.37111455 -0.13274263 -0.1840579 -0.10200202 -0.32136184 -0.19697303 0.18475308 0.07663757 0.16735192 -0.040311567 -0.17084998 0.33293715 -0.1557515
where 0.19824383 0.2016106 0.16908479 -0.24235986 0.2503861 0.21697639 -0.25738597 0.2036703 -0.21362385 0.2793891 0.1745487 0.22823156 -0.25084513 0.23699588 -0.25057888 0.29412758 -0.19896416 -0.25096402 0.2434391 -0.12838596 0.29644763 0.13513577 0.22420876 -0.21471408 -0.18905103 -0.2684152 -0.23458733 -0.17619433 0.26661202 0.20559707 0.025549589 0.2453561 0.25671262 0.18035674 -0.26950163 -0.24888836 -0.21837997 -0.22093244 0.19989349 0.022285603 -0.1050623 -0.21706443 0.15493032 0.25712273 -0.19197808 0.2734859 -0.25348917 0.22894037 0.23198894 -0.21805546 -0.23022188 -0.24352731 -0.22506599 0.21195963 -0.20300749 0.16690649 -0.2699065 -0.21138112 0.22523361 -0.24093123 0.20018396 0.24607086 -0.24008994 -0.22058004 0.11949857 0.15444107 -0.13403194 -0.08600072 -0.2159205 0.21163793 -0.22947784 -0.2122253 0.21682827 -0.18176112 -0.26795965 0.26161453 0.22620773 0.16528341 -0.24029508 0.22284387 -0.23970753 -0.2703533 -0.16422217 -0.23046978 -0.24757847 0.21225715 -0.21335295 -0.251533 0.2045908 0.21268484 -0.26462626 0.22051379 -0.23744798 -0.11123712 -0.20844084 -0.24046744 -0.27594236 -0.25089052 0.20556857 -0.11811269
arbitrary 0.084244356 -0.11055569 0.26988477 0.14295757 0.37294218 -0.081914715 0.3524697 -0.31256557 0.08009021 -0.25417912 0.22306183 -0.2129069 -0.103185534 -0.2997777 0.34260818 -0.39815578 0.3330465 0.24724692 -0.25158185 -0.2785126 0.33534896 0.1856397 -0.052196957 -0.091051586 -0.0077075954 -0.36650604 -0.30668563 0.29768202 -0.10785544 -0.3014 -0.14745106 -0.27481344 0.34312737 0.08374961 -0.005920369 -0.28154933 -0.37476012 -0.20510966 0.3242473 0.17442088 0.045789983 -0.2707215 0.0500589 -0.33435753 -0.17540827 0.2736628 -0.2898666 -0.32087114 0.3813189 0.052138247 -0.35125294 0.35653934 -0.34263653 -0.29767862 -0.24054621 0.33203983 -0.335581 0.08870675 -0.25424576 -0.26850978 0.0019424264 0.08022462 -0.0312327 -0.24821477 -0.2859708 0.3767528 -0.21047732 -0.27560627 0.25023958 -0.21112247 -0.1495627 0.23219195 -0.26625592 -0.21433218 -0.41727006 0.3942944 -0.34374872 0.32531258 -0.25880966 0.25416633 0.27677128 -0.26231167 0.29735196 -0.25440487 0.077161826 -0.32919678 0.18742079 -0.2448267 0.43379834 -0.18104489 -0.39547148 0.12184471 -0.23368056 -0.00077093235 0.30763176 -0.005047308 -0.39412674 -0.39192984 -0.35455665 0.27141932
between -0.31748837 -0.305034 -0.3787862 0.037792083 -0.36495578 0.36107805 0.26052192 -0.15817113 -0.35980487 -0.23522228 0.33182946 -0.3609698 -0.15091193 0.042928733 0.25410002 0.2642979 -0.27513942 0.3402976 -0.36573878 0.35229915 0.29499647 0.23838249 0.22803283 -0.23384884 0.4045191 0.1651494 0.3291604 0.15071905 -0.35694316 -0.3204885 -0.116190284 0.33606687 0.23050214 -0.3830861 0.27258885 -0.09327379 -0.101224236 0.32504183 -0.29229334 0.26057744 -0.31390193 0.10123367 -0.26240382 0.36099687 -0.23116575 0.21303175 0.27231807 -0.34278843 -0.3753412 -0.37305167 -0.34724072 0.27327195 0.011284188 0.37764537 -0.28549036 0.14022467 0.1493731 0.26742035 0.24322042 0.21986432 0.32159305 -0.31061494 0.35949713 -0.30899122 -0.20103094 0.28162423 0.26190573 -0.26610696 0.22981766 -0.28827998 0.37969658 -0.15612878 -0.086865544 0.22087744 0.32917324 0.41092843 -0.3873812 0.39849603 -0.28392154 -0.29894903 0.3334472 -0.2897292 0.22047392 0.31109262 0.361447 0.2964018 0.34175685 0.076322265 -0.37597483 -0.29178604 -0.2806051 0.3494327 0.2544314 0.14395443 0.3239639 -0.15229386 -0.33960065 0.21520418 -0.3590805 -0.26404464
corpus 0.15043297 -0.20259517 -0.08817449 -0.17365946 -0.2182201 0.2448483 -0.038898125 0.21771255 0.21042272 -0.14442894 -0.19916795 -0.17969152 0.2298138 0.22575448 0.21086305 0.23744768 0.18037492 0.077043906 0.18173373 -0.2628054 0.21055923 0.19992124 0.27190977 0.14563428 0.16175076 -0.2725354 -0.17375584 0.24045014 -0.27757177 -0.18383084 0.2135224 -0.21963239 0.22554351 -0.26840737 0.17399234 0.24877924 -0.14963718 0.07846765 0.2727625 0.20620786 -0.2558819 0.26671514 0.20123917 0.26061428 0.122014746 -0.25797296 -0.19881186 -0.1938897 -0.25501633 -0.14422368 -0.25227064 0.254875 -0.26584092 -0.2466615 -0.18430935 -0.2177312 0.24880134 0.25099847 0.20805515 -0.22513781 0.18282759 0.25159925 0.20234722 -0.25336456 -0.24325651 0.19053324 -0.21901351 0.20371702 -0.12362657 -0.21120022 0.22253202 0.24770772 -0.27248317 -0.15819916 0.16942167 0.20784643 -0.12322214 -0.19969183 0.3064043 -0.23457102 -0.14490333 -0.23038396 -0.22207135 -0.16768345 0.18481973 0.11443235 -0.21815498 -0.14389838 0.25435463 0.070023715 -0.18743944 -0.25877473 0.07163624 0.095416464 0.26869833 0.20721658 -0.23627946 0.22765575 0.19279155 -0.1963367
demonstrably -0.22042249 0.23883322 0.19411556 0.17433137 0.23437972 -0.19453798 0.18281262 0.28804943 -0.29793218 0.3204027 -0.038233764 -0.25977316 0.19750705 0.23434262 0.1399663 -0.19693749 0.2592222 -0.24854027 0.29510993 0.23418029 0.21067423 0.23024897 0.24961045 0.12728731 0.1362432 -0.2694804 0.251326 0.14419566 0.27444208 0.1678972 -0.15371057 0.120330416 0.24297628 0.25646016 0.03436316 -0.08177854 -0.2981991 -0.15760645 -0.05087158 -0.23845515 0.296636 0.25682917 0.19298941 0.23230071 0.3042161 0.19193037 -0.27342448 -0.22152877 0.2114321 -0.11433559 -0.24389984 -0.2607703 -0.281665 0.143116 0.2652529 -0.25206223 -0.3145898 -0.15411578 0.2205849 0.24212442 0.31285772 0.28682816 0.23938906 0.2861696 -0.2530548 -0.13737273 0.23057216 -0.20930202 -0.2613789 0.27322704 -0.23424977 0.30112803 0.22061646 0.085633926 0.12591353 0.24212608 0.24944317 0.2486794 0.23979132 0.21141383 0.14822978 0.23250924 -0.2712674 -0.32085896 -0.21726368 -0.21364948 -0.18831503 -0.24178118 0.30996725 0.29047117 0.26215753 -0.25140852 -0.27936468 -0.23042375 0.28094658 0.28909177 0.19149953 0.30489844 0.28742728 -0.23009723
do -0.27034485 0.25482792 -0.27638754 -0.28258127 0.22443713 -0.2597664 -0.23641632 0.22376357 -0.22488037 -0.28231984 0.28270143 0.28635046 -0.30202547 0.15806137 -0.2717218 -0.2513786 -0.24786632 0.22757469 -0.20978151 0.24930635 0.23538314 0.040186666 -0.19240552 -0.30473053 0.055149794 0.2707858 -0.21699105 -0.157781 0.26111066 0.27867785 0.2357667 0.23640917 -0.20405069 0.1995848 -0.22671418 -0.29564458 -0.19209863 -0.24372321 -0.14880925 0.20453149 -0.23899719 -0.24845967 -0.28825694 0.16007331 -0.3024291 0.17925185 0.24921566 -0.18937677 -0.18880396 0.23924701 -0.18856327 -0.19199274 0.24126367 0.26129884 0.06689395 -0.25350702 0.22873265 -0.23423497 -0.2090813 0.20302317 -0.21945705 -0.15110208 0.24749626 -0.28814492 0.24243377 -0.062024735 -0.14976588 -0.25415203 -0.26296222 0.2827527 0.23077719 0.19444169 0.1318567 0.2185281 0.240664 0.20005012 0.22306149 0.23587054 -0.2579158 -0.24670236 0.20843025 0.25567317 -0.2674708 0.23067197 0.13162532 -0.18547021 0.2685773 0.2283556 0.21814267 -0.2716744 0.16625737 -0.17464651 -0.200189 0.20721279 0.25412318 -0.25995368 0.1735256 -0.28484157 -0.26383814 0.2663986
does 0.2599027 0.25576192 0.061969463 -0.26128805 -0.24095042 -0.17472127 -0.15984896 -0.17497449 -0.29055187 0.28311568 0.29711586 0.230395 0.2592999 -0.04469786 -0.22368816 -0.24276106 0.26803017 -0.09658381 0.21639374 -0.16259933 -0.17888348 0.2910973 0.25184283 0.043688964 -0.24071667 0.16283612 0.22966468 -0.2280339 0.2396682 0.28771675 -0.22104618 0.2808274 -0.27715793 0.20289272 -0.03939952 -0.27315208 -0.2530306 0.24091461 0.27459002 -0.17165501 -0.2558839 -0.23393355 -0.19204764 0.27036813 0.20431383 0.2776141 -0.27607363 0.15574104 0.22239555 0.2840294 -0.2940964 -0.15183507 0.21932283 0.21704501 0.25641957 0.026772283 0.13527504 0.23329718 0.26617822 0.23421292 -0.24280763 -0.17123953 0.2382679 0.24058585 0.16980086 0.2459767 -0.21731792 0.28893405 -0.014625502 -0.22575344 -0.26262584 -0.29463762 -0.18050282 0.07497421 -0.28394106 0.27513283 0.07029956 -0.1743226 -0.2685304 0.26535985 0.25644603 -0.29926923 0.24700116 0.28676143 -0.2257 0.21929657 0.19378102 0.20866989 -0.23411176 0.24305934 -0.31995928 0.23702693 -0.31602675 0.2586233 -0.2635374 -0.30446297 0.15937729 -0.27020743 -0.2589257 -0.22296056
fact 0.2528281 0.021901693 -0.30377117 0.112203196 -0.2704062 -0.31860468 -0.20452717 -0.23078533 0.009969329 0.3017092 -0.2278 0.27203557 0.2681362 -0.18314065 0.12741466 0.20353414 -0.11481053 0.21582797 0.24208002 0.17234953 0.2724828 -0.16981773 0.3142083 -0.2628721 -0.2081833 0.08027732 -0.058924202 -0.17904164 0.011366836 -0.22645678 0.26778653 -0.24761894 -0.23071171 0.14393976 -0.064759076 0.2873061 0.2539023 0.30622795 0.2135164 -0.22914141 -0.24623117 -0.24729167 -0.18136755 -0.24904154 0.21619461 -0.23726955 -0.288253 0.096423484 -0.204627 0.12700117 -0.15997304 0.14185436 0.019013332 0.10742719 0.26904288 0.04855611 0.28377512 0.25683966 -0.26424453 0.039150752 -0.21418668 0.08719722 0.17093767 0.24906932 0.26237524 0.25172266 -0.23195484 0.2840122 0.27379987 0.08114404 -0.24288455 -0.18312421 -0.26392677 -0.21191433 -0.2530312 0.24850379 -0.06834381 -0.29771307 -0.22359852 0.22861432 -0.17713831 0.27286965 0.21841629 0.29358152 0.2428595 0.21730123 0.27987343 0.21365547 -0.23983262 0.26609138 0.25575173 0.19047014 0.20148884 -0.24610135 -0.26862985 0.31825092 -0.25524724 0.25505534 -0.31274435 0.22550237
frequently 0.024707539 0.2760671 -0.19962701 -0.20384726 0.2603988 -0.24637581 0.23997226 0.20706436 0.20006453 -0.20052671 0.14791128 0.19125144 0.28715777 -0.19813488 -0.19975595 -0.22288065 -0.10833927 0.23592636 -0.12897114 0.19196191 0.24492304 0.2561301 -0.21834162 -0.26221588 -0.012133343 0.1826988 0.21580559 -0.24599034 0.25674963 0.24643119 0.21518281 0.22947541 -0.27273 0.27188814 -0.2650797 -0.25362659 -0.19411343 -0.21615514 0.26212296 -0.20207734 -0.124025494 -0.2832513 -0.18040423 -0.20797871 -0.13503681 -0.3016782 0.26860547 -0.07105658 -0.06324358 0.27311113 0.0960378 -0.16765383 0.18691193 0.24023509 0.23740378 -0.2066495 0.22197533 -0.2690184 -0.10002977 0.2311065 -0.19216055 -0.21893649 0.16570674 0.23712367 0.091422 -0.20122711 0.26892522 -0.27417013 0.1442301 0.22525728 0.21243875 -0.16127913 -0.1990163 0.23628467 0.22581679 0.238282 0.2705938 0.18770319 0.1467796 -0.21684577 0.19158159 0.26262698 0.1462797 0.2581978 -0.22668584 -0.23821138 0.20366022 0.23715802 0.18540935 -0.23670773 0.16013412 -0.2449986 0.1776533 0.29022282 0.16642615 -0.18333495 0.2493614 -0.2618531 -0.24992566 0.21960832
have -0.2719953 0.24553064 -0.23987912 -0.27798736 0.20942944 -0.25974157 -0.25792304 0.23398153 -0.08609752 0.048638444 -0.19521941 0.22762467 -0.28895974 0.2798965 -0.2443091 -0.28222778 -0.2031094 -0.12239033 -0.24887097 0.17478149 0.10150659 0.22564627 0.16023207 -0.27038878 0.24071634 0.06061098 0.080247656 -0.26860946 0.31730032 -0.26696384 -0.16666858 0.2302636 -0.13312054 0.1403697 0.15223776 -0.21890922 -0.26884115 -0.24449699 -0.2964543 -0.2608161 -0.28910318 -0.17142096 -0.22971004 0.26555267 -0.27081388 -0.23731676 0.17890683 0.20569721 -0.1106357 0.23889744 -0.21430093 -0.30100915 0.23948635 -0.28993 0.11491079 -0.2769547 0.2136168 -0.17431083 0.26599312 0.20502038 0.17739075 -0.09485905 -0.3012946 -0.26316702 0.2525152 -0.17486916 0.074673146 -0.23870803 -0.23904587 0.2614255 0.1887818 0.10323143 0.2981277 -0.18493819 0.20003597 0.23993088 0.27513236 0.1816702 0.23870891 0.18626451 0.25896302 0.19895512 -0.22197029 -0.25741565 -0.13166204 -0.25464123 0.26112622 0.27420276 -0.2643842 -0.2306832 -0.21015425 -0.07076309 -0.24262697 -0.14729822 0.26328838 -0.27357066 0.18659739 -0.27393225 -0.18434109 0.27951825
inference 0.2748167 -0.106126666 -0.0018298927 -0.21324536 -0.19988821 0.22797425 -0.13309827 0.24497356 -0.23624375 0.26268393 -0.12037202 -0.21468365 0.18753584 0.22641143 0.22439477 -0.20023084 0.2103837 0.29781562 -0.2658286 0.27988604 0.09307046 0.2563685 0.22035444 -0.23502131 0.21453911 -0.10345407 -0.23724064 -0.061907608 0.015290296 -0.2755529 0.09020679 -0.24626616 -0.21319087 0.24061306 0.25707608 0.27902338 -0.25337556 0.22979534 0.22477661 -0.22081359 0.28907537 0.12325786 -0.3216501 0.23950326 0.27830812 -0.28206512 -0.093803294 -0.15281291 -0.21097192 -0.22409625 -0.24278055 -0.19015656 -0.27757606 -0.17764103 -0.1647211 0.21039423 0.25338575 -0.22028221 -0.23058683 0.19550605 0.11137432 0.2252744 0.28859603 0.28596652 0.007800835 0.21587668 0.2570432 -0.23224019 0.19309793 -0.30388388 0.31496543 -0.2319834 -0.2751823 0.23668298 0.2222586 0.27043 -0.26577842 0.28661978 -0.27497053 0.12578204 -0.20954205 0.08718886 0.25641018 0.2424033 -0.061081193 -0.2509536 0.2693234 0.17340411 -0.22482537 0.30101946 0.2284691 -0.28479728 -0.20944518 -0.19679978 -0.23738037 -0.27780968 -0.23675056 0.062141642 0.0144680645 -0.30837393
relation 0.098455496 -0.21458772 -0.27314666 -0.2174957 -0.31530604 -0.268629 -0.28127885 -0.31846613 0.23607005 0.2814497 0.29455757 -0.2958112 0.24046159 -0.25333247 0.25893587 0.27933496 0.18262838 0.24284486 0.23120989 -0.2570969 0.16381007 -0.27574152 -0.31605577 -0.30510977 0.23771815 0.27391478 0.31104073 0.22470964 -0.1607732 -0.20380695 0.11309819 -0.041002408 0.1859965 -0.24817058 0.24573012 0.26179463 0.19893181 0.26819304 0.20751962 -0.3243888 -0.3026926 -0.2796506 0.27008063 -0.285415 0.29539135 -0.222916 -0.24104403 0.28060094 -0.23188055 -0.25820044 -0.25195006 0.21867 -0.19413604 -0.2175023 -0.075417556 0.2186149 -0.22352251 0.24780135 -0.28818816 -0.14384982 -0.15349446 -0.306158 -0.32242647 -0.21890053 -0.21579857 0.25288394 0.12858321 -0.2626316 0.21213911 -0.06310507 0.2033417 -0.2857148 -0.26527408 -0.246309 -0.19790255 -0.21613503 -0.27731815 0.2779084 -0.23155066 -0.23117955 -0.2563013 -0.018591927 0.28425512 0.086877935 0.07919884 -0.143224 -0.31154564 -0.30899054 -0.24587663 0.3033033 0.08706651 -0.008082202 0.19359167 -0.25609624 0.1498172 0.23414584 -0.097968616 0.19711699 -0.2906433 0.21987624
so 0.2421228 0.18761717 0.15808143 -0.19421677 0.13887547 0.24729857 0.24521402 0.19509093 -0.1448167 -0.18060963 0.16468248 0.22169791 0.25216624 0.19771145 -0.24261823 0.0414046 -0.20579523 0.24775279 -0.27549255 0.26695234 -0.215426 -0.20402816 0.21817239 -0.27616224 -0.124983944 0.30209392 -0.25444463 -0.23343374 0.27056292 -0.25613338 0.22825886 -0.24151652 -0.17069983 -0.30733907 -0.22501923 0.24119712 -0.2117612 -0.20169333 0.24166682 -0.25914818 -0.23110133 -0.23627564 -0.2617275 0.13129233 -0.22765325 -0.29956704 -0.25384316 0.24642614 -0.2131711 0.12773435 0.18779106 -0.2462254 -0.2748802 0.23981583 -0.2878477 0.18132722 0.24644439 -0.23056437 -0.2088416 -0.273208 0.110899195 0.21841346 0.26616168 -0.21719901 0.29008886 0.0515847 -0.27585775 0.2706322 -0.21438736 0.2917125 -0.28572622 -0.15896423 -0.08050109 -0.25305134 -0.21762101 0.27176374 -0.2879356 -0.27314484 -0.2826095 0.23861618 0.21249756 -0.27296868 0.2665841 -0.20407286 0.25331953 0.28302088 0.28915802 0.21713418 0.23547873 0.27796593 0.24308138 0.28717527 0.26851282 -0.26571947 -0.2531476 -0.2939439 -0.2169431 -0.2506757 -0.26820013 0.24119446
studies -0.29117343 0.20970772 -0.16822222 -0.23055738 -0.24044216 -0.24822251 -0.22683546 -0.25114432 0.25023708 0.2394711 0.22788273 -0.20034155 -0.22334918 0.28657 0.28996995 0.24563484 0.16135126 -0.24178524 0.29134974 -0.24204439 0.27882564 0.21373259 0.20815821 -0.22536007 0.28927416 -0.23733766 -0.2609599 0.25104567 -0.20217781 0.18721978 -0.26298246 0.20053521 0.18305288 0.20078903 -0.27952614 -0.24571717 -0.18962574 -0.08154658 0.17695384 -0.32127917 -0.19892116 0.20964387 -0.20876905 0.28156292 -0.23141752 0.18105708 -0.19913869 -0.023074472 0.2800881 0.19137962 -0.28060827 0.23483123 -0.30069023 -0.22074303 0.25182152 -0.22075239 -0.21377382 0.2689169 0.23590186 -0.18604732 0.25512472 -0.04793637 -0.29039744 -0.2749395 -0.30150777 0.27128714 0.24994569 -0.25707445 0.17015669 -0.23739116 0.2681344 -0.19913754 0.17989591 -0.29017058 0.24279733 0.04674925 0.26829034 0.23158628 -0.20793621 -0.29375505 0.24493134 0.22698253 -0.17764236 -0.31138587 0.28221145 -0.24372603 -0.1965437 -0.27550656 0.26522025 0.24554943 -0.22059304 0.2810708 -0.20430516 0.16944143 0.2810302 0.13329439 0.20725593 -0.08832366 0.20045628 0.13219482
support 0.25174955 0.13932143 0.3068808 -0.17828631 0.278182 -0.24171062 -0.23815289 -0.20973164 0.30977744 0.28621343 0.2504275 -0.19196653 0.16733466 -0.23228224 0.28900003 -0.2508967 0.29314658 0.22147597 0.24844591 -0.30039623 -0.18001641 -0.3096135 0.22094475 -0.18283798 0.1777655 0.25457913 -0.25786275 -0.21825144 0.21357593 -0.18782026 -0.13505596 -0.27946258 0.2543234 0.2352648 0.33308738 -0.21890157 -0.26876104 0.15939254 0.2052888 -0.07273293 0.2873583 -0.055296805 -0.27274904 -0.24329907 0.2236649 0.178541 -0.22319016 -0.24230969 0.18399267 -0.2744738 0.2691714 0.26673234 0.21909483 0.28871128 -0.20994806 0.21558446 0.20647995 -0.30559564 -0.25296164 -0.21873684 -0.2201826 0.22530676 -0.23154773 0.22942336 0.194005 0.19636007 -0.21002337 -0.10607213 0.08105888 -0.17100687 -0.15214798 -0.25353694 -0.20864141 -0.19849516 0.2295386 0.26119617 -0.24129 -0.20566237 -0.14379872 0.1730122 -0.24126577 -0.27504554 0.16645207 -0.21587886 -0.21063356 -0.27232844 0.09248124 0.08369179 0.29931563 0.09404049 0.2255075 0.2332405 0.04868797 -0.2997214 -0.16730276 0.28536725 -0.23750833 -0.13297985 0.2567698 0.09592838
two 0.27005753 -0.25218093 -0.26408228 0.2936224 -0.20613818 -0.19925147 -0.12735592 0.31140447 -0.21100993 0.25920328 0.27090064 -0.29932168 0.21475455 -0.28735945 0.21422343 -0.19131961 0.28384724 0.2763336 -0.27706736 0.19046953 0.286945 0.24606761 0.24399786 -0.2277016 -0.01734876 -0.2097577 0.27022412 0.2764408 0.21571192 0.21448253 -0.16747667 0.11415785 0.28062412 -0.261097 0.20985645 -0.28043854 -0.29696923 0.28275955 0.31513456 -0.30663085 0.23128335 0.23489802 0.259193 0.2489336 0.23964617 0.28177938 0.133608 -0.3000401 0.26077357 -0.2884964 -0.2387787 0.2535772 -0.28401065 -0.28439236 -0.27192828 0.29786184 -0.23653443 0.235365 -0.20046122 -0.22775103 0.18365622 0.22180009 0.29563096 -0.27597928 -0.12854216 0.21250987 -0.21593939 -0.20862453 -0.30190015 -0.18148337 -0.2585754 0.23021534 -0.25528958 -0.30804265 -0.052143104 0.20583265 0.09994062 0.26675895 -0.26992148 0.28137106 -0.28525665 -0.2805531 -0.07602146 -0.26532307 0.2931291 -0.28664306 -0.14845651 -0.29292428 -0.17971379 0.24629351 -0.26457885 0.2612302 -0.25153512 -0.31646875 0.33864227 0.23559673 -0.1391768 0.2731909 0.20910674 -0.19654302
are 0.19165304 -0.2551379 0.24819838 -0.1737119 0.18443623 0.25253814 -0.26938885 0.22438312 0.24853082 -0.30202258 0.15325129 -0.26979166 -0.11656786 -0.26439357 -0.16340004 0.25074297 0.19669281 -0.25227484 0.22567599 -0.26316398 -0.19256227 -0.2247054 -0.28268525 -0.23195186 -0.25930703 0.22950773 -0.2528331 -0.16649312 0.2301393 0.26901338 -0.22829083 0.24055398 -0.19673955 0.17423949 -0.18399318 -0.21716374 -0.19683112 -0.2844595 0.2621258 0.25902152 0.23232803 0.25129354 0.29346216 0.2725666 0.2670124 0.28870302 0.24179111 -0.22358501 0.23985131 -0.24785042 -0.22294265 -0.20547651 0.14265594 0.18362394 -0.25067827 0.111176394 0.01286294 -0.22984912 -0.14884147 -0.25141352 0.23377691 -0.12842809 -0.26197058 0.20958635 0.23936605 0.2691935 0.22527935 -0.18103738 -0.1623187 -0.2292638 -0.2218809 -0.20161955 0.22212422 0.27273196 0.1805104 0.18213555 -0.18634115 0.2229616 -0.2682423 -0.30900106 -0.23262899 -0.19523552 0.24215092 -0.18971924 0.13738677 0.27330357 -0.24162194 -0.21368362 0.20594315 0.2656298 -0.22990058 0.2639869 -0.18258363 -0.25296688 0.126454 0.30591652 0.2623713 -0.23588946 0.25505543 -0.24793595
associations -0.18520641 -0.20067462 -0.28870913 0.23667572 -0.24378647 0.20616756 -0.21872441 -0.26199767 0.18910293 -0.12234673 0.24027607 -0.24700299 -0.19772722 -0.23998162 0.2809994 -0.3189425 -0.045240663 0.28255296 0.20980279 0.1187673 -0.12682171 0.2531355 0.13117367 -0.1668031 0.27054292 0.25986186 0.30681017 -0.27515787 -0.26787606 -0.2126845 -0.2511183 0.22766942 -0.15051396 -0.1993451 0.2665057 -0.2769435 0.21480449 0.25012356 -0.24251683 0.15617542 -0.23350416 -0.30457947 -0.224971 -0.25413612 -0.19926488 0.2463488 0.23172191 -0.1020767 -0.20112026 0.29864293 -0.18126659 0.1895821 0.2972978 0.1493162 -0.2570767 0.31798062 0.23575489 0.20192906 0.2560912 0.24904974 -0.23304385 -0.22234397 -0.14244822 -0.27206418 -0.22093673 0.23838872 0.2372501 -0.27347037 0.22105335 -0.19876474 0.2795763 0.18288048 0.18795827 0.2548899 0.26427898 0.3032443 -0.15570623 0.24474292 -0.2269095 -0.22044949 -0.28685474 -0.18442096 0.2608647 0.22987106 0.2572897 -0.18612678 0.31911176 0.25418478 -0.27684462 -0.21783729 -0.08838394 0.0983767 0.23006353 0.058860954 -0.015849762 0.22078206 0.27020296 0.11389034 -0.2557288 0.22060381
evidence -0.1651476 0.17266616 0.21406238 0.26694715 -0.25793546 -0.24313648 0.28625366 0.3415599 0.20638554 -0.22117284 0.26610023 -0.22360925 -0.19111171 -0.27603754 0.30392575 -0.20671166 0.28999776 0.2511829 -0.2523343 0.26516598 0.23083064 0.30817267 -0.23360977 -0.29557893 0.24754845 -0.29571766 -0.28665695 0.2701015 -0.19421266 0.31743935 -0.26196384 -0.19405095 0.21783197 -0.27965495 0.032189015 0.31501865 0.2768024 -0.25260055 0.23461024 0.1731698 -0.28576654 -0.24347839 -0.20595233 -0.23072085 -0.25003797 -0.24715336 -0.2304112 -0.28891844 -0.2592245 -0.30502844 0.18087023 -0.21064351 -0.2789746 -0.2967317 -0.25140175 0.2303374 -0.2235003 0.2646944 0.22070502 0.14564875 0.23025395 -0.2050696 -0.2627483 0.26131356 -0.284627 0.22889037 -0.21527801 -0.2278112 0.23176044 0.23008084 -0.26112548 0.23193938 0.2880079 -0.20890726 -0.27634576 -0.25449085 -0.25046566 0.27566162 -0.25360468 -0.2975439 0.2507747 -0.258237 0.17248163 0.21786106 0.18041188 -0.27999738 0.24888945 -0.22660713 0.28090742 0.13333598 -0.21651518 0.23021114 -0.17869042 0.099578835 0.211993 -0.2746965 -0.20903297 0.27714017 0.21806034 0.12980533
experimental -0.27281532 0.25000888 0.26194263 0.2608832 -0.17741187 -0.21116738 -0.25732931 -0.19816084 0.25755355 0.21156043 0.22284563 -0.26178512 -0.2442178 0.26022905 0.25801387 -0.2626456 0.2350658 0.25024226 0.2850198 0.24712276 -0.26657805 0.2647482 -0.23481697 0.23364843 0.21915631 0.23654826 0.18658449 0.17659138 -0.26232693 0.18818866 -0.24885431 -0.24760891 0.16873339 -0.23022805 0.20655353 0.19956726 0.2471372 -0.1914841 0.2661625 -0.23276179 -0.24171944 0.13944046 -0.24908353 -0.21498275 -0.24150571 -0.20000954 0.20862038 -0.21271855 -0.2550233 0.2615582 0.24820575 -0.28571472 -0.24890387 -0.2575217 0.21668187 0.29161364 0.113437295 0.15798983 0.24163724 -0.26336634 -0.27884445 -0.26108962 -0.23611043 -0.28338355 -0.1921714 0.15040341 0.25363812 -0.23006783 0.020899635 -0.17921673 0.26064086 0.28853497 -0.2061076 0.26786187 0.20608601 -0.27202109 0.21407124 0.20758638 -0.21769176 0.2380396 0.09045653 -0.24363907 0.2694304 -0.21240677 0.23896374 -0.22650255 0.23405279 -0.21604858 -0.2560529 -0.23701833 0.22206894 -0.22002278 0.2053998 0.22542594 0.26371345 0.227015 -0.24718562 -0.024738373 -0.1417209 0.2867826
frequencies 0.22768828 -0.2749393 0.27006286 0.21915607 0.26627687 0.21338682 -0.31226128 0.2796521 0.30040273 -0.26323017 0.21884009 -0.2904283 -0.28964072 -0.083929636 0.21771862 0.19387777 0.30172074 -0.26452088 -0.16304721 -0.21508178 -0.19815299 -0.29676834 -0.2167719 0.26988453 -0.20965399 0.24820057 -0.24210176 -0.017974364 -0.25475794 0.1535722 0.28030306 0.18215492 -0.18854345 0.1286675 -0.23496884 -0.2967718 -0.28612065 -0.18790397 0.27921182 0.29028508 -0.26794052 0.28807676 0.11089775 -0.24136561 0.22914216 0.23225607 0.28445086 0.18531595 0.2782241 -0.2682587 -0.2638123 -0.256272 -0.29517868 -0.18919337 -0.2506512 0.19944987 -0.20408162 0.22695826 -0.2285658 -0.25463906 0.2915702 -0.23943134 -0.1792595 -0.20038064 0.24438354 0.18708393 0.25068495 -0.12267498 0.21388341 -0.24407886 -0.2410931 -0.23863247 0.2657989 0.28184628 -0.2552092 -0.27197617 -0.26493388 0.21704479 -0.30066815 -0.31216678 -0.26220518 -0.3007894 0.26310843 0.24355245 0.2577204 -0.17256556 0.2668309 0.27665365 -0.24698162 0.28987744 -0.22357869 0.27053335 0.24779837 -0.27332318 -0.19211872 -0.25162458 0.26737082 -0.27343243 -0.1969344 0.1921322
how -0.046183705 -0.32617843 0.36696187 -0.15311551 -0.23761413 0.30900374 -0.30081412 0.2200187 -0.27896795 -0.26744416 -0.2833881 0.07195494 0.071185246 -0.25414786 -0.3723542 -0.1890211 -0.27356952 -0.006554544 -0.27638435 0.30748883 -0.29037586 -0.34549266 -0.3165712 0.10562094 0.39253548 -0.38956264 -0.29138252 0.20145288 -0.12724352 -0.22935414 -0.17695002 -0.09053051 -0.3437081 -0.2577814 0.054254707 -0.33613542 0.34402373 -0.23972794 0.31145477 0.22755921 0.25737685 -0.29717368 -0.2843675 -0.23030172 -0.25455403 -0.35118055 -0.35536924 -0.33410585 0.18069029 -0.2890809 -0.40515566 -0.1479329 -0.07753364 0.25253177 -0.23465559 -0.004116844 -0.105272256 0.25342476 0.37645206 0.115123495 -0.30850884 -0.07793471 0.27222714 -0.32450798 -0.39176276 0.12964924 -0.14322136 -0.3450722 0.31799516 -0.14706573 0.30062735 -0.36707684 -0.36675227 -0.07033236 0.35236153 -0.3524794 0.16469455 0.1963139 -0.36184207 0.053521108 0.32634872 -0.29999897 0.001743356 0.16446276 0.2976343 0.29880068 0.3425754 0.17959777 0.33538386 -0.35233134 -0.10003111 -0.14443518 0.31883052 0.234665 -0.26527965 -0.3679491 -0.33393192 -0.38689247 -0.17272459 -0.35312286
of -0.19233845 -0.24072073 -0.24299516 -0.25955725 -0.2769205 0.26285508 -0.17494413 0.1942498 0.2017619 -0.27972254 0.1906261 -0.23574372 -0.23623398 -0.19183463 -0.21104747 -0.17368932 0.21407813 0.25894082 -0.19087154 0.28626662 0.20439552 -0.24241477 0.13251783 -0.025981406 0.23020412 -0.17207637 -0.19755003 0.09799225 -0.20538194 -0.18779135 -0.20213735 -0.19968954 -0.2352581 -0.2457732 0.2784968 -0.18594411 0.24464452 -0.19776464 0.18833135 0.24278349 -0.27215973 -0.19056225 -0.2591491 -0.21055721 -0.22115748 -0.19162597 0.17714062 -0.2662987 -0.20491253 0.19753177 0.08543231 0.19448075 0.2009192 0.2162773 0.0647646 -0.20910512 0.27214152 0.22275208 0.083788216 0.17235883 -0.21482055 -0.21221046 0.251411 0.14541966 -0.25881085 0.20655854 0.2296578 -0.20891343 0.17427093 -0.13195913 0.22370999 0.21009819 -0.2512556 0.2533417 0.21363792 -0.09936693 -0.19581628 0.2741321 -0.27026615 -0.21068242 0.2634794 -0.23531654 0.26222014 0.25231174 0.25516918 0.27031657 0.26821733 0.2123568 -0.23741013 -0.18690996 -0.2608551 0.21859498 0.2563615 0.27396452 0.21042852 -0.24115004 0.20474674 -0.21497612 -0.26918173 -0.27620864
present -0.25141126 0.25221413 -0.26455033 0.27374655 -0.26194987 0.11057794 -0.23176466 -0.24274372 0.19520423 -0.17728275 0.24540073 -0.26419494 -0.23014374 0.23230416 0.25131282 -0.22041443 0.21445255 0.21172586 0.23624802 0.19857909 -0.27130148 0.092733495 -0.22063066 -0.15514249 0.24334681 0.18827145 -0.28732133 -0.27715516 -0.2029152 0.22470054 -0.16347532 -0.35117266 -0.26221353 -0.22878215 -0.23966596 0.1605174 0.2632161 -0.16185941 0.015271547 0.15076265 -0.23723787 -0.23376377 -0.24846083 -0.20093031 0.21005423 -0.23514283 0.25115386 -0.025960809 -0.24508579 0.2799589 0.23684713 -0.2574594 -0.24119365 -0.27459937 0.18617533 -0.21768002 0.04478191 -0.19356588 -0.17517285 -0.2855612 -0.2276565 -0.28633294 -0.16047035 0.27364334 -0.17570928 0.2509111 0.22052357 -0.20959187 -0.26132485 -0.04544152 0.20314157 0.18818183 0.1831609 0.26114115 0.21166885 0.00732932 0.24305266 0.22355667 -0.21188845 -0.17891036 0.18228075 -0.2519375 0.3009658 0.21080711 0.19649427 -0.24761851 0.22468606 0.124951944 0.23694704 -0.20535074 0.12559459 -0.23338428 0.24982113 0.2780899 0.2387582 -0.21425988 0.2697202 -0.16699247 -0.11448769 0.17280452
systematically -0.19660419 0.22882329 0.282203 -0.19688264 0.24001616 0.22162998 -0.19990276 0.26683435 -0.2694042 0.24635217 -0.2797629 -0.27122962 0.21107954 0.19968687 -0.2688565 -0.29765487 0.28878966 -0.25932723 -0.19222984 0.1980462 0.30358037 0.19863136 -0.22083504 0.21927541 -0.27634934 -0.25485677 0.25237748 0.2634422 0.2686182 0.29034522 -0.26356497 0.21228524 -0.32120192 -0.23805717 -0.19310354 -0.18523005 -0.2721267 -0.25738218 0.2948054 -0.05632586 -0.20835578 0.29673004 -0.17130823 0.2991646 -0.19157425 0.265991 -0.27903506 -0.2877972 0.2595575 0.021042379 -0.2505607 -0.2221336 -0.2531929 -0.16396536 0.21365635 -0.24578391 -0.26962304 0.25716144 0.22860801 -0.2658156 0.26968923 0.25971264 -0.27918163 0.20020781 -0.120014906 0.27089533 -0.19191673 0.25589138 -0.2154681 0.24389929 -0.25287777 -0.23601048 -0.22635713 -0.20013654 -0.2201813 -0.19541493 0.25626093 0.26715174 0.04994951 -0.20649056 0.22884831 0.21826828 -0.059483975 0.21718484 0.26664007 0.28826708 -0.22030844 -0.014590506 0.21995959 0.22384708 -0.22768393 0.27477854 -0.2545796 -0.29598302 0.12671539 -0.23331113 0.26103055 0.22333513 -0.10156158 -0.22823718
word 0.23089683 -0.20653482 0.261729 0.21470319 0.2939703 0.2814115 0.24049823 0.2739812 -0.24971814 -0.22346489 0.29303235 0.21826737 0.24487077 -0.26181188 -0.24193722 0.28490767 0.19047943 -0.030086707 -0.21609478 -0.19441955 -0.21895769 -0.27041432 -0.21315973 -0.09693115 0.26998734 0.24524273 0.26279613 0.21781111 0.25638887 -0.2145716 0.25715286 -0.1606636 0.25051543 -0.23940986 0.2694812 -0.25158182 -0.25210568 -0.1591712 0.29075593 0.23722196 0.24002956 -0.12912111 0.2480283 -0.2440051 0.22237048 0.2335634 0.23502687 -0.25686547 0.22692898 0.2798366 -0.2685719 0.23792787 -0.26579326 0.22818178 -0.27423 0.2126922 0.15991084 0.27715278 0.23898475 -0.25032684 0.26098624 -0.22082807 0.17166844 -0.28036228 -0.2735301 0.2774339 -0.23778588 -0.2610773 0.25858057 -0.2576824 -0.2293896 -0.27435336 -0.20091453 0.23514958 0.2092966 0.03619835 -0.23144308 -0.2216935 -0.2229325 0.21459553 -0.25165203 -0.29162532 0.2257269 0.24017338 -0.22462982 0.26465625 0.20255722 -0.29343563 -0.22588779 -0.014776313 0.124429815 0.26052377 0.26053703 -0.28873175 -0.25706705 -0.28453135 -0.24572243 -0.26503897 -0.02719507 -0.20080166
been 0.24429773 -0.26782942 -0.25796852 0.28128466 -0.25997898 0.28418612 -0.26160923 -0.23927979 -0.26781353 -0.24064386 0.22532919 0.24222453 -0.2834232 0.25257638 0.24503593 0.22772984 -0.26178238 0.15111566 0.20002003 0.2686772 -0.24784333 -0.037259612 0.21836852 0.2789184 0.006130134 -0.23570772 -0.27815038 0.24470803 -0.20387436 0.24561828 0.09487959 -0.26769808 -0.22428109 0.046232454 -0.18348676 0.24689767 0.22554915 0.22849801 -0.24807201 -0.27953157 -0.08300233 -0.22137368 -0.23123175 -0.22648388 0.28622353 -0.073385954 0.16993287 -0.2381306 -0.16918477 0.14459594 -0.25847635 -0.3359741 0.29135853 -0.23323749 0.24222606 0.26467636 -0.2375238 0.24496263 -0.23080823 -0.1482857 0.1980909 -0.10647396 0.27189735 0.09498035 0.2828576 0.21721676 0.24090424 0.27139053 -0.24587677 -0.24177086 -0.2804396 0.239602 0.21963768 -0.22078386 -0.2814261 -0.23726144 -0.2667451 -0.29775703 0.16014329 0.22646329 -0.25930113 -0.26375997 -0.22084227 -0.18149535 -0.22828843 -0.2507356 0.25194976 -0.25443548 -0.29496378 -0.19890362 0.22454695 0.14208241 0.2869368 -0.2543865 -0.26163653 0.23529798 -0.24933112 0.19814487 0.19093122 0.21917295
has 0.27852723 -0.2831852 -0.23232922 -0.2273638 0.2848905 0.27596843 -0.20001175 0.2801331 -0.21290827 -0.28873807 0.3034811 -0.19716257 -0.27845475 -0.34009802 0.26871958 -0.23689713 0.32878458 0.31149927 -0.33228588 0.26887774 0.159233 -0.24717245 0.23768756 0.30032888 -0.1274078 -0.3170892 -0.25281143 0.29381382 -0.30751845 -0.27941942 0.23828694 -0.28524086 -0.22699006 0.23448619 -0.32053924 0.33951473 0.30740297 0.24407418 0.0018680462 0.29291442 0.27679476 0.2973442 -0.24164985 -0.27776197 0.27324012 -0.16413413 0.30278155 -0.29517564 0.21704596 -0.23912299 0.2585936 0.29499117 -0.26127636 0.13603584 -0.28744146 0.254293 0.24387205 -0.22469847 -0.31191143 0.29652002 -0.20662339 0.27727154 0.27639937 0.23734142 -0.27364758 -0.30748886 0.33695975 0.35005388 -0.3001392 -0.24115475 0.27104542 0.3433349 0.213596 0.26023516 -0.28089258 -0.25116232 0.3261555 0.28198212 0.30417547 -0.2530077 -0.2836122 -0.2144706 -0.30102828 0.27299097 0.27289447 -0.29743484 0.27452022 0.27806047 0.2918206 -0.31370908 0.28824705 -0.28074136 0.2908653 -0.2725472 0.32497367 -0.25388756 -0.31639397 0.30852923 0.30406648 -0.24055183
led -0.19890127 -0.29904592 0.270422 0.27161092 0.27163213 -0.11475814 -0.25688052 -0.26630554 -0.288118 -0.2726615 -0.28460354 -0.17429526 0.25822857 -0.13950674 0.27658102 0.29636505 0.18648347 0.2656141 0.23788802 0.013527215 0.27359325 0.30511355 -0.28531906 -0.16178392 0.17575406 -0.2805457 -0.31163183 0.23322421 -0.23043843 -0.26991394 -0.25433573 -0.21920139 -0.26063028 -0.28465688 0.28609765 0.22633013 -0.31607836 0.23971388 0.3037088 0.26877773 -0.28067857 -0.29064792 0.22142716 -0.24538909 0.2406031 -0.26357508 -0.21254577 0.27698582 -0.2753609 -0.24472165 -0.2862686 -0.23720036 0.025481477 -0.21157794 -0.2814862 -0.21851796 0.19475281 0.18108262 0.26463348 -0.25298044 -0.17408091 0.24311385 0.2017501 0.26159608 -0.23601116 -0.28382078 0.21374196 -0.23823798 0.27032083 -0.24915618 0.25975287 0.29387838 -0.30407056 0.2532864 0.2600536 0.2687767 0.2765257 -0.21798344 -0.20510285 -0.27565375 0.25189638 0.3050347 -0.19416822 0.2766704 -0.25222325 0.25215894 -0.26571196 0.29468277 -0.1216696 -0.28985053 -0.2368853 -0.23569715 -0.24363445 0.27180803 0.21153624 0.24141213 0.19419378 -0.23236537 0.28249872 -0.19363138
literature -0.21116103 -0.23448877 -0.22138089 0.29162815 -0.26349646 0.24426612 0.22044118 0.2668221 0.21589619 -0.26303914 -0.19241267 -0.25599208 -0.20766121 0.25034007 0.22663262 0.25698298 0.14027894 0.2334944 0.20749657 0.16424607 0.19405301 0.2760473 0.24168824 -0.22707926 0.18791029 -0.22397803 0.18448883 0.27296484 -0.21541469 0.1129302 -0.20756403 0.120287806 -0.19783373 -0.21208362 -0.06963789 0.2507852 0.25055715 -0.2280111 -0.21886778 -0.104162216 -0.26502267 0.22152223 -0.2509022 0.24046825 -0.2761637 -0.25796002 0.24834582 -0.29323432 -0.2488422 -0.14728 -0.23113868 -0.19087493 -0.22055963 -0.2714094 0.26866484 -0.22718228 -0.2129733 0.24692069 0.28541067 -0.17873497 0.26875538 0.22163379 -0.26145098 -0.23794453 -0.22079672 0.15743661 0.19066852 -0.20130597 -0.19798517 -0.2406847 0.25943452 -0.15899894 0.23843478 0.27046955 0.23293164 -0.24562092 0.24560001 0.20386274 0.068162076 -0.21355683 0.18630941 0.23173188 -0.24889861 0.25500032 0.26007673 -0.20125262 -0.15207091 -0.247244 -0.2496496 0.15297887 -0.14364916 0.25023836 0.1825712 0.24822584 0.27274218 0.16635801 0.22188403 0.27895355 0.12100149 -0.112711236
misleading -0.258686 -0.27426836 0.26697326 0.17159761 -0.25619185 -0.24378148 0.28110203 -0.2527228 -0.26171178 0.2220435 -0.25434455 0.22932725 0.29058474 -0.26194978 -0.19296023 -0.21738374 0.23712519 -0.2469378 0.24532902 -0.24023913 0.28344807 0.28255343 -0.21829526 0.21687908 -0.2482108 0.11385091 0.26607668 -0.282946 0.20623857 0.22591552 -0.25613353 0.27562022 -0.26917344 0.22200495 0.2240411 0.22188872 -0.26574516 -0.2243295 0.2650086 -0.26508653 0.26783106 -0.20823671 0.27659336 -0.28356004 -0.16497356 0.1984412 -0.32411313 0.31670088 0.15894234 -0.19445875 -0.25217518 -0.1915436 0.2583913 -0.2758404 -0.29330108 0.25742254 -0.108514324 0.32107416 -0.18876697 -0.29701403 -0.24881835 -0.2633173 0.25599188 0.26398307 0.10437427 -0.26842532 -0.25927004 0.20088157 -0.14134942 0.20651309 0.18615083 0.21504003 -0.21201116 -0.21396282 -0.23468189 0.22936068 -0.29514438 -0.14373127 0.19822 -0.24968791 0.23578262 0.27459756 0.24920207 -0.27477333 -0.26896217 -0.26926056 -0.23079175 -0.24685535 -0.27682376 0.22283517 0.22135234 -0.24698834 0.22098964 0.3031133 0.23072132 0.26413426 0.20960477 0.21083131 -0.24849582 -0.22077641
often -0.2513844 -0.25008413 -0.2644205 0.09802723 -0.29956716 -0.2826535 0.2544174 -0.26297632 -0.16261059 -0.2597684 -0.25748318 0.2652154 0.11132709 0.18535574 0.27157336 0.30294806 0.1731236 0.21287464 -0.28566867 0.28276116 0.22503082 0.25786683 0.26471263 -0.22692853 0.32246733 0.25406274 0.24291953 -0.2473692 0.14211443 -0.2909742 -0.20261794 0.288495 -0.25211295 -0.23903391 -0.21641612 0.26694188 -0.1912557 0.18306577 -0.2711311 -0.15892732 -0.2753947 0.19739634 0.16034228 0.28762883 0.15805516 -0.28801543 -0.25054538 0.243334 -0.2803437 -0.23336455 -0.27217817 -0.2677773 -0.2224181 -0.2508765 0.25353247 0.24309699 0.15876149 0.24345994 0.21019998 0.26818994 -0.2632881 -0.29393998 0.28619787 -0.22584268 0.1509181 -0.31488848 0.2593898 -0.20878918 0.23991846 0.27460748 0.2710915 -0.20329961 -0.26351956 0.18364553 0.29748532 0.35126525 0.24981913 0.1900574 -0.17086592 -0.23979917 0.25375777 0.2781061 -0.24104191 0.27634925 0.2119556 -0.24346903 0.247094 0.2040485 -0.3115099 -0.2685587 0.24868736 -0.26204264 -0.1424387 0.08645939 -0.26473105 -0.22828425 -0.20501103 -0.23403929 -0.28739378 0.28061685
or -0.25653657 -0.24804437 0.28734532 0.20657577 0.32233846 -0.19432245 0.27290177 -0.2500784 0.10218906 -0.049170308 -0.26053163 -0.26774746 -0.24787176 -0.31549042 0.302433 -0.05198496 0.19085664 -0.15334032 0.20883246 -0.2406293 0.29834452 0.19546999 -0.28706014 0.087567985 -0.18988454 0.25835007 -0.027632074 -0.21818626 0.23749553 0.2810101 -0.2527868 0.31753975 0.22019464 0.25741383 0.30609283 -0.2471104 -0.2851791 -0.29871777 -0.2921522 -0.2383803 0.21724486 -0.14334732 0.25910446 -0.2980629 -0.24889995 0.28139105 -0.05047219 0.25275883 0.2928111 -0.2831534 0.23311152 -0.27526847 -0.07200346 0.29547718 0.23580176 0.16031268 -0.24281238 0.24620944 0.27523467 -0.21412642 -0.23271395 -0.23185562 -0.28927857 0.30891258 -0.20858341 -0.1551319 0.12900974 -0.25829318 -0.28634396 0.22711876 0.019678684 -0.20581934 0.28387907 -0.26293597 0.24165653 0.19029994 0.25346786 0.23912908 0.12140422 -0.19526675 -0.24432665 0.118166566 0.30757922 0.24040379 -0.33149922 -0.27419788 0.17021994 -0.24297221 -0.24388993 -0.20354037 -0.30568674 -0.26889774 -0.29170612 0.28134996 0.18943636 -0.23833743 0.28979248 -0.25930384 0.26673633 0.30420136
results -0.23819208 -0.32876378 0.2505319 0.2971058 0.2367398 -0.23747304 0.24230216 -0.25282174 0.26364848 -0.27099714 -0.19115713 0.072084114 0.23812124 -0.1999973 0.17506224 -0.25870514 0.25666186 -0.23267025 -0.22771277 0.28106856 0.07445906 -0.305736 -0.22854556 0.25182384 0.05909589 0.21421662 0.28223735 0.24831778 0.18419504 0.16025731 0.1740823 0.06934681 0.27852777 0.25713366 0.21369132 -0.29316974 -0.20123023 -0.26373398 0.088338 -0.2618719 0.21264143 0.25704646 0.20377581 -0.2681715 0.13416748 -0.031342823 0.22694564 0.26497945 0.2595426 -0.27403808 0.26476416 -0.2940383 0.10671565 0.26794592 0.31778392 -0.1977541 0.2830655 -0.191339 -0.2236228 0.26467448 -0.28479877 -0.30889103 0.279638 0.24938168 -0.15516867 -0.24512093 -0.1587397 -0.1870711 0.20332862 0.21862204 0.31533748 -0.26428777 -0.26135042 0.2589799 0.24838841 -0.23750573 -0.26139796 0.26156417 0.28045166 -0.22650442 0.24894096 -0.21508406 0.015112132 -0.23236993 -0.23801723 -0.25218108 0.27791578 -0.27545145 0.049177032 -0.10974111 0.23125497 -0.25322062 -0.1376773 0.21237834 0.28206408 0.21003392 0.17724912 0.10491341 -0.25045452 -0.14252344
review -0.20605855 -0.2193359 -0.21946159 0.21165708 -0.21552648 0.22821979 -0.29104573 -0.23983261 0.18935198 -0.26835412 -0.21199727 -0.28409111 0.24509093 -0.23801744 0.19202867 0.18520722 -0.32113132 0.2649523 0.31295544 0.26436827 -0.20413229 -0.14967918 -0.22191562 0.21356207 0.17951564 -0.24130665 -0.29992005 0.16071531 -0.23271523 0.32569253 -0.22641054 0.22471277 -0.039904606 -0.29472426 0.3297028 -0.20639779 0.28934708 -0.32964984 0.27028757 -0.3805882 -0.26989648 0.27665633 -0.282637 -0.31152573 0.21191774 -0.2621627 -0.24010518 -0.2858207 -0.26680598 -0.21344978 0.28132668 0.20096418 -0.1510309 -0.25457385 0.22243918 -0.24422516 -0.23567475 0.22810994 0.27837124 -0.27233768 -0.26641753 0.26052055 0.32507625 -0.113836356 -0.15895855 0.25666806 0.27984306 0.29857945 0.14956881 -0.14483026 0.23724246 -0.30353418 -0.29131058 -0.19050227 0.2646893 -0.1552957 0.30741176 0.09900984 -0.28346843 0.24637064 -0.2655451 -0.23450443 -0.18268752 -0.11618113 0.27243173 -0.2730526 -0.21161717 -0.14485946 0.16281049 -0.2376428 -0.21169385 0.26886004 0.30383924 0.22784632 0.15457636 -0.08242382 0.29576766 0.2500591 -0.3114609 0.23781705
show -0.1800169 -0.23312835 -0.20713684 -0.2634237 0.24751356 0.21685646 -0.18694972 0.23763914 -0.2842376 -0.26002195 0.23108749 -0.22486912 0.19095622 0.21464224 0.22790153 -0.291295 -0.17389806 0.25551727 -0.18813565 0.24574926 -0.08226833 -0.20705098 0.2528337 0.10926899 0.2370367 -0.26120105 -0.19867295 0.26649463 0.21373847 0.20882629 0.18928036 -0.27518272 -0.24802352 -0.22499162 -0.22960718 -0.26912627 -0.16564056 0.2181019 -0.26144192 -0.18204293 -0.2613252 0.20883508 -0.27590418 0.1809434 0.1731673 -0.25095573 0.24077511 -0.26073387 -0.19140881 -0.19661786 -0.2860971 -0.1963655 -0.23454434 -0.21364848 -0.20762025 0.18671225 0.19731067 0.23895541 -0.18160017 0.17573239 0.24091004 -0.2432223 0.2143342 -0.18577091 -0.27100283 0.19487798 0.23019248 -0.27269313 -0.26007873 0.11952862 0.12383486 -0.22376336 0.18199939 0.2878149 0.20263116 0.3368466 0.21790145 0.22589841 -0.26696077 -0.2546473 0.22468024 0.21886092 -0.18730354 0.2604633 0.23000695 -0.22173205 0.24835531 0.19615133 0.27715898 0.22822277 0.23437628 0.20884882 0.28591287 -0.26189706 0.25544754 -0.24126731 0.22915584 -0.1695065 0.24349044 -0.25640535
unhelpful -0.27927437 -0.2924086 -0.2160751 0.287439 0.19109868 -0.28932083 0.2257839 -0.1906239 0.23574978 0.12998036 -0.2012047 -0.24119587 -0.15809868 0.26462093 0.16288523 -0.23247644 0.28836045 -0.20987609 -0.23851429 0.23388672 0.26082468 0.27466545 -0.07617674 0.07884773 -0.21736827 0.30520198 0.19004056 -0.1539102 0.3173738 0.2533799 0.29891303 0.24499406 -0.16250898 -0.25519484 -0.29019216 -0.20742996 -0.26159903 -0.24933481 -0.23006411 -0.25011364 -0.23066702 0.27582437 0.22258218 0.17706588 0.17895061 -0.24601653 0.23925693 0.27019548 -0.24391986 -0.22213383 0.22703907 -0.26985383 -0.23115121 -0.24295656 0.23181067 0.21325283 0.20923361 0.270721 -0.23187126 -0.2313335 -0.19122176 -0.21137388 -0.17798872 -0.07760336 -0.2695711 -0.17907235 0.22617604 -0.25275424 -0.29539752 0.25513992 0.25921467 -0.24971339 -0.059344493 0.27795106 0.27582788 -0.2558175 0.30036783 0.29115754 0.25830603 -0.265567 0.2649899 0.13317393 -0.24502356 -0.17939083 0.25919336 -0.26182184 0.21895793 0.22450247 -0.22663434 0.23618609 0.27638522 -0.2566837 0.11710355 -0.036986753 0.23637517 0.24906434 0.2218379 0.30386376 0.3031326 0.2633756
used 0.24042946 -0.22068882 0.27310705 0.276156 0.20043139 0.26556358 0.18729532 0.26532626 -0.10139707 -0.2929685 0.22084212 -0.03201678 0.23510104 0.25523746 -0.22584328 0.1988205 -0.2766966 0.28518492 -0.29929277 0.20311134 -0.21772894 -0.25741598 -0.27873707 0.18335909 0.2584287 -0.25659636 -0.27972856 0.27622306 -0.24626285 0.27249238 0.24033582 -0.229643 -0.23058814 -0.22795206 -0.2661437 -0.2826185 0.15726103 0.26944435 -0.23917975 0.23564109 0.21473952 -0.1955581 -0.22695695 -0.20945129 0.25241178 0.26426163 0.20651561 -0.2504239 -0.24321873 -0.3017574 -0.3067921 -0.22134224 -0.24718124 -0.2544876 -0.29271516 0.22173414 -0.29944482 0.24944358 -0.24347574 -0.24889714 0.25046796 -0.27325007 0.19218427 0.12935282 -0.24231923 -0.12214212 -0.16726306 -0.26566914 -0.2454092 0.21971835 -0.21232654 -0.25484452 -0.25441727 0.26720396 0.25390968 -0.2517133 0.18551466 -0.20891833 0.23607603 -0.32443085 -0.19564748 -0.20695159 -0.24760798 0.24335589 0.31136358 0.2551583 0.054414842 -0.16470167 -0.27159634 -0.22938117 0.22846977 -0.23602563 0.23981717 -0.2789817 -0.19156612 -0.2321187 -0.21235977 0.22158404 0.25182053 -0.27814668
